term_str,0,1,2,3,4,5,6,7,8,9,10,11,12,13,14,15,16,17,18,19,20,21,22,23,24,25,26,27,28,29,30,31,32,33,34,35,36,37,38,39,40,41,42,43,44,45,46,47,48,49,50,51,52,53,54,55,56,57,58,59,60,61,62,63,64,65,66,67,68,69,70,71,72,73,74,75,76,77,78,79,80,81,82,83,84,85,86,87,88,89,90,91,92,93,94,95,96,97,98,99,100,101,102,103,104,105,106,107,108,109,110,111,112,113,114,115,116,117,118,119,120,121,122,123,124,125,126,127,128,129,130,131,132,133,134,135,136,137,138,139,140,141,142,143,144,145,146,147,148,149,150,151,152,153,154,155,156,157,158,159,160,161,162,163,164,165,166,167,168,169,170,171,172,173,174,175,176,177,178,179,180,181,182,183,184,185,186,187,188,189,190,191,192,193,194,195,196,197,198,199
the,0.20789103,0.073307,-0.05688835,0.17046359,-0.32160714,-0.14682685,0.36668068,0.13233574,-0.12454337,-0.118886255,-0.0011390861,-0.15259318,-0.011229714,0.09489408,-0.20409551,0.15116961,0.089482605,0.12137374,-0.27291852,-0.41067398,0.2107077,0.24654222,0.3942313,-0.07165647,0.26747492,0.21177888,0.050834276,0.05340279,-0.22651605,0.09595321,0.036690038,-0.18409488,0.42853376,-0.17713892,-0.13429739,0.015395127,0.07491585,0.039100982,-0.10578628,-0.19299741,-0.1384891,0.37865597,-0.4754902,-0.03854883,-0.34550244,-0.2219691,-0.12261841,0.24200033,0.032125097,-0.20584582,-0.28145775,0.17469701,-0.102953725,0.008656178,0.05148291,-0.28031996,0.067465246,-0.16190153,0.2069477,0.35651264,0.033286806,-0.05903314,-0.017723866,-0.35138237,-0.12170069,0.17665587,-0.08705856,0.053146828,-0.10565686,0.16890506,-0.01052762,0.43928608,-0.23000306,-0.11086521,0.08725978,-0.0228357,0.23589745,-0.04497501,-0.081115074,-0.29847103,0.017814832,0.2500388,0.40159887,-0.047216233,-0.2421653,0.06329081,0.11099599,-0.319851,-0.23825358,0.12711456,-0.008233615,0.12712784,-0.054936066,-0.029073354,0.24138898,0.31372797,-0.14315669,-0.12226127,0.0727235,0.15847166,-0.017670317,0.08066047,-0.058969192,0.17716958,0.2462836,-0.07610376,0.27597564,0.27203774,0.00062357297,-0.220331,0.19800217,-0.29316583,-0.29486626,0.34820327,-0.08697579,0.09285685,0.26280913,-0.023132347,-0.14555939,0.008264678,-0.106908485,-0.21294951,0.32758212,-0.24197747,0.010158052,0.23151813,-0.24594165,0.2464006,-0.03720163,0.33743212,0.065533444,-0.18183617,-0.055291288,-0.28152242,0.18334113,0.37672386,0.39815196,-0.032002006,-0.04121904,-0.13381526,0.31463623,-0.39624506,-0.026596084,0.094345935,0.22032002,0.29309547,0.1183436,0.17158698,0.029471284,0.32727858,0.31039193,-0.07250307,0.1329514,0.32131904,-0.5471536,0.4727332,0.83052665,0.9050142,0.28480697,0.21540287,0.24078584,0.34460095,0.011439026,0.08265931,0.033294637,0.40681633,0.3511907,0.17472322,0.0765575,-0.0726193,-0.070186675,0.0036329338,0.35082808,0.34193665,0.098834604,0.27456173,-0.5451305,0.2616664,-0.17564085,-0.11782081,-0.4940823,0.32589903,0.35804352,-0.18675353,0.5100422,-0.045284383,0.1890939,-0.27465343,0.36139825,-0.16206978,0.41864246,0.12577382,-0.2650772,-0.3218725,-0.17330547,0.27829498,0.18247032,-0.14293431,-0.30907497,0.27155742
and,0.1461972,0.018179685,-0.16409086,0.10480585,0.037718963,0.10076176,-0.011080348,0.19905838,-0.016731294,0.035297643,-0.048296344,-0.12965217,0.10753581,-0.13076025,0.06887361,0.055128254,0.20819116,0.013507112,-0.07214524,-0.13192919,0.13952394,0.019599905,0.0021602206,0.101605475,-0.032873094,0.054640535,-0.040423296,-0.074405834,-0.0606842,-0.08769797,-0.07870334,-0.040166482,-0.006775351,-0.22982216,-0.046045467,-0.06270308,-0.07544722,-0.010241384,0.013363964,0.07867422,0.007978098,-0.12785393,-0.05173525,-0.0089185815,-0.04076511,-0.11972243,-0.14880468,-0.20474775,-0.10926793,-0.0074638496,-0.16176127,-0.18091823,-0.14888752,-0.07207817,0.07185351,-0.1553807,-0.051248673,-0.31385008,0.2420002,-0.22554429,0.028707149,-0.04676829,0.34736726,-0.1421405,-0.1226912,0.20002703,-0.024791155,0.009431937,-0.14049986,0.10857126,0.0030176237,0.19908212,0.0010278968,-0.11263423,-0.11596147,0.06694246,0.1755304,0.11515644,-0.119788826,-0.24741703,-0.11614343,0.01329976,-0.038693126,0.067805186,-0.10211298,0.0024456542,0.18199418,-0.12238846,0.06094354,0.23426425,-0.023592537,-0.020631675,0.31339607,0.007968128,0.1881605,0.1028159,0.07765303,-0.05933915,0.27147537,-0.08905435,-0.19636434,0.06501735,0.09778757,-0.003035767,-0.26080254,-0.53660196,0.042552527,0.23988107,-0.06619581,-0.37861654,0.10243869,-0.018252354,0.03664018,-0.03524952,0.043763943,0.05419453,0.13330534,-0.34805882,-0.020806821,-0.18007426,-0.08862213,-0.06022924,0.23997667,-0.052150328,-0.14043699,0.15472327,-0.17486906,0.04362608,-0.16226003,0.32784864,-0.04517315,-0.073693,0.04709645,-0.079782285,-0.06900779,0.51374525,0.050152633,-0.20294173,-0.24136016,-0.10366329,0.1747319,-0.1868777,0.03563064,0.022021448,0.25553206,0.12721294,-0.06226983,0.043442007,-0.03364213,-0.13107285,0.103567354,0.2510455,-0.12328345,-0.15467693,-0.06960824,0.060744233,0.32833216,0.2305711,0.27851835,-0.13106647,0.14441757,-0.0069132065,-0.048270795,0.16523132,0.013543829,0.3524857,0.07294977,0.12264429,0.011489647,-0.06908119,0.0058019576,0.07881562,0.10817544,0.24928294,-0.08946302,0.112824194,-0.20684493,-0.05983503,-0.082662575,0.01691382,-0.056658134,0.10437085,0.25391716,0.2365511,0.13663618,-0.005525342,0.29290605,-0.09909472,0.28030455,0.029614257,0.08799539,0.071126975,-0.34534946,-0.02247607,0.01855113,0.16808528,-0.0027287921,-0.14435434,-0.1101207,0.027187731
to,-0.30516538,0.2099334,-0.1543494,0.006133986,-0.00873358,0.12856694,0.35934725,0.23017,-0.22410563,0.004574381,-0.0071807727,-0.08419518,0.03985106,-0.09488397,-0.06793992,0.026176024,-0.07660385,-0.09263578,0.16559224,0.14682215,0.092473425,-0.20902707,0.22311972,0.15954079,0.05450825,0.14653681,-0.22372405,-0.333631,0.10869824,0.10832243,-0.07036502,0.04915551,-0.25604078,0.03851917,0.35267544,-0.17390853,-0.17318213,-0.011590103,0.2552389,-0.13439731,-0.07227846,-0.3649849,-0.0870402,0.3034504,0.120365664,-0.32740292,0.12958914,-0.03255332,0.05122087,-0.47151414,-0.037546106,0.051702086,0.077350184,-0.04501903,0.07852873,-0.040381704,-0.11221172,-0.18919398,0.11884871,-0.31969875,0.021146558,-0.028726717,0.056254975,0.1554805,-0.27073407,0.2567392,0.3990349,0.44929338,-0.16162236,0.6299894,0.071749955,0.15013199,0.53461015,-0.029539833,-0.01739104,0.18970852,0.3089875,0.06984833,-0.21669652,-0.42944252,-0.10984027,-0.23496863,-0.020390073,0.017830865,-0.2975901,-0.36812857,0.28187504,0.07311717,-0.3385077,-0.009730756,0.05484181,-0.1575536,0.24572706,0.09507466,0.45781592,-0.08799154,0.2883286,0.06086576,0.42988667,-0.061137937,-0.2285486,0.2679699,-0.04420922,-0.33908463,-0.3919681,-0.34065467,-0.10842982,-0.06249382,0.05711901,-0.3347936,0.13906899,-0.07978349,-0.032830466,-0.26512927,0.22705697,-0.078979574,0.12445432,-0.5778842,0.06337741,-0.3416225,-0.16280408,0.34831664,0.1841143,0.075856425,-0.71965307,0.12221251,0.03377098,-0.271053,0.107173584,0.2806151,-0.05724837,-0.09315181,-0.31223282,-0.06445734,-0.4013372,0.7842749,0.2927792,-0.060402703,-0.07423023,-0.12969936,0.5001497,-0.33893153,-0.0042218473,-0.19173172,0.13062708,0.24463975,-0.21625766,0.46070537,0.11145342,-0.37954602,-0.029505858,0.05699371,-0.0019434814,0.23981772,-0.22511132,-0.09193902,-0.09503602,-0.2116253,-0.12557676,-0.29081395,0.321955,-0.08577333,0.1625249,-0.18068312,0.147257,0.07112183,-0.2282114,0.05835538,-0.41748476,-0.32257676,0.11028776,0.29094452,-0.10196535,0.0630562,-0.15529469,0.34076184,-0.23973103,0.048763596,-0.46111703,-0.11884652,0.058714703,-0.491574,-0.06889428,0.3219479,-0.10017433,-0.2082421,-0.21642312,0.03416168,-0.080244586,0.12892005,0.032211225,0.30399495,-0.27941096,-0.012514252,0.07975952,0.19751108,-0.12829477,0.19988805,0.11896015,-0.31271863
of,0.13884638,0.082657486,-0.2415869,0.32258806,0.04323153,0.16965646,0.15245779,-0.1304896,0.078777075,-0.41450092,0.22758342,-0.2073851,0.32031545,-0.07563686,-0.1091758,0.46000484,0.17546178,0.007034849,0.17549454,-0.17595404,0.20214136,-0.12620392,0.057158552,-0.20743267,-0.34114444,0.42681152,0.17975357,-0.14310557,-0.030130232,-0.018338067,-0.012980627,0.05784435,-0.04048334,0.099039644,0.031435095,0.2035406,0.1773841,0.24726054,-0.14965163,0.15618193,0.33388147,-0.11386814,-0.006504676,-0.05817375,0.076594785,0.4200094,-0.1294178,-0.14327784,-0.14271282,0.031767257,-0.23665263,0.08694705,-0.35186303,-0.01698992,-0.047441956,-0.30256832,-0.03139672,-0.40903154,-0.09859329,-0.40018737,-0.02150485,0.0915861,0.23756099,-0.1068801,-0.272599,0.104828194,-0.3565034,0.10163455,-0.19546063,0.10658162,-0.19456732,0.18365401,-0.14619012,0.08095767,0.49817553,-0.105985954,0.27877444,0.24118082,-0.046136957,-0.06947656,0.022694172,-0.029487344,-0.05612346,-0.16319244,-0.03865401,0.010584564,0.24812111,0.12961729,-0.29893896,0.0026718925,-0.115042,0.20269695,-0.020631969,0.19953121,0.13672884,0.051695775,0.07761373,-0.15130049,-0.049179807,-0.017382655,0.12678866,0.23650047,0.25517297,0.44790018,-0.16251642,-0.123517886,0.2153895,0.04266214,-0.12911178,0.013988914,-0.03177183,-0.5626022,0.47851393,0.015553981,-0.09727749,-0.3903784,0.32950193,-0.6237256,-0.12646787,-0.41245183,-0.15282212,0.3583245,-0.08402047,-0.49174932,-0.5033984,0.51464975,-0.19875957,0.18240649,0.13404441,0.22045125,-0.015608437,-0.1017379,-0.0056089144,-0.38490897,-0.14265075,0.6338706,0.3487322,-0.08779763,-0.27520603,-0.22563757,0.16499457,-0.07234431,-0.08112163,0.2813259,0.23772454,0.1263538,-0.31786355,0.21599902,0.08229788,-0.018168185,-0.07607855,0.10733484,0.59234995,-0.15219197,-0.47884157,0.4793434,0.28481737,0.4956476,0.309314,0.085186936,0.046662398,-0.0029368228,-0.03319356,0.23220736,-0.12231102,0.16569184,-0.6281187,0.70802623,-0.2862667,-0.13499507,-0.13822463,0.10304917,0.2965095,-0.07806922,-0.04103254,-0.0038207439,-0.06476845,0.15775524,-0.51997334,-0.052632265,-0.26158974,0.118403435,-0.050024174,0.16721569,0.450726,0.018900063,-0.05758107,-0.18378493,0.22290878,0.009168708,0.20663765,-0.042974412,-0.1980536,0.3094953,-0.07651447,-0.05115829,-0.27888086,0.34220704,0.01309906,-0.04505745
i,-0.35011685,-0.31676534,-0.019811716,-0.07238201,0.46948472,-0.27670014,0.18281104,0.57464486,-0.0007700013,0.28021768,0.032243922,-0.4151538,-0.07626353,0.28427863,0.024738707,-0.27996713,-0.106359854,0.13093525,0.041207932,0.1915971,0.45689273,-0.02551059,0.38719591,-0.06991538,0.24397275,-0.2776467,-0.2954592,-0.2964953,-0.13212815,-0.47665086,0.6496389,-0.18785277,0.4872796,0.24157986,0.17023963,0.008251308,-0.3739544,0.18779153,0.1411245,-0.61695534,-0.20674965,0.073983364,-0.28173468,0.120339096,-0.18393618,-0.5468295,0.38747025,-0.24707869,0.11127674,0.2974274,0.21543059,-0.33356282,-0.014730739,-0.4370486,0.61562955,0.21721484,-0.03555975,-0.2897505,0.16344467,-0.51577187,-0.2501778,-0.34663627,0.40612674,-0.09557846,-0.89140993,0.40143555,-0.08027537,0.68116117,-0.5973242,0.85085416,0.1446723,0.14379542,0.95480835,0.5392258,0.060370535,0.06360019,0.15110537,-0.4054919,-0.797758,0.04286238,-0.41333282,-0.252806,-0.07413421,0.32677975,-0.16181557,-0.23909588,0.21194984,-0.25288677,-0.20664816,0.3385124,-0.09989469,-0.40442696,0.4401701,-0.15885888,0.3228441,0.29328936,0.4842031,0.4177857,0.24270774,-0.14482525,-0.35085878,-0.060804743,-0.38343439,0.07772214,-0.45295143,-0.4901965,-0.75216234,0.2727193,-0.07838422,-0.5455337,0.3671204,0.22042923,-0.3660611,-0.13071162,0.007735323,0.3363154,0.4038321,-0.45156926,0.269747,-0.105478294,0.18491112,-0.25777435,0.112627864,-0.049944658,0.60748106,-0.21106201,-0.3664815,0.14346676,0.31237346,7.162481e-05,-0.3373929,0.015837513,0.23859654,0.26162198,-0.028401027,0.32978615,-0.19003543,-0.16136338,-0.14354469,-0.39589754,0.41177136,-0.021377724,-0.22357464,-0.011021258,-0.06384731,-0.3647699,-0.167145,0.13545406,0.23109657,0.35109863,0.111355714,0.3928503,-0.51469254,0.43814847,0.24995674,-0.76302046,-0.1107329,-0.27670237,0.03471395,-0.20893279,0.17829569,0.44099492,0.46065676,-0.06423295,-0.28542593,-0.014805208,0.040617228,-0.66524726,0.048770804,-0.18216087,-0.11053219,0.18050312,-0.26569575,-0.4502488,-0.2063599,-0.33068737,-0.12535298,-0.16175091,-0.007225616,-0.026265508,0.18030113,-0.11485118,-0.14543977,0.070867576,-0.07052126,-0.4014696,-0.32296288,0.15112083,-0.074752875,0.20608562,-0.5590315,0.22995652,8.251781e-05,-0.080256656,0.17150888,-0.0021434,-0.43370458,0.2268253,0.10548753,0.25575826
a,0.29648927,0.03606152,0.022577144,-0.074974716,0.001707854,-0.13364756,-0.17953506,0.18957447,-0.17100728,-0.22909208,0.21631981,-0.22994971,0.4291322,0.07537826,0.03249439,0.23659065,-0.07226266,0.052663367,0.32202289,-0.36153767,0.05657954,0.011536179,0.21479233,-0.033007253,-0.12805152,0.2054377,0.16445431,0.0509763,-0.0063248673,-0.008391356,0.061528042,-0.011136124,0.23226187,-0.021400444,0.33990994,0.24086379,-0.22564046,0.21304066,-0.106302984,0.10732698,0.042886253,0.047681108,-0.16434884,0.3359855,-0.4627468,-0.1414443,-0.039166152,0.2130334,-0.36799395,-0.20215814,-0.21628667,0.13906346,-0.32154095,0.030913487,-0.30604264,0.12029401,-0.18152063,0.03854092,0.32550156,0.37459302,-0.16636857,-0.035207756,0.13099271,0.16883482,-0.13650781,0.32579723,-0.09090672,-0.08259261,-0.17131802,0.48291194,0.28785118,0.49282452,-0.31151828,0.09047055,0.20069945,0.21736495,0.14294255,-0.23175731,0.1984516,0.07093678,-0.0016630925,0.24657425,-0.0594825,-0.085785545,-0.34022862,0.11216337,0.17127989,-0.021803474,0.1710214,0.22799535,-0.04078804,0.46972916,0.24324653,0.31479782,0.13680771,0.5325435,0.11211075,0.02851212,0.10424837,0.1138963,0.10604667,0.14156836,0.26302692,0.14132485,-0.32551488,-0.06582328,0.14148119,0.16252652,-0.061021496,-0.1773531,0.2143984,-0.29021737,0.100139685,0.2946874,-0.14279394,0.12146808,-0.09646629,0.0039642113,0.021752145,0.21318497,-0.17761087,-0.23003498,0.17522527,-0.2169638,-0.12765257,-0.079601586,-0.20203261,0.14080617,0.01784579,0.32214564,0.07792278,-0.05827224,0.070268035,-0.30566195,0.2491267,0.13312863,0.016708555,0.2736722,-0.4253827,0.09101383,0.21860167,0.17032267,-0.20862366,0.30440152,-0.017711535,-0.20521568,0.06597753,0.4552074,-0.17748664,0.06405713,0.39850724,-0.10467086,0.2559132,0.09475729,-0.49891147,0.26412565,0.37041283,0.5973391,0.22205162,-0.021344954,0.034576837,0.40179265,0.0666,0.049202345,-0.23123251,0.29251593,0.39522055,0.6554929,-0.1502076,0.028447514,-0.110756196,0.28478754,0.15861428,0.18813814,0.11357976,0.6001709,-0.4181376,0.56759346,-0.51776373,-0.09571939,-0.54906934,0.18049088,0.34816933,-0.23318435,0.4151169,0.10882886,0.10828351,-0.1341408,0.55573463,-0.020556262,0.47409156,0.044781365,-0.6371168,-0.22840425,-0.2705436,0.21357514,0.2063123,-0.012913172,-0.0760395,0.058323894
he,0.2567141,-0.5002042,-0.07270751,-0.40397373,0.32583505,-0.43018287,-0.12681021,0.5923382,0.07987149,0.053887863,0.018547133,0.047396004,-0.3657016,0.07226723,-0.15419818,-0.42302224,0.3232738,-0.10896815,0.32232657,0.08403741,0.19559921,-0.04057684,-0.0105654085,0.43464693,0.3210961,-0.04846932,-0.3138377,0.051318303,0.081500396,-0.14011279,0.09968608,0.15572178,0.05173578,-0.02204781,-0.09484418,-0.19470118,-0.64624846,-0.065814696,0.06099987,-0.22387539,-0.108450584,0.054083686,-0.12142844,-0.044102516,-0.3898408,-0.5145934,0.13179627,-0.16324101,-0.019795667,0.38649923,0.20407887,-0.45824197,-0.3469988,-0.3534329,0.63052106,0.06297581,-0.17955503,-0.124500684,-0.038195938,-0.12010065,-0.5054708,-0.5928076,0.2900619,0.13940541,-0.70144004,0.5197437,0.17367034,0.5125604,-0.5180422,0.39131126,0.33984163,0.47535184,0.44762093,0.14835669,0.18722506,0.061180145,0.029749664,-0.038017023,-0.2686901,0.37372684,-0.41053027,0.3217799,-0.16409473,0.111136235,-0.20696989,-0.31398857,0.35158652,-0.14702101,-0.036753546,0.17025323,-0.06186377,-0.20076588,0.18689,0.09177988,0.033553936,0.24307829,0.117971964,0.39808136,0.085484035,0.21415704,-0.16102234,-0.0211196,-0.042315684,-0.19641161,-0.44332692,-0.0902299,-0.6636277,0.033764202,-0.0696584,-0.27428275,0.07087074,0.36869815,-0.41182092,-0.27511334,0.054484073,0.5001363,0.34582198,0.011242827,0.07116089,0.014156282,0.3378768,-0.123529136,0.6242239,-0.20610306,0.4889955,0.07229825,-0.38946956,-0.027428322,0.062568106,0.23647147,-0.3244744,0.056653406,0.33692324,-0.15431625,0.16926438,0.08354477,-0.5054888,0.07483989,-0.21408626,-0.22640643,0.22076146,-0.05341131,0.13046004,0.27783054,0.19336219,-0.5681254,-0.33065644,-0.26322696,0.27118176,0.2602162,0.07242365,0.119256034,-0.61966145,0.14720215,0.19577476,-0.0878375,0.38514334,-0.10549895,0.18024388,-0.3677493,0.3581745,0.42116046,0.10894239,0.22880642,-0.1488212,0.13877007,0.35118872,-0.16529244,0.43620402,0.08161533,-0.029601937,-0.21514969,-0.27764878,0.024761437,-0.03147951,0.119187854,0.21172372,0.00831813,-0.044648655,0.01424457,-0.02308542,-0.06768119,-0.17623873,0.21914546,-0.10119611,0.10124856,0.08152055,0.093018554,-0.15585646,0.19850707,-0.15414895,-0.06313198,-0.12730236,-0.20713668,-0.15934867,0.17619914,0.09559089,-0.06462118,0.018362263,0.122136004
in,0.0971503,0.07675102,-0.026927318,0.1357509,-0.03551699,0.07366509,0.16371119,-0.02742849,0.09996744,-0.19786558,0.15258567,-0.17982697,-0.10941061,-0.17500365,0.01700238,0.27248475,0.020589182,-0.083783746,0.128041,-0.15506852,0.31617293,0.08122865,0.20859143,0.24417798,-0.11688399,0.4198672,0.18898207,-0.12985212,0.013882633,-0.03316382,-0.20947808,0.06756005,0.089002244,-0.21338019,0.16906746,-0.04201243,0.1629281,0.009796203,-0.16103783,0.15524141,0.14193515,-0.015702054,-0.06525718,0.031955007,0.08209704,0.055276353,-0.10098991,-0.061509326,-0.014546718,-0.032431707,-0.10892527,0.10788048,-0.17025417,-0.06275617,0.048126478,-0.28626782,0.10357128,-0.32412782,0.11426732,-0.18459336,-0.22261354,0.16902058,0.077217594,-0.10311538,-0.23428404,0.13241519,-0.23065817,0.086466774,-0.12070265,0.16380855,-0.3329859,0.18706945,0.03964915,0.14549476,0.31579834,-0.124338716,0.28334287,0.09297078,-0.03680083,-0.23252198,0.035325393,0.01787144,0.32806253,-0.3435006,-0.035370808,-0.074182,0.14904298,-0.060731024,-0.26405445,-0.011785782,-0.067744866,-0.096835665,-0.032611277,0.041103087,0.1780189,0.16086376,0.21245024,0.053466715,-0.076938994,-0.1471656,-0.051144756,0.15668719,0.106494404,0.15913132,-0.13363774,-0.38955328,0.007963581,0.19494818,-0.06807358,-0.1770773,0.122478865,-0.2561932,-0.03841457,0.08645893,0.042995326,-0.20709537,0.32482472,-0.44634405,-0.11858287,-0.3645964,-0.16567978,0.07858202,0.09042277,-0.4523484,-0.1801596,0.5322746,-0.05818799,0.10933098,0.15251032,0.2860586,-0.13994606,-0.04555503,-0.122584864,-0.23604901,-0.28097823,0.6247068,0.44025818,-0.17481767,-0.2040819,-0.277803,0.2694697,-0.19612725,0.12123168,0.17478877,0.31399435,0.14368123,-0.085685335,0.07917951,0.17170608,-0.28359687,0.02643273,0.38926572,0.34101892,0.24415144,-0.41135627,0.034765273,0.26895213,0.17591934,0.3420793,-0.0016239131,0.462558,0.10815177,-0.04195727,0.23744819,0.1026084,0.20475717,-0.27407157,0.4219907,-0.11182416,0.04251691,-0.11439649,0.12008169,0.20719817,0.17439088,0.008181062,0.45668218,-0.26079112,0.012960288,-0.4471152,-0.1433893,-0.07601083,0.0052939323,-0.026825614,0.009391553,0.3183792,-0.06335613,0.10703948,0.006601758,0.317288,0.32946312,0.25239956,0.07227864,-0.241862,-0.109006785,-0.082036264,0.09006741,-0.0985332,0.25707713,0.124190986,0.079534896
that,0.15135314,-0.14456256,0.06883365,-0.101221465,0.3565207,-0.011814525,0.08783669,0.3396539,0.10739109,-0.08274408,-0.33637312,-0.3387168,-0.060036015,0.18073165,0.05169817,0.028750826,-0.2646971,0.33167887,0.31607735,-0.35918376,0.51254123,-0.11537928,0.05741457,0.1745804,-0.2010117,0.12510572,0.19003485,-0.015427338,-0.13437995,-0.14854264,0.4464498,-0.053246453,0.4002844,-0.14299054,0.1152861,0.12224525,0.12230414,-0.02534436,-0.051716868,-0.28504995,0.17386003,-0.028164651,-0.28272197,0.19789457,-0.15399666,0.08534001,0.16631027,-0.12536767,-0.057171904,0.05138087,-0.05757139,0.024545865,0.1328078,-0.17743035,0.24177384,0.16829827,-0.17529197,-0.23357265,-0.10868304,0.025744833,-0.27734044,-0.036660336,0.17226316,-0.14426464,-0.070439376,-0.13729516,-0.11771635,0.1977211,-0.22361128,0.42773005,-0.2272306,0.19419315,-0.18539497,0.027225895,0.22443627,-0.11371046,0.07159144,-0.054977473,-0.07437602,-0.05844478,-0.2762844,-0.057969056,-0.24349909,0.23980017,-0.16750813,0.07777805,0.42592803,-0.08278664,0.13863519,0.09936156,0.05706755,0.08122136,0.12854882,0.23789588,0.13847207,0.20084132,-0.089405656,0.07710086,-0.023278574,-0.07868384,-0.11872069,-0.10374505,0.031525057,-0.18342474,-0.14444457,-0.119717605,0.070194796,0.11066798,0.051385105,-0.082533374,-0.07827731,-0.37751567,-0.37369177,0.28815708,-0.012398651,0.025082327,0.37261364,-0.45097208,0.10409072,-0.15947334,0.049761552,-0.037388135,-0.05394001,-0.25476262,0.1082279,0.1539915,-0.23213185,-0.1302826,0.18031035,0.008105898,-0.11773405,0.003280824,-0.29801258,-0.03659035,0.06530167,-0.07518565,0.08626678,0.40777618,0.07815281,-0.10079245,0.11598409,-0.09901766,0.14956662,0.057272166,-0.01708655,-0.097505756,-0.1837387,0.2954335,-0.016083244,0.25491053,0.19984958,0.31885707,0.39540526,0.15685648,-0.13337262,0.253759,-0.017938616,0.057159267,-0.06844056,0.004241858,0.03307491,0.12447454,0.0077051907,0.09091209,0.107160024,0.07171814,0.17154114,0.25046578,0.2875573,-0.24019195,0.060309026,0.15179476,0.14551009,0.116236,0.001644309,0.32224223,0.0033763964,0.27170038,-0.20232892,-0.04674049,-0.07817403,0.1725432,0.31584737,-0.20642456,0.18727344,-0.07015343,0.19497515,0.19350979,0.1234568,0.11455238,0.2012958,-0.019441703,-0.22050042,-0.2891224,-0.16665037,0.18743989,-0.044458076,0.08014839,0.02977075,0.053166714
his,0.17791301,-0.15938286,-0.20506671,0.31043437,0.087036304,0.068312265,0.117981255,-0.09126411,-0.25395808,-0.45414993,0.105956815,-0.040182397,0.47560784,-0.0045887483,-0.09705578,0.17310606,0.14989091,0.12154059,0.3440851,0.39611116,0.19028434,0.20817459,0.32318664,-0.2425183,0.1224191,-0.019211901,-0.1760658,0.24770762,0.039786726,-0.035158537,0.09353628,-0.042981382,-0.14139883,0.005657537,-0.104679815,0.022649258,-0.44974238,0.18007725,0.28849185,-0.03670475,0.061966646,0.27272314,-0.15492558,-0.08411708,-0.5890325,-0.23866454,-0.05810297,0.11461869,0.075676054,-0.3058779,-0.1793853,-0.16188464,-0.019704456,-0.09753059,0.3214072,0.3113751,0.09895531,0.11969742,0.40931302,-0.17357637,0.18510334,0.023991676,0.25909734,-0.0035255966,-0.28687087,0.27877328,0.06801517,0.015782714,-0.16812973,0.3831341,0.3387145,0.06474355,-0.061724167,0.038910523,0.048290372,0.007064516,-0.049567565,0.38080525,-0.20693241,-0.0075115766,-0.11491192,0.25297603,-0.21235554,0.35604417,0.16743925,-0.14881122,0.3590733,0.14728467,0.04247836,0.14452487,0.23562062,-0.073515296,0.404454,0.14131442,0.034145266,0.36731702,-0.19478701,-0.11953508,0.25493044,-0.031351186,0.13940065,0.2196085,0.07924205,0.032068387,-0.28644967,-0.013059783,0.37398258,-0.024844086,0.37298068,-0.38704655,0.4554301,-0.17410484,0.3089336,0.26777312,0.08577659,-0.15130804,0.48534656,-0.57415414,-0.17862119,-0.07584374,-0.08610665,-0.0677758,0.18643215,-0.22470221,-0.31939858,-0.12895937,-0.642739,0.07715073,-0.06048697,0.3583211,-0.1554777,-0.2717395,-0.20382947,-0.40832037,-0.10420191,0.1227476,0.06950088,-0.104059294,-0.2078817,-0.029639179,0.0031802738,0.14677422,-0.070732184,0.38810027,0.11150222,0.059387386,-0.24878813,-0.032295737,0.2254385,0.53495216,0.032661006,-0.08227446,-0.20997122,-0.18921073,-0.22977969,0.6446982,0.81296605,0.77209747,0.23029116,-0.18387055,0.059988238,-0.0002981183,0.16365413,-0.10361801,-0.18682387,0.62489563,-0.09441753,0.2761733,-0.3620089,-0.31502533,-0.08259952,0.39349803,0.40543747,0.015262802,-0.36513624,0.08204209,-0.32627735,0.22833957,-0.49178857,-0.13941579,-0.77720183,0.37339336,0.5725177,0.44324887,0.68305254,0.024188425,0.0637122,0.019388838,0.5215794,-0.19355415,0.37328947,-0.007287661,-0.44836536,-0.09462248,-0.396353,0.48190352,0.26379138,0.3518031,-0.34480828,-0.09892193
was,0.023280432,-0.13002902,-0.24888873,0.24941015,0.06007723,0.004372216,-0.13015169,0.18183875,0.45384204,0.09225473,0.35139593,-0.102101356,0.19846813,-0.03420682,0.0012124091,-0.19798376,-0.0015606849,-0.024261441,-0.0058516124,-0.2008779,0.0038887612,-0.13466391,-0.2654265,0.0736866,-0.084268495,-0.0023146938,0.09621404,-0.0133034615,-0.5437535,-0.25922978,0.26507375,-0.4983076,0.46040228,-0.467142,-0.16165923,0.23509419,0.3132647,0.5079606,-0.08858662,0.12199491,-0.071729474,0.20651346,-0.16428544,-0.24123274,0.01319658,-0.31013873,-0.247213,0.4029752,0.07479539,0.29332525,0.12911992,-0.3506589,-0.464352,0.13989739,-0.118714616,-0.039874755,0.029745892,0.14213121,-0.022416493,-0.17291862,-0.14512685,0.13630281,0.019961186,-0.25442716,0.113781765,0.106277175,-0.17161651,0.024221692,0.2507907,-0.5905091,0.099683955,0.40896824,-0.11274251,0.20318823,0.38498253,-0.09911365,-0.06291053,-0.21080023,0.15448174,0.21716228,-0.30265504,0.15544508,-0.13964272,-0.54335517,0.15720722,-0.09986778,-0.35575357,0.18478495,-0.015290012,0.28966177,-0.44560754,0.7399125,0.8127864,0.74554867,0.5207864,0.34075803,0.10850008,0.14417045,-0.2346167,-0.045520183,0.06390789,0.20553756,0.2834484,0.49024567,-0.062053684,-0.029128127,0.19691691,0.012572863,-0.46818888,-0.01605392,0.20392081,-0.08237623,0.4222388,-0.26604652,-0.032894276,-0.07135689,0.24327488,-0.28755143,-0.14674732,-0.23130946,-0.17715609,-0.08437438,0.102637224,-0.30512628,0.21645641,0.5138263,0.21954338,0.064238004,0.030737678,0.051793773,0.11043971,-0.084455326,0.7713456,-0.65964323,-0.10948583,-0.22171989,-0.2111397,-0.28573132,-0.34397697,-0.2880564,0.15345046,0.12279512,-0.08481413,0.054527264,0.22628899,-0.28538978,0.011826622,-0.16106771,-0.09547485,0.12015581,0.4558666,0.05426889,-0.00869693,0.033785325,-0.7973088,-0.14414783,-0.13962863,0.4066839,0.1901722,-0.056082223,0.37503034,0.33216238,-0.34002566,0.49177083,-0.20741822,0.36482722,0.33409032,0.20813136,-0.24247578,0.16796395,-0.17115761,0.1693093,0.17514032,-0.14317669,0.4180383,-0.06996727,-0.2606039,0.55160326,-0.0091683045,0.43929812,-0.2785904,0.30613825,-0.2545323,0.11735637,0.20870149,0.29155844,0.55499786,0.0860316,0.5058613,0.060647786,0.6239105,-0.10376612,-0.16517866,-0.22976351,-0.32316422,-0.06413094,0.0049337377,-0.009608829,0.20348912,0.33826953
it,0.23119785,-0.33241257,0.206873,-0.13670942,0.46335018,-0.4251953,0.17879526,0.46693572,-0.14159445,-0.0873062,-0.1889958,-0.33508843,-0.12395032,0.1681419,0.2556973,-0.018468663,-0.35470143,0.09522842,0.48654613,-0.068737246,0.24340615,-0.020929297,-0.052534636,0.24278508,0.018979842,0.18731582,-0.0465567,0.16666296,0.11855362,-0.10720056,0.25938314,0.11339226,0.17831936,0.03440396,0.0863171,0.20258124,-0.0314781,-0.13239087,-0.020887379,-0.3731505,0.15208802,-0.016631719,-0.36064583,0.2939065,-0.14362574,-0.34726015,0.3706235,-0.039275452,-0.0073647136,-0.16055901,0.24618885,-0.12712042,0.18648468,-0.072143055,0.45627695,0.19758797,-0.1707544,0.008748378,-0.113511086,0.3033177,-0.5826534,-0.2772959,0.23551022,0.068397164,-0.49295637,0.07985099,0.10808255,0.4703407,-0.38811764,0.648953,-0.059653245,0.41058338,0.047708258,0.014039584,0.2788853,0.40979373,0.06429112,-0.32634574,-0.22336102,0.16930015,-0.22655517,0.15535142,-0.23278052,0.22269529,-0.21105002,0.07600216,0.46554595,0.15508375,0.033424083,0.17446887,0.0042311708,0.13731259,0.07188477,0.30212304,0.17157774,0.27904108,-0.13869241,0.33663082,0.15381423,0.07637833,-0.23128244,0.08790162,-0.036524024,-0.3682466,-0.30568537,0.09178685,-0.38352084,-0.100450724,0.08934609,-0.06757906,-0.04535473,0.0047954465,-0.502804,0.0021891503,0.061889905,0.16298316,0.32037842,-0.24592282,0.09578907,0.008869938,0.2584556,-0.07275816,0.2438745,-0.20065875,0.11129255,0.013181484,-0.29783452,-0.076801635,0.33669367,0.08598227,-0.04678936,0.03493085,-0.18525738,-0.13693123,0.10979939,-0.05896856,-0.071768545,0.33405417,-0.19173166,-0.065925784,0.42367738,0.030881988,0.0902064,0.060624316,0.07856272,-0.46020254,-0.10601987,0.23344249,0.12518744,0.25628313,0.30159813,0.02181537,0.005214397,0.3916819,-0.14776337,0.31326747,-0.00085709005,0.046938688,-0.16947441,-0.15212892,0.19133371,0.49820802,0.09137557,0.027227422,0.18178503,0.16323096,0.33935636,0.1865041,0.2744217,0.0152146835,0.22201854,0.049894527,-0.30119905,0.13828109,0.048429076,0.13605197,0.18972144,0.30144578,-0.15042765,-0.01664538,-0.21015759,-0.002249637,0.058690745,-0.060916055,0.067217804,-0.05384929,0.17013003,0.14916249,-0.24242783,0.041535217,0.023851167,-0.21922399,-0.41092893,-0.60960454,-0.22948441,0.30678117,0.32073122,0.097202025,0.06954731,0.3121728
you,-0.33371878,-0.29000303,-0.051755607,-0.13946499,0.34054688,-0.4186539,0.30879462,0.74838114,-0.46937838,0.1859445,-0.25066012,-0.5517756,-0.17231546,0.5749493,-0.3239506,-0.10837512,-0.24677502,0.2034374,-0.29518905,0.30535874,-0.2602921,-0.09715792,0.09901643,-0.21459794,-0.11848395,-0.2314026,-0.23483099,-0.27280256,-0.1967337,-0.19828522,0.3505953,0.34234157,0.30162114,0.5501848,-0.015575693,0.12845853,0.16594006,-0.09054345,0.23216072,-0.3875991,-0.14084797,-0.019267509,0.111154914,0.12591918,0.51755244,-0.3139189,0.7799485,-0.3854092,0.28810316,0.22483532,0.2788835,0.13248271,0.2235662,-0.2636682,0.3501048,0.13477014,0.050719567,-0.21399087,-0.23180039,-0.24092385,-0.02495414,-0.115889676,-0.0088406075,-0.17016882,-0.83806115,0.18854779,-0.1545693,0.58036005,-0.33215111,1.2647557,0.13463248,-0.25638872,0.63013035,0.39871362,0.29489914,0.41699746,0.3454339,-0.22927745,-0.7114861,-0.17316303,-0.16510803,-0.5579663,-0.7596874,0.8905031,-0.4110197,0.19841214,0.5584791,0.36668986,-0.17776795,0.4656194,0.21358883,-0.28428632,0.49917358,0.3477533,0.6316307,0.2836567,0.2886191,0.07921572,0.1868911,-0.3599328,-0.49819258,0.59235084,0.046414968,-0.38433525,-0.37561828,-0.24637522,-0.28407124,0.3101738,0.30538782,-0.18669268,-0.21438363,-0.15489972,0.20190163,-0.09171759,-0.3424084,-0.15767178,0.15998405,-0.2020532,0.2868354,0.112903185,-0.03990468,0.10524319,-0.12396445,0.036241505,-0.00017437615,-0.4237328,-0.6345053,0.053251196,0.17908211,-0.38189992,-0.24995139,-0.13624203,-0.25332224,0.25352553,-0.12077214,0.42452225,-0.0030861516,-0.1779068,-0.03922032,-0.38487703,0.059321042,-0.18441568,-0.13266575,-0.21564388,-0.4112685,-0.26106715,-0.16428125,0.06811802,-0.10146304,0.30039614,-0.034260083,-0.09297247,-0.28724474,0.18747427,0.2454742,-0.18375045,-0.17391257,-0.05387221,-0.4318944,0.031328317,0.19910944,0.15692098,0.58481044,-0.28481317,0.012458251,0.03975919,-0.077855736,-0.3557039,-0.29313836,-0.32335794,0.09501746,-0.20510136,-0.1721325,-0.3015191,-0.14900719,-0.42242733,-0.27407223,0.016247265,0.02677787,0.1406678,0.19019465,-0.13443199,-0.1765361,-0.008609418,-0.26945472,-0.21528958,-0.078477316,0.30054924,-0.31398782,-0.41254595,-0.3537912,-0.025497366,0.21853055,-0.22942543,0.0337959,0.03291359,-0.26310864,0.4552125,-0.3370231,-0.0014124765
my,0.21696146,-0.08503275,-0.3456807,0.4710314,0.24218406,0.11951126,0.26710314,0.64869064,-0.36072195,-0.18042375,-0.15854985,-0.5720302,0.6440397,0.3945782,0.0050436636,0.1965281,0.081541315,0.39391217,0.029871164,0.12157268,0.3788793,-0.07541138,0.47823972,-0.25885415,-0.07872235,-0.34152484,-0.24882098,0.11857325,-0.0817243,0.10107431,0.22846414,-0.10608436,0.07957812,0.18066011,-0.046232928,0.15606493,-0.10538214,0.21405986,0.21013121,-0.19222677,0.47201297,0.20893222,-0.15367588,0.37049863,-0.25252718,-0.27891836,0.41575226,0.0040122075,0.4992799,-0.45734537,-0.13970321,0.027498757,0.20586641,-0.15472682,-0.013063728,0.17190032,0.14741684,0.08257475,0.57329214,-0.19651093,0.45555863,0.17459199,0.27674368,-0.21976793,-0.5920178,0.31954542,0.17177117,0.15621448,-0.4007298,0.7623477,0.51414216,-0.22363476,0.18184918,-0.15249328,0.11415405,0.10512319,0.15722786,0.321881,-0.6118616,0.05467623,-0.13211854,-0.025063038,-0.051138032,0.5696836,0.19143812,-0.06494891,0.32379648,0.12269998,-0.059421252,0.10574426,0.516533,-0.08202155,0.41729778,0.09496597,0.2294237,-0.028529022,0.0306202,0.034377318,0.30188286,-0.037871417,0.010292921,0.4720244,0.0058846045,0.022756087,-0.26258555,-0.08203775,0.53544575,-0.14065875,0.58274174,-0.34548283,0.39669713,-0.47721782,0.25962228,0.15713911,0.008436783,-0.16289133,0.5396207,-0.44924834,0.016757518,0.2626217,-0.28067675,0.13294303,0.04461386,0.22632976,-0.44497976,-0.42307213,-0.76691955,0.06527999,-0.13251717,0.290594,0.1625883,-0.541131,-0.2049762,-0.53365755,-0.089601874,0.22482339,0.038757976,-0.12676951,-0.14481002,-0.07020413,-0.2747661,0.09930301,-0.24206667,0.18274477,-0.34188673,0.3323284,-0.19222122,0.34544435,0.085754715,0.51823235,-0.15294081,-0.36370164,-0.09896964,-0.33982322,0.28100544,0.5307435,0.44192398,0.5940553,0.06703775,0.05848593,-0.49309513,-0.08737129,0.34130123,-0.09223237,-0.331351,0.46013513,-0.64461285,0.10548517,-0.47862232,-0.38008803,-0.10476344,0.64264494,0.47322115,-0.28032398,-0.7062206,-0.5978018,-0.41842994,0.10885074,-0.2736528,-0.27030298,-0.6972328,0.14101286,0.47662038,0.47999075,0.62159735,-0.40643346,-0.16481718,-0.0721592,0.52375865,-0.19799027,0.13970621,-0.086178124,-0.56392366,-0.34913522,-0.09274475,0.39023522,0.38718987,0.39932778,-0.6287177,-0.15296431
with,0.13905038,0.25394794,-0.1731442,0.16137324,-0.11386947,0.18473102,0.098726325,-0.33535117,0.029672371,0.022035223,0.03510235,0.052250013,-0.10297906,-0.045532685,-0.024667684,-0.017824313,0.29777685,-0.108681284,0.15368076,-0.1901401,0.19668661,-0.0077295178,0.1467257,0.2936493,0.018296843,0.049562924,0.008708953,-0.16889024,-0.060093142,-0.054626293,-0.08040344,0.056915868,-0.0061113075,-0.3881637,0.18960543,-0.18272904,0.11843619,0.026815567,0.057596274,0.21304242,0.00172949,-0.05323442,0.29648212,-0.06875151,0.083346814,0.013661981,-0.44090974,-0.0055763163,-0.059399385,-0.014301184,-0.23758097,0.068125084,-0.27822214,0.040804457,0.015286728,-0.33847922,0.1352589,-0.23128091,0.01875767,-0.33357236,-0.01360421,0.09390274,0.09990894,0.026906293,-0.09981762,0.12256153,0.0014320156,0.15036224,0.0075149103,-0.07072075,-0.021356376,0.09082618,0.25984204,0.114954196,0.23021491,-0.22705996,0.3115839,0.21767335,-0.19059333,-0.20481798,-0.18419634,-0.08057753,0.078848936,-0.03945219,-0.17336155,-0.32533094,0.15785381,-0.0034553185,-0.20007916,0.015617922,-0.13032386,0.058253378,0.21313246,0.19864666,0.26043704,0.16933565,0.090362065,-0.010743005,0.06545669,-0.12635992,-0.20777306,0.13589074,0.17222711,0.074859895,-0.15471359,-0.3538902,0.055020653,0.07470163,-0.11101095,-0.34309447,0.14161325,-0.14204061,0.16953337,0.06786924,0.14593038,-0.18372811,0.12793624,-0.31216145,-0.07032754,-0.30785286,-0.28090376,0.25885934,0.15826008,-0.1107233,-0.2297549,0.44984585,0.012951137,0.036764275,-0.06646956,0.40298352,-0.16530691,-0.02049381,-0.0759388,-0.17225516,-0.34005937,0.5386825,0.22079942,-0.3907754,-0.1578506,-0.19914113,0.16720732,-0.25419766,0.09112962,0.12086202,0.32553488,0.22094691,-0.35430065,-0.03851503,0.19012594,-0.3678651,-0.04129006,0.2499723,0.045751847,0.0018709544,-0.32566473,0.026255999,0.29861176,-0.009116392,0.3620493,0.0298349,0.3414752,-0.16192265,-0.02352286,0.19442645,0.04372791,0.030474238,-0.37750322,0.20999461,-0.25951022,-0.06476837,-0.10271208,0.15398937,0.03424265,0.1856249,-0.0869437,0.32748765,-0.23655374,0.013436749,-0.16749778,0.060968924,-0.113325685,-0.09616723,-0.036302812,0.22370622,0.13127133,0.10774497,-0.008819432,-0.09006727,0.34434336,0.24812128,0.2854194,0.15508759,-0.113166735,0.07344124,0.17721435,0.14581768,0.008978945,0.03600249,0.15956151,-0.27360234
for,-0.048262898,0.022578133,-0.1523913,-0.058407802,0.018890314,0.13613375,-0.032293517,0.20215245,0.20576242,0.13072884,-0.2810789,-0.19027144,-0.116797104,-0.12593938,-0.033412527,-0.054567643,0.0061594164,-0.008929601,0.23148882,-0.19734369,0.24565046,-0.25974828,-0.03620542,0.1542475,-0.27448896,0.10212476,0.070935376,-0.22661631,-0.22536659,-0.09041362,0.13510644,0.19206895,0.067501515,-0.21581602,0.19789134,0.028053293,0.03721692,0.0061075375,-0.099567704,0.22184066,0.06754866,-0.18762755,0.11738085,0.1461315,0.13934255,0.1034557,-0.038850315,-0.121979944,-0.049765155,0.14839968,-0.12068369,0.21913785,-0.08721651,-0.021037485,0.030622547,-0.13336204,-0.054496653,-0.42465353,-0.008549631,-0.26789516,-0.060469195,0.15720464,0.03550134,-0.11420364,-0.15150574,-0.020092316,-0.0038378146,0.14716002,-0.15376227,0.21841303,-0.10006116,0.23009299,0.22775103,0.08889033,0.3121476,-0.14274386,0.15626638,0.1126085,-0.11989084,-0.29846835,-0.24922654,-0.16428296,-0.07601582,0.017392725,-0.15047063,-0.06919929,0.34897542,0.13873355,-0.030695103,-0.039699778,-0.021435339,0.06908768,0.13394615,0.17740451,0.27616084,0.25417262,0.11601512,0.06310484,-0.116769105,-0.07403864,-0.29391325,0.010102799,0.19664836,-0.11448522,-0.21655251,-0.3939584,-0.032580398,0.15388419,0.018361686,-0.11090417,-0.019751584,-0.4653206,0.05458932,0.11780972,-0.04080894,-0.15714704,0.05358196,-0.2204468,0.16916126,-0.19587749,-0.06408387,0.26259696,0.029604385,-0.12895879,-0.14405434,0.34047535,-0.0024736738,-0.097437136,0.032273434,0.09185363,-0.08162907,0.059006065,-0.04063659,-0.008865447,-0.15902849,0.46710107,0.24900119,-0.008322091,-0.0920515,-0.23684298,-0.025199834,-0.14194004,0.10011405,-0.046753615,-0.008792801,0.050297495,-0.2550449,0.18306595,0.050836645,-0.377125,0.06459787,0.28848937,0.36973485,-0.01979845,-0.18517277,-0.09974318,0.018199757,-0.14401068,0.0045255017,0.015643839,0.18518932,-0.06435997,0.15339693,0.09051991,0.015206811,-0.1151312,-0.28389996,0.13671188,-0.08411091,-0.11464435,-0.1484809,0.10615987,0.062164348,0.036847435,0.033486154,0.37196165,-0.24553752,-0.0070679164,-0.29227507,0.13013566,0.26741546,-0.116278715,-0.07887589,-0.022772342,0.08608299,-0.08777849,-0.07965705,0.06825985,0.27016327,0.37762344,0.21168548,0.20070177,-0.099218234,-0.10340142,0.12473467,0.07997272,-0.096018754,0.022588292,0.14041866,-0.18704244
as,0.109698094,-0.22070429,-0.0078727715,-0.05944474,0.36639386,-0.1689935,-0.26498574,0.011076871,0.33864108,-0.09259842,0.089931354,-0.012113226,-0.20277698,-0.033699796,0.26506087,-0.06300989,-0.19238098,-0.2291521,0.30867314,-0.23131256,0.17288542,0.020352064,-0.018572137,0.4778851,-0.0024496054,0.27465954,0.11633122,0.24431053,0.091991,0.07031322,0.06291593,-0.13601449,0.3652421,-0.43068087,0.22178155,-0.19924757,-0.0026691589,-0.3947257,0.025754564,-0.041409407,0.07429538,-0.32852107,-0.15001482,-0.15846623,0.11347602,-0.25695574,0.121006005,-0.18267922,-0.19673152,0.153998,-0.17125486,-0.2663625,-0.0024609899,0.13530785,0.35205808,0.084432386,-0.076232165,-0.262492,-0.06780843,0.20623274,-0.55833507,-0.02184877,0.29652262,0.08700563,-0.14429878,0.055822473,0.16533679,0.25504303,-0.066649824,0.44449514,-0.22871603,0.10743554,0.1913701,-0.14717792,-0.07661751,-0.022471093,0.08181663,0.044007547,-0.2117305,-0.30195165,-0.16116741,-0.09204382,-0.36731264,0.2493416,0.085916005,0.1472158,0.29942107,0.07320435,0.5066475,0.42430118,-0.092628285,-0.09653959,0.536979,0.11866117,0.13816111,0.28246748,0.07893552,0.26461715,0.20381965,-0.24318124,-0.052787364,0.13430904,0.022606483,-0.18786654,-0.31842,-0.4197617,-0.059453353,0.25721586,-0.20001325,-0.3691164,-0.22213593,0.09831585,-0.27115393,0.27550045,0.033521425,0.09745308,0.15533745,-0.4859198,-0.0050606765,-0.18465598,-0.06717614,-0.33905515,-0.06979825,-0.28331807,0.4486627,0.0035922132,0.21389015,-0.09226856,0.027442884,0.38017392,-0.15160877,0.17930605,-0.16743904,-0.34346047,0.04582829,0.29128093,-0.3850681,-0.0032786701,0.08664435,-0.30596745,0.2723048,-0.31312332,0.24945365,-0.067472994,0.39015654,-0.12672737,-0.05989102,0.069669634,-0.12585746,-0.1529338,0.05203266,0.72524124,-0.08809433,0.24077247,0.020171372,0.04780599,-0.25311738,-0.18920761,-0.025835952,-0.21331298,0.3807594,0.15730119,-0.38373047,0.3885253,0.09918773,0.37120456,0.36512408,0.050553802,0.4402395,0.16184345,0.3423397,-0.010604793,-0.017904934,0.31294975,0.082811914,0.27960834,0.048224587,-0.055857968,0.37692434,-0.012068761,0.34074306,-0.011591652,0.36557817,-0.17053649,0.08590734,0.3073307,0.5899016,-0.044764552,0.36557576,0.5123893,0.13321465,-0.36518896,-0.32521644,-0.3933594,-0.45038477,0.017763732,0.16544926,-0.47683635,0.38755366,0.1820075
her,-0.0739272,-0.37631726,-0.17480019,0.17963102,0.16625647,-0.106658,-0.06380746,-0.0027498887,-0.045514576,-0.11598761,0.13345766,0.0372876,0.42623484,0.042039145,-0.07057589,0.046584245,0.08502616,0.008129603,0.510727,0.7213179,0.31390837,0.25675148,0.086611174,-0.31831157,0.106775016,-0.11442146,-0.19570416,0.2314741,-0.088409476,-0.33297932,0.3338779,0.0025595878,-0.15920685,-0.049917053,-0.09062699,0.214204,-0.6104136,0.23923351,0.38513738,0.0016390003,-0.011299619,0.14483535,-0.27413613,-0.24085595,-0.48085406,-0.3105193,-0.011885435,-0.0328348,0.0076252962,-0.07569804,-0.040126972,-0.37073335,0.062120017,-0.04607566,0.53134,0.5225068,0.13672835,0.12434652,0.459927,-0.42375425,0.23019741,-0.11897679,0.24268925,0.033695865,-0.31100163,0.18755625,0.107814245,-0.092685975,-0.0041977046,0.25820336,0.39045525,-0.02743502,0.064069115,0.13582647,-0.021349197,0.10384777,-0.19927396,0.13257587,-0.32273605,0.19261622,-0.24540551,0.32937846,-0.47176668,0.371687,0.30368128,-0.1895314,0.19888861,0.20199716,0.18177284,0.31833065,0.11387397,-0.057113685,0.5454875,-0.062179375,-0.13881807,0.29979447,-0.1879897,-0.020608032,0.30091965,-0.11688026,0.07762279,0.1822197,0.022763584,-0.0007566712,-0.41391054,-0.23272431,0.01448358,0.023102442,0.13894229,-0.5056757,0.59640723,-0.007923621,0.27760392,0.19398881,0.12941074,-0.05528777,0.37650523,-0.62281394,-0.05936956,0.030604437,0.120806046,-0.26903963,0.24670677,-0.30963328,-0.20953062,-0.29969352,-0.37428635,0.06623614,0.034947477,0.18556632,-0.3250545,-0.11757924,0.040557384,-0.24389395,-0.057631392,0.05384468,-0.12794273,-0.22538817,-0.2916522,-0.16225609,0.23473418,0.23690456,-0.18741453,0.22256957,0.30048236,-0.11108755,-0.31556502,-0.037494324,0.25915983,0.5018472,0.18690792,0.21168989,-0.40004423,-0.16714305,-0.32535663,0.42417812,0.6862494,0.6446154,0.16679405,-0.28881755,0.07176095,0.061980642,0.05625489,-0.19892752,-0.35246247,0.65129954,0.12067846,0.061162017,-0.3998032,-0.338948,-0.17476083,0.33831796,0.2511357,-0.07476533,-0.25768632,0.06393307,-0.27923378,0.10189013,-0.4768785,0.04785599,-0.72231364,0.41659024,0.47356337,0.48252794,0.61679626,-0.041524395,0.086324066,0.17379759,0.4901267,-0.08862788,0.26056033,-0.079584695,-0.40627164,-0.15879244,-0.4062318,0.6469224,0.13399696,0.30228996,-0.096605636,0.021479078
is,-0.13062929,0.019207746,-0.314485,0.3463796,0.12157458,0.06922124,-0.011111583,0.62595356,0.29773468,0.1806442,0.17697924,-0.66722244,0.14960961,0.26187748,-0.1343282,-0.042715568,-0.26191497,0.13848086,-0.448572,-0.5868848,-0.27481762,-0.4722409,-0.19703388,0.13420062,-0.38706434,-0.13725416,0.19381736,-0.4079338,-0.8056684,-0.14843598,0.14552762,-0.28516677,0.6831308,-0.059303496,-0.15484731,0.28859627,0.7281253,0.45880905,-0.23541227,0.0960221,0.1278556,0.2619725,0.1987528,-0.28622958,0.44920948,-0.23258978,0.2789082,0.4864676,0.4656149,0.33148646,0.102773055,0.20003025,-0.40182725,0.096708745,-0.22450747,-0.22955541,0.057578217,0.21051593,0.005069069,-0.14543873,-0.03233255,0.33244857,-0.25893044,-0.4054484,0.14222229,-0.0015021384,-0.118430175,0.23638442,-0.07376255,-0.06252614,0.20792653,0.28387952,0.06302314,0.41665843,0.65991074,-0.18792398,-0.06642647,-0.23517898,0.2951223,0.018670846,-0.17701128,-0.34827593,-0.1809795,-0.4685635,0.13078773,-0.015782164,-0.12757163,0.24638085,-0.09565742,0.15963092,-0.42819023,0.824668,0.82161397,1.134277,0.9322987,0.26292613,0.21554385,0.27138484,-0.43636706,-0.18887448,-0.09646103,0.43293014,0.35083655,0.2592798,-0.089012645,0.029380988,0.27124664,0.13570109,-0.23825635,0.24015154,-0.15400401,-0.6167734,0.6283303,-0.30082706,-0.22334139,-0.22637615,0.27942595,-0.31537616,0.09775908,-0.09068612,-0.45424506,0.38169277,0.013005127,-0.21736877,0.033081897,0.43482772,-0.10847383,0.0069757276,-0.11058709,-0.21293537,0.23683783,-0.1710738,0.7707489,-0.71598023,-0.1441311,-0.18840802,-0.15251382,-0.24178807,-0.42915812,-0.32426438,-0.24137214,0.08466025,0.054426406,-0.06364358,-0.33442256,-0.18885183,-0.09376328,0.069790475,-0.2952928,0.07922299,0.33990142,-0.16177483,0.17834371,0.029427426,-0.43495414,-0.24332255,-0.62051797,0.10613157,-0.21413216,0.005611201,0.2087854,0.2616196,-0.05179023,0.5079421,-0.12809595,0.0954039,-0.26124448,0.2079335,-0.35152182,-0.009358031,-0.17120059,0.13114747,0.18095815,-0.3521102,0.3799771,-0.3400278,-0.3786708,0.56076664,0.06289218,0.50194895,0.0993241,0.009155194,-0.6568671,0.005781564,0.15498188,0.15930948,0.50181246,0.2032069,0.47192755,0.06767129,0.63782054,-0.035159834,-0.14142326,-0.44603923,-0.0519772,-0.13335302,-0.1004595,0.12942758,-0.05577584,-0.052165452
not,-0.37116155,-0.4275437,0.05082086,-0.37899265,0.35438558,-0.16546963,0.055674743,0.61855865,0.3074974,0.30511016,-0.40326887,-0.39308992,-0.49481633,0.28375992,-0.07398102,-0.49551162,-0.5805916,0.44888607,0.3898382,-0.2144697,0.5620469,-0.43974936,-0.15908876,0.19647203,-0.14506678,-0.028113678,0.17269805,-0.30012822,0.032717068,-0.19298613,1.1027954,0.18387716,0.57644695,0.16231938,0.26980144,0.24144481,0.10000783,-0.0026368983,0.12749319,-0.69825685,0.021433169,-0.2118374,-0.29669386,0.35863477,0.07208119,-0.020134177,0.62136894,-0.57705605,0.07304698,0.00057533477,0.22599776,-0.031167423,0.69967216,-0.22553606,0.3917383,0.47573888,-0.36618036,-0.19085035,-0.34639466,0.15714003,-0.21029398,-0.15034497,0.24011657,-0.21349263,-0.591519,-0.33849302,0.1412449,0.40652117,-0.28785545,0.9877189,-0.09181745,-0.038763758,0.14611624,0.31113106,-0.09106236,0.25526756,0.13505737,-0.25662613,-0.2789522,-0.09842196,-0.47697455,-0.26254252,-0.54654586,0.37740582,-0.15929456,0.19299856,0.6506889,-0.09375632,0.32264072,0.3645776,-0.013816914,-0.14503708,0.31354576,0.3210447,0.12551892,0.3818386,-0.09476989,-0.049362257,0.19429438,-0.084952675,-0.4082257,0.10552949,-0.23693712,-0.6510189,-0.4629558,-0.15386559,-0.44010678,-0.08209088,-0.33163083,-0.106672026,-0.06710153,-0.44715378,-0.5590781,-0.0044903876,-0.037481714,-0.043750588,0.51670253,-0.70091957,0.4168042,0.020100057,0.3718361,0.007147605,0.095149554,-0.13787402,0.07729447,0.08525536,-0.18278798,-0.156756,0.5044706,-0.56673056,-0.21076325,-0.012994896,-0.07614541,0.3072905,0.23390695,0.26804698,-0.07765422,0.47375396,-0.03198561,-0.29884428,0.17856672,-0.22959463,0.19975173,-0.2394547,-0.18042725,-0.30243823,-0.10485024,0.44837445,-0.091125555,0.08671297,0.020466678,0.6465622,0.30585286,0.730078,0.034033675,-0.25928748,-0.43416592,-0.31029874,-0.48858482,-0.3011696,0.12713242,0.15543066,-0.008554356,-0.07306972,0.14332777,0.110156454,0.4469731,-0.14677943,0.11084333,-0.38682395,0.06824411,-0.058637407,-0.014213574,-0.08174017,-0.06860665,0.42496216,-0.07978211,0.4515556,-0.16208972,0.1353221,0.23252599,-0.12330847,0.2826959,-0.14885068,-0.00017463193,-0.0047372384,0.05533591,0.26376387,-0.20748064,0.2903618,-0.3666889,0.06750033,-0.24600987,-0.43516028,0.0069848243,0.17773725,-0.39335075,0.094192505,-0.0027002343,0.19041495
had,-0.037385657,-0.24648643,-0.30480126,-0.38344422,0.074602,-0.6102076,-0.23320372,-0.2481638,0.5239906,-0.070381835,-0.22489215,0.5445484,-0.39826205,-0.4592358,0.025021495,-0.44580275,0.15609767,-0.4336945,0.89576036,0.33203363,0.45952597,-0.05879268,-0.15695481,-0.068018064,-0.02888905,0.43424207,-0.19576205,0.55763173,-0.8301546,-0.11315749,0.51309013,-0.4802674,-0.25767767,-0.6599126,0.014594049,0.02992137,-0.15288818,0.29123348,-0.15484145,0.47132835,-0.5352549,0.06162843,-0.6766532,-0.31990886,-0.01817944,-0.109630704,-0.78244364,0.039078508,0.08085869,0.5684666,0.10947293,-0.11558365,-0.21784802,0.04576443,0.6963497,0.24178134,-0.11496919,-0.18172584,-0.49191037,-0.38970184,-0.48613393,0.13737103,-0.44517127,-0.29388124,0.093791805,0.081347145,-0.013552336,0.068031855,0.41930255,-0.5961511,0.18519951,0.79105794,0.3610512,-0.07406187,0.4539042,-0.35545933,-0.33107883,0.24374944,-0.23171933,0.21065487,-0.95894915,0.7256383,-0.08981255,0.13520543,-0.025493285,-0.15399486,-0.07487612,0.8888623,-0.37745005,-0.4754299,0.21305999,0.4443019,0.46804094,-0.04842355,0.31711552,0.6249164,-0.38528696,0.038944677,-0.5778093,0.030996097,0.03387707,0.24289103,0.26029503,-0.053146128,0.03684075,-0.19431978,0.3513506,0.13235693,-0.30895978,-0.22230116,0.37297356,-0.56472015,0.26139566,0.16454245,0.16291703,-0.29732624,0.16100077,-0.15196696,-0.28806448,-0.27227283,-0.12767032,-0.08957581,-0.28193164,-0.46625468,0.34095225,0.024544772,0.97228265,0.22610348,0.24759369,-0.18317914,-0.3359181,0.18194543,-0.0026695363,-0.44569048,-0.2302277,-0.2031623,0.20097646,-0.10490045,0.17841485,-0.5737638,0.005268407,-0.022854358,0.24073395,0.04491412,0.24522583,-0.14416689,-0.3343735,-0.35093594,0.094579495,0.3714558,0.37376758,0.22194318,0.052209996,0.006825482,-0.85508096,-0.013401683,0.4801467,0.2086245,0.036202442,-0.096904434,0.5286968,0.14322008,-0.1689634,0.16944334,-0.3864239,-0.102489315,0.158736,-0.031875134,-0.3160227,0.30098006,-0.113162845,-0.2987398,0.05627584,0.13802934,0.491842,0.019309456,0.09842844,-0.10493721,-0.4986607,0.36045644,0.091516234,0.6518129,-0.5407834,0.026960665,0.56259173,0.09272011,-0.1964007,0.5332786,0.08560177,0.56659275,1.1224303,-0.010030922,0.23617062,-0.205074,-0.44814214,0.3066826,0.15030733,-0.44302115,1.0407151,-0.025074465
but,0.067891106,-0.27846137,-0.070695326,-0.06325733,0.23460747,-0.030085193,-0.019530063,0.46556392,0.20760636,0.07791197,-0.2514983,-0.15219891,-0.17940357,-0.034017555,0.10032265,-0.19136749,-0.19862193,0.06657175,0.13874795,-0.18095432,0.23207381,-0.22502844,-0.111818135,0.16967513,-0.11599201,-0.014840199,0.09786088,-0.11766505,-0.11644625,-0.03780978,0.22792225,-0.059986096,0.28871617,-0.21557629,0.09744125,0.087310106,0.1601635,0.054825664,0.0005673915,-0.061930448,0.032832693,-0.04500738,-0.040870365,0.13152042,0.068926245,-0.047373172,0.029466163,-0.10774744,0.022673484,0.02807101,-0.004615011,-0.15944992,-0.067795984,-0.022590598,0.18893427,0.055387493,-0.021155862,-0.12284528,0.015423577,-0.053385824,-0.22618228,0.01676468,0.14242925,-0.21328512,-0.08850554,-0.047069974,0.07616851,0.23719698,-0.19735478,0.21415414,-0.10355051,0.28907284,0.09324819,0.07462346,0.26119304,-0.11933801,0.2122097,-0.14450036,-0.21307555,-0.07312065,-0.25074178,-0.048968468,-0.18097676,0.037113886,-0.03134429,-0.035916325,0.14806159,0.068085186,0.067236856,0.12980828,-0.1150665,0.22581711,0.3570121,0.32886216,0.23730665,0.14391604,-0.00651407,0.1035034,0.07760683,-0.06924033,-0.20651713,0.07889452,0.011767956,-0.16490678,-0.18647952,-0.3445766,-0.081541836,0.0636146,-0.03399335,-0.17663786,0.033841025,-0.24894436,-0.14347358,-0.005515148,0.013790897,0.03339436,0.22933215,-0.28823557,0.18901883,-0.19377723,0.03829323,-0.009087754,0.024797723,-0.14540583,0.05177488,0.21865097,-0.04071446,-0.038440317,0.12443252,-0.027381081,0.05112379,-0.0780516,0.05999218,-0.12220313,-0.067330666,0.054470826,-0.019965816,0.067182355,-0.09170916,-0.2950392,0.096259244,-0.15279202,0.1290634,-0.040197086,-0.015631946,-0.19391765,-0.057864897,0.13566627,0.08636849,-0.006341358,0.17501025,0.22596936,0.1649931,0.08473567,-0.118416876,-0.060976163,-0.17522942,-0.09656063,-0.008873944,-0.09782558,0.10097612,0.0669783,-0.023322666,0.1606596,0.042153463,0.078649566,0.048028503,0.104111955,0.20188351,-0.12578025,0.022736888,0.10125806,0.103122644,0.069600396,0.057219934,0.17066775,-0.10223285,0.24732268,-0.05707985,0.10151819,-0.006903602,0.055349603,0.04871242,0.07109798,0.23041846,0.011781489,0.2398193,0.07769422,0.23686117,0.24043816,0.06942075,0.008586255,-0.23102945,-0.2946053,-0.12614298,0.008044831,0.0024985818,-0.040341873,0.035061456,0.091362365
me,-0.3090886,-0.16880305,0.1730221,-0.059975162,0.27901903,-0.255543,0.11422252,0.4712841,-0.35563064,0.060956802,-0.0027713045,-0.23291814,0.092121795,0.35893956,-0.14617234,-0.0054681962,-0.094807625,0.1338702,0.07805722,0.13252799,-0.1966751,0.114629254,0.022257937,-0.17465049,0.11842711,-0.3136783,-0.35883945,0.015149153,-0.19905236,-0.33944225,0.44355255,0.10506896,-0.09456568,0.5358198,0.019589487,0.18590192,-0.19610447,-0.11089216,0.2682306,-0.5502984,-0.13566823,-0.04384758,-0.28264058,-0.004816509,0.077456035,-0.30956405,0.47965282,-0.22186881,0.13546039,0.01718552,0.3057445,-0.09574487,0.24321873,-0.14380445,0.25900283,0.4578091,-0.15324832,0.12279838,-0.08032296,-0.08883199,0.02997498,-0.05618393,0.07950851,0.052017882,-0.40727732,0.2603716,0.09223206,0.2811598,-0.1669078,0.8731423,0.67412364,-0.049437255,0.27737924,0.1734623,-0.059394203,0.37650555,-0.14523794,-0.30809292,-0.2517636,0.1695681,-0.2752577,-0.29997414,-0.61446327,0.8601163,-0.314533,0.20797735,0.393417,0.22938268,0.086159006,0.28100842,0.37698382,0.12220634,0.608652,0.30682582,0.3441859,0.2514716,-0.13523464,-0.07313191,0.17029707,-0.13495083,-0.29022166,0.6624037,-0.04159603,-0.4428221,-0.44839564,-0.13094763,-0.16140749,0.18733956,0.04602485,-0.08913603,-0.08733142,-0.12096676,0.33991686,-0.22190455,-0.05555298,-0.061448693,0.1648394,-0.38705903,0.1490723,0.14306225,0.15942022,0.022890233,0.07976396,-0.06341093,-0.06505917,-0.5393571,-0.3933863,-0.0021576816,-0.06877616,-0.28091007,0.011086339,0.022006715,0.040040348,0.10257347,0.08523136,0.10289745,-0.44587898,0.012252497,-0.2482038,0.098415636,0.19353902,-0.055767335,-0.041437987,-0.044611488,-0.29669368,-0.04867164,-0.20809716,0.12109534,-0.18330207,0.40633324,0.06695483,-0.24119698,-0.50866944,0.15858516,0.12676321,0.17414206,-0.055505365,0.0684935,-0.50752723,-0.1616565,-0.021744559,0.071204975,0.26241624,-0.33592153,0.038490616,0.23533182,0.2926194,-0.4235151,-0.2773427,-0.10975296,0.106303744,0.029440023,-0.15354262,-0.20260352,-0.08363974,-0.28760108,-0.07054799,0.0060886894,0.08262291,0.11805972,-0.22710879,0.14094758,-0.07193801,0.019263312,-0.01021325,-0.03592074,0.010972863,0.36628065,-0.011814832,-0.30536586,0.029924069,-0.06975065,-0.32541057,-0.33367282,-0.14246269,0.22669415,0.023246203,0.07965957,-0.09146593,-0.11811959
him,-0.15390585,-0.17178714,0.093474396,-0.15320113,0.18715996,-0.30795407,0.01761274,0.1174702,-0.2662128,-0.054761734,0.07604014,0.15560515,0.032661114,0.111811414,-0.07511899,-0.10098529,0.09152177,-0.010352631,0.24512966,0.28496176,-0.04987994,0.16801931,0.053225648,-0.15618457,0.26497015,-0.15532643,-0.3649906,0.17642815,-0.0646566,-0.31936252,0.36645517,0.0068390183,-0.22947627,0.25704977,-0.015997434,0.03152931,-0.39618358,-0.04299986,0.22555944,-0.36293593,-0.3277526,0.015608341,-0.37272152,-0.05506868,-0.122052275,-0.26218846,0.1142012,-0.16739988,-0.05160763,0.05502312,0.30316943,-0.2758831,0.08428294,-0.12411626,0.36914137,0.437791,-0.12505989,0.07330007,-0.1551087,-0.1357127,-0.06259168,-0.14483464,0.045915198,0.16929767,-0.29945394,0.27295333,0.03335486,0.18053906,-0.038655955,0.4353564,0.46624932,0.0017914256,0.20902051,0.052080214,-0.10908141,0.26769492,-0.115092665,-0.14682245,-0.18599555,0.23164964,-0.28371888,0.011885051,-0.48181424,0.6025948,-0.21347906,0.0884325,0.2109952,0.21909522,0.056517217,0.1853043,0.29711217,-0.007086749,0.41661024,0.13445988,0.11715322,0.34413305,-0.16544911,-0.1115003,0.17003389,-0.00827409,-0.12618914,0.3934224,0.033220354,-0.32161248,-0.39823768,-0.15972762,-0.07739212,0.13228989,-0.021468617,-0.21728711,0.0910245,0.09434285,0.17481431,-0.26596302,0.02397544,0.01886655,0.12953459,-0.33356962,-0.032664634,-0.04370041,0.23753685,-0.14008802,0.13951361,-0.18653683,0.053014584,-0.2847645,-0.2008474,-0.00023591152,-0.0008116518,-0.13919458,-0.1697637,0.14574218,-0.0052371803,0.033153746,-0.012403343,0.038714994,-0.36131158,-0.07058131,-0.16368204,0.00019519239,0.3628925,-0.03545119,-0.03988759,0.103053875,0.070564345,-0.20038462,-0.17563534,-0.19722788,-0.024271406,0.45027086,0.0854963,-0.12992138,-0.46785873,0.17285702,-0.13954882,0.16381693,0.2524367,0.2683627,-0.2382764,-0.18078324,0.17274229,0.12050304,0.11949812,-0.2828232,-0.032692526,0.31511602,0.5099561,-0.28772628,-0.16763021,-0.011955195,0.029902045,0.025487348,-0.108674705,-0.10746795,-0.017907724,0.036453184,-0.0484518,0.03708217,-0.044292852,0.062332105,-0.3813044,0.32146254,0.10616902,0.07454969,0.07533715,0.08517492,0.03259283,0.4099116,0.022934789,-0.20932236,0.10911721,-0.013085233,-0.23861016,-0.09975949,-0.2237651,0.29078963,0.037732597,0.100948855,8.9677866e-05,-0.03613378
be,0.3148628,-0.310652,0.17276663,0.109300576,0.44757938,-0.2858762,-0.25425777,0.22163057,0.077608585,0.036427017,-0.20402712,-0.401409,-0.15971623,0.37994266,0.34935755,0.231797,-0.39328554,0.26238573,0.068565905,-0.5468117,0.31328863,-0.22262268,-0.22294067,0.023014612,-0.4077223,-0.041946705,-0.07413915,0.10644269,-0.5136315,-0.74061453,0.49342102,0.23202935,0.5877298,0.19097942,-0.070103675,0.42388296,0.47514367,0.10706858,-0.36931735,-0.08136065,0.1463992,0.48538253,-0.20201156,-0.6012512,0.367703,-0.0904038,0.3140518,-0.31470835,-0.16834486,0.49600044,0.36100015,-0.25388935,-0.033110064,-0.18094736,0.92981476,0.09204365,0.0055971327,-0.22291587,-0.38798514,-0.248921,-0.22855479,0.11974332,0.31339478,-0.28216776,-0.22701505,-0.46266732,-0.1861022,0.19602412,-0.40319747,0.5164367,-0.32242736,-0.08148168,-0.34907264,0.53873855,0.445774,0.2164095,-0.014958034,-0.5048683,-0.43778005,0.04294036,-0.25923795,-0.30820903,-0.6579972,0.6599061,-0.44729656,0.7677008,0.5579756,0.107968174,0.04045816,0.22958851,0.13664153,0.028757276,0.30107406,0.66030926,0.19520457,0.64289975,-0.64897656,0.15201662,-0.20372686,-0.49507686,-0.6507021,0.41373104,0.40970442,-0.4270455,-0.40253806,-0.30146486,-0.53773993,0.55553776,-0.06564912,-0.15684575,-0.22220363,-0.48453474,0.16241482,0.13782242,-0.34320116,-0.4411554,0.091620356,-0.501265,0.28537762,0.38803977,0.23683828,-0.25168002,0.17971054,-0.4319518,0.53395337,0.15327503,-0.65799725,0.29040304,0.4737268,-0.44325686,-0.19324519,0.25787592,0.04732288,0.009852141,0.3070009,-0.0128122,-0.26894844,-0.30874223,-0.71672195,-0.3379267,-0.11333485,-0.084243625,0.3355586,0.14039728,0.032355145,-0.5868932,-0.2254388,-0.20937443,-0.19707142,0.5713008,0.42135346,0.2448978,-0.13910839,0.32620183,-0.0121007515,-0.1586426,-0.018010156,-0.11672103,-0.14608954,-0.29774022,-0.16833971,0.22281532,0.08101143,0.06430905,0.32940972,0.34577465,0.043769605,0.24163786,0.42566192,-0.16978005,0.17179176,-0.28426158,-0.033712506,-0.26779443,0.11343421,-0.22316672,0.1527063,-0.0842044,0.34162405,0.39763042,0.1313678,0.4638036,-0.21239953,-0.23755465,0.69319767,0.107995816,0.50612414,0.28044558,-0.13187152,0.37105495,0.086768195,-0.46197358,-0.2586162,-0.3928796,0.27394098,0.30031818,-0.34490156,0.3198098,-0.1456524,0.15596318
she,0.14789031,-0.68622816,-0.08109773,-0.33197948,0.37422577,-0.5324554,-0.15848382,0.34633422,0.21324514,0.17318232,0.06933434,0.12618324,-0.3833846,-0.015131422,-0.034246985,-0.40155885,0.11864752,-0.27534685,0.49909788,0.41471598,0.37400565,0.11121388,-0.08427041,0.3343595,0.30383277,0.059975266,-0.17824855,0.12791772,0.11020369,-0.22911966,0.1999079,0.11420613,0.09235811,-0.29004046,-0.0097703915,-0.087675385,-0.7439927,0.048571296,0.12938198,-0.13045713,-0.12450659,-0.023237374,-0.15603378,-0.023395542,-0.47395596,-0.52054846,0.033358604,-0.18667157,-0.048662886,0.38214067,0.061168164,-0.4944657,-0.19693547,-0.23955493,0.8461412,0.15062425,-0.0686302,-0.12522632,0.15849754,-0.21843578,-0.5654359,-0.6829396,0.33312464,0.06494507,-0.68954945,0.38353366,0.12188649,0.4686805,-0.38901508,0.2561181,0.11594767,0.48591977,0.574752,0.24625303,0.17101789,0.086027816,0.003509519,-0.105424985,-0.44174942,0.35534155,-0.42073578,0.51512474,-0.1712365,-0.034435052,-0.030303724,-0.40311444,0.30019918,0.02058734,0.031512395,0.33932367,-0.23559168,-0.22770654,0.30833584,-0.13881157,-0.0910772,0.2517597,0.1747347,0.5535355,0.16294315,0.115121186,-0.07330948,-0.15638718,-0.1792253,-0.06559892,-0.44831854,-0.27454248,-0.84898025,0.042674527,-0.17333606,-0.48023555,0.29664677,0.4509217,-0.5049707,-0.050277498,0.15634215,0.4520917,0.32922944,-0.099544056,0.0684666,-0.087892234,0.3643975,-0.37121153,0.5416737,-0.30091882,0.571316,-0.038705356,-0.13303986,0.031926896,0.17842685,0.31546786,-0.5240871,0.08310535,0.29720688,-0.060812317,0.10933491,0.16742171,-0.44204834,-0.1460124,-0.2212435,-0.49885306,0.47834507,-0.062885016,0.001216868,0.19546027,0.42524162,-0.6340185,-0.3355877,-0.28217837,0.38664508,0.19573723,0.14960517,0.44902265,-0.5625442,0.23291826,-0.030038211,-0.116039045,0.45164928,-0.024059651,0.25496885,-0.40935972,0.536177,0.50762886,-0.032206375,0.18007669,-0.29473266,0.2282301,0.41970983,-0.20615211,0.38493952,0.13093339,-0.06534067,-0.15116958,-0.3001885,0.13027233,-0.061745305,0.20199142,0.15206492,-0.020650672,-0.11172299,0.10870222,-0.09183982,0.0063747363,0.013181235,0.26124462,-0.021539353,0.10831099,0.097482495,0.06393144,0.040516928,0.2635754,-0.11557658,-0.15284261,-0.17351426,-0.28603575,-0.2894803,0.35391703,0.20259179,-0.1638175,0.24370736,0.26509747
on,0.10491283,0.21228838,-0.061280522,0.09501342,-0.13944672,0.06868586,0.18723144,-0.16096212,0.03452899,-0.018833006,0.19172713,0.028573332,-0.16133265,-0.15332133,-0.12177238,0.09519595,0.2971347,-0.15633409,-0.06809048,-0.12782997,0.15688552,0.13554686,0.23930211,0.36242986,0.104525015,0.3227377,0.010780351,-0.108673684,0.07233489,0.029696254,-0.32700396,0.0065920516,0.034456555,-0.37342435,0.052439313,-0.24456692,0.03798868,-0.065695964,-0.07943283,0.12319074,-0.03288016,-0.14369254,-0.0011557116,-0.0725418,0.062108148,-0.04719686,-0.29776803,-0.17325301,-0.053137787,0.058725297,-0.13856795,-0.069853954,-0.33596715,-0.080555506,0.019011237,-0.42636427,0.10124002,-0.47812182,0.014340127,-0.34507197,-0.14858136,-0.021723459,0.049212813,-0.0024638262,-0.19019943,0.25117835,-0.06649815,0.11117063,-0.03773444,-0.074995466,-0.30478996,0.09888779,0.23542015,0.074991904,0.13001117,-0.1492168,0.31937,0.16675237,-0.097188026,-0.2605624,-0.068514526,0.0337878,0.35792083,-0.29467288,-0.14935821,-0.2509679,0.0238596,-0.12255939,-0.29238984,0.029138466,-0.11269327,-0.24940224,0.027894517,-0.09129864,0.21295218,-0.039101057,0.31256378,0.08935798,-0.027516784,-0.07135911,-0.03946658,0.03324978,0.13314284,0.17649645,-0.11980791,-0.4975711,0.030707814,0.21858306,-0.1679831,-0.359281,0.136277,0.07351858,-0.07311898,-0.1639933,0.1806274,-0.084680095,0.21867438,-0.44455183,-0.22289419,-0.5110785,-0.16531931,0.15650019,0.24240503,-0.37851256,-0.19308272,0.67339754,0.09988238,-0.019915946,-0.058890246,0.36366135,-0.27171633,0.06717665,0.011611573,-0.14048791,-0.34648272,0.68724257,0.26636884,-0.4379117,-0.13079375,-0.29066864,0.46716237,-0.41259784,0.107068814,0.039804507,0.5585481,0.21240707,-0.21876529,-0.11696689,0.15698974,-0.34355313,-0.114253305,0.34802598,0.09439474,0.2216532,-0.5132007,0.11466635,0.3596817,0.23527883,0.47653377,0.016325328,0.6978391,0.031060094,-0.18417688,0.25011218,0.14285648,0.23117013,-0.07818701,0.1799771,-0.09748188,0.11850467,-0.09812688,0.09429587,0.09858716,0.22008176,0.024533534,0.51708525,-0.18035309,-0.14718309,-0.19645949,-0.07300745,0.039017037,-0.09154635,-0.04705218,0.13543384,0.02169608,0.009758118,0.18358852,-0.048983656,0.25023782,0.14673822,0.21709603,0.13342288,-0.07280759,0.18814075,0.014431675,0.07424483,-0.10272695,0.054241307,0.1514517,-0.058171827
at,-0.14267348,-0.06718462,0.13246928,0.09502289,-0.08882018,0.11992307,0.1822639,-0.08476389,0.29730096,-0.041822042,0.0070348307,0.053083025,-0.28375095,-0.43095344,0.092699096,0.12845229,-0.11220689,-0.22922547,-0.081507616,-0.023152076,0.39865777,0.21331967,0.4842529,0.30318415,-0.014091965,0.17874324,0.2884699,-0.13191822,-0.035503335,-0.03427774,-0.5356569,-0.20383732,0.27821386,-0.57239455,0.45223328,-0.18627232,-0.13461362,0.064814314,-0.030340968,0.44592273,0.03703732,0.2443421,0.0064468426,-0.035311006,0.08716917,-0.015429741,-0.39801478,0.10586316,0.05685708,0.07388609,-0.077993,-0.3700761,-0.5787064,-0.044641864,-0.19594075,-0.14544219,0.010203749,-0.52711993,0.1368752,-0.40664068,-0.41081634,0.36470366,0.06700444,-0.17362674,0.025637303,0.34429345,-0.31939638,0.3516985,-0.13390577,-0.2727722,-0.3361925,0.44715926,0.18122876,0.18338403,0.47730696,-0.49372277,0.52652776,-0.1779396,-0.2485983,-0.13863821,-0.109369196,-0.013040648,0.47277054,-0.42244804,-0.2735279,-0.2790166,-0.12673394,-0.11662208,-0.3582835,-0.006489429,-0.1380717,-0.021691859,0.18406382,0.089089245,0.34500793,0.23109476,0.3538132,0.28807503,-0.29026607,0.102780975,-0.14726196,-0.08766609,0.016516905,0.43250757,-0.14084873,-0.66794556,-0.051061545,0.2435531,-0.2137188,-0.38375255,0.40771472,0.031233866,-0.04301671,0.113638274,0.36289656,-0.2148191,0.1546866,-0.37701517,0.09757286,-0.5811436,-0.07148936,-0.032435697,0.3185009,-0.60802037,-0.22142483,0.92550963,0.11931063,-0.18174276,0.12130722,0.39607546,-0.071364544,0.06546848,0.033509932,-0.090728536,-0.33602366,0.18668492,0.4120459,-0.0019121154,-0.13184765,-0.4908058,0.6217742,-0.24127361,0.13134472,0.2881657,0.27100256,0.07149527,-0.007993321,-0.051771745,0.35276672,-0.477637,-0.020823307,0.5079451,0.2696202,0.14555375,-0.5446687,-0.49126977,0.32059392,-0.031795055,0.49503443,0.25342643,0.638913,0.19171306,0.19650698,0.3089972,0.25698504,0.20744237,-0.11695277,0.11509993,-0.16316761,0.036729865,-0.26687813,0.18457502,0.12777324,0.1545424,0.3761122,0.4813472,-0.34040847,0.043768287,-0.38762993,-0.18155843,-0.061630577,0.09385954,-0.24266532,-0.25008917,0.11312077,-0.4171552,0.12877682,0.13140862,0.500053,0.30377433,0.42469025,0.38935927,-0.12819785,-0.17786871,0.027084664,-0.20774233,-0.24326901,0.1179055,0.35643023,-0.14101692
have,0.40131342,-0.30989134,-0.110433176,-0.53450316,0.38909686,-0.70733917,-0.27945107,0.025874382,0.40558746,0.0029270567,-0.71990883,0.24303047,-0.7452424,-0.2364802,0.4643325,-0.25072202,-0.22425626,-0.09193817,0.8420821,-0.24428846,0.8022468,-0.3308884,-0.21681911,-0.029473208,-0.36727297,0.31161842,-0.24977106,0.52589476,-0.7002852,-0.22676654,0.90521204,-0.11504856,-0.056169804,-0.3758646,0.170324,0.18578635,0.21815428,0.1445535,-0.48848867,0.19925028,-0.22920893,0.18407293,-0.6533501,-0.05194048,0.3536173,0.3040412,-0.40683365,-0.6861321,0.046733122,0.44276547,0.16994868,-0.0043544774,0.31241912,-0.09555774,1.0667087,0.18646227,-0.09014448,-0.33265153,-0.6519546,-0.13441902,-0.33433154,0.28128356,-0.123023435,-0.3710507,-0.18814078,-0.44599113,0.059003673,0.08510024,-0.06660514,0.048066083,-0.0728412,0.377029,0.15431118,0.015397009,0.44920272,-0.14953393,-0.09642441,0.13383716,-0.78226656,0.1895049,-1.0461755,0.4459592,-0.17739339,0.80166173,-0.44730586,0.50197625,0.41861963,0.7125831,-0.30937907,-0.58767945,0.6650514,0.20000093,0.17705403,-0.08681727,0.18050441,0.62009007,-0.8899321,-0.06791608,-0.5478944,-0.037067402,-0.5627088,0.44119078,0.37435305,-0.81793666,-0.294542,-0.43917373,0.083915696,0.25764868,-0.10315847,-0.35357875,0.03625028,-1.0490834,-0.12227153,0.27516395,0.059291005,-0.58371127,0.050873585,-0.13881414,0.14398381,0.23079078,0.06877467,-0.11932232,-0.27019006,-0.17710748,0.39328003,-0.2690886,0.56480056,0.3945883,0.52768266,-0.55798477,-0.23792939,0.21139917,-0.4465263,0.106257014,0.19332823,0.021704251,0.16361524,-0.09149905,-0.052085225,-0.6062871,-0.35854015,-0.2633236,0.4829685,0.0676628,-0.082349785,-0.23095132,-0.36580282,-0.17448373,-0.07042691,0.4423865,0.0947272,0.15719256,0.24055764,0.018013258,-0.06779782,-0.009316078,0.3333045,-0.26826096,-0.19878276,-0.15876424,-0.2506346,-0.08401257,-0.0001766053,-0.0037592303,-0.017289959,-0.1827657,-0.254408,0.0713428,0.14857139,0.11130508,0.048153248,-0.37740958,0.0016981203,-0.041874215,0.1144945,-0.19016407,0.4560375,-0.46417162,-0.10180749,0.33713645,0.37451193,0.5874082,-0.322473,-0.11821868,0.87828314,-0.094957784,-0.36234257,0.399584,-0.32985872,0.8266843,0.5411115,-0.22639863,-0.05184064,-0.3448757,0.18545368,0.41958645,0.12320032,-0.3760925,0.66965634,-0.24460737
said,-0.27891293,0.082637,-0.350123,0.012587123,0.41324416,0.3220139,-0.19406481,0.78581357,0.24612467,-0.21768205,-0.2276286,-0.19246079,0.16001154,0.038537983,-0.03520163,-0.3926462,-0.091732636,0.39390814,-0.25296074,-0.18650314,0.032096885,-0.5264772,0.079209484,0.03413339,-0.17925541,-0.49841115,-0.021460537,-0.33505145,-0.12740406,0.29005978,0.051149476,-0.45083418,0.24704193,-0.112355575,-0.07132983,-0.28939024,0.070774205,0.21320924,0.30680063,-0.034778792,0.039584506,-0.038450032,0.40962228,0.33354795,0.13320446,0.1192112,-0.09280727,0.23444346,0.37047473,0.22343414,0.12793684,0.04853996,-0.18236859,-0.30827367,-0.26642537,0.26350442,-0.16862512,-0.054683004,-0.24157521,-0.18937916,0.049766827,0.29314157,-0.25490913,-0.20461611,0.1388338,0.11027566,-0.15374057,0.52786136,-0.08635801,0.014585776,0.36877754,-0.13050699,0.7245096,-0.2991367,0.15734936,-0.32514322,0.10762263,0.32216814,-0.36009243,0.007977367,-0.4376407,-0.44860032,-0.51188344,0.3815773,0.099290214,-0.010254691,0.17261025,0.28789613,0.33229598,0.1023276,0.34491226,0.4323914,0.83130646,0.68269306,0.64678675,0.0131956525,0.20641142,0.083409704,0.021836862,-0.019285569,-0.08722923,0.2803973,0.41091645,-0.2046034,-0.34577948,-0.26113388,0.76475286,-0.09509733,-0.008987673,-0.057065424,-0.36630708,-0.47308537,0.14583892,-0.328529,0.21470082,-0.054069612,0.3290568,-0.51072586,0.14907306,-0.5967744,-0.24352302,0.5662171,-0.2202751,0.2087661,-0.13419156,-0.069245696,-0.19842367,-0.45248413,-0.3447728,-0.083548546,0.13707067,-0.2344097,0.044357583,-0.36893523,-0.1117525,-0.3865678,-0.26924255,0.07830776,0.2113702,-0.49975315,-0.20087655,-0.40280333,0.0947774,-0.013799433,-0.5799221,0.14000008,-0.18749812,0.12965132,-0.39293998,0.38778132,-0.3541549,-0.13114004,0.2174742,-0.3593682,0.24251838,0.02188741,-0.5732509,-0.16947713,-0.48720762,0.20067865,-0.110376805,-0.16308253,0.01342806,0.054553602,-0.23746854,-0.3411008,-0.013737895,-0.27924556,-0.19715069,-0.060168993,-0.11856528,0.502679,0.24065198,-0.36025515,-0.00802378,-0.2783984,-0.26765645,0.4922939,0.31002834,0.105731875,-0.052570786,0.26104745,0.010189156,0.32205316,-0.41223451,0.21755067,-0.081341594,0.48998296,0.5281277,-0.021478461,0.40188134,-0.08465584,0.094798625,-0.1524444,-0.2993054,-0.25065318,0.11434877,-0.29715815,-0.13013822,-0.57798934
this,0.1763673,-0.14061154,0.03545486,0.025676535,0.036246568,-0.15658373,0.06042784,0.50976336,-0.12981656,-0.07188604,-0.2492489,-0.3567311,0.047338568,0.1951212,0.124108024,0.12927452,-0.2588671,0.22440593,0.11825552,-0.4662189,0.34424046,0.0060723377,0.27259988,0.0331461,-0.058313873,0.118646115,0.07081497,0.10625983,-0.06592842,0.06741832,0.14608799,-0.08610068,0.35476074,-0.02690611,0.098742194,0.15355694,-0.07018817,0.045564547,-0.06936863,-0.15034834,0.07459523,0.13768512,-0.27562797,0.29399693,-0.2890743,-0.088340245,0.1345007,0.16771005,0.021475598,-0.15953028,-0.09375826,0.10379679,-0.050678715,-0.1553112,0.037834853,0.1564916,-0.1632823,-0.07367231,0.08459999,0.30757785,-0.1877671,0.015937025,0.085866354,-0.18426113,-0.235396,0.21336927,-0.024932772,0.31849244,-0.3439603,0.5433799,0.09081578,0.43182212,-0.1856767,-0.07394324,0.24038759,0.07331136,0.1961995,-0.2658368,-0.086354464,-0.063159205,-0.032116868,0.061642557,0.027199943,0.22093634,-0.18912773,0.19368246,0.2981944,-0.0014822704,-0.09099298,0.0071155424,0.123975866,0.2129265,-0.071647204,0.23900457,0.1742062,0.3973047,-0.061414905,0.0340407,0.038754318,0.27377054,-0.025224028,-0.02379027,-0.036640417,-0.01796404,-0.02227952,0.097116984,0.122076906,0.06788391,0.15112354,0.007641324,0.1950479,-0.29666865,-0.24388382,0.2682767,-0.09164226,0.05432863,0.1725461,-0.06251522,0.08896567,0.07373792,0.024914358,-0.082898475,0.13895439,-0.10458415,0.076258816,0.041402098,-0.2863344,0.0515281,0.07650711,0.11983788,0.23372841,-0.0979199,-0.10500675,-0.2604411,0.21406622,-0.02478457,0.21432409,0.40203723,-0.15165633,-0.022725321,0.10234586,-0.050320573,-0.07743772,0.15735486,-0.21378101,-0.0041393624,0.10280449,0.37401736,0.08603868,0.32006586,0.30062568,-0.1331417,0.206469,0.26980764,-0.28106073,0.29864642,0.3174751,0.40491444,0.06285885,0.14472684,-0.051504686,0.33878398,0.14895085,0.05346146,0.08990818,0.17141765,0.30843842,0.22702882,0.08925515,-0.026527196,-0.0515213,0.21259011,0.15213355,0.2109833,0.040044617,0.2080085,-0.20110922,0.38214323,-0.3194287,-0.027310973,-0.4051751,0.17808977,0.17579466,-0.28032425,0.37096474,-0.29310876,0.0003323603,-0.011539438,0.2208624,0.03432103,0.3012311,0.17383309,-0.292673,-0.5638733,-0.23120625,0.18543229,0.1930792,0.022565182,-0.19587208,0.098857604
all,0.01204774,0.017422471,0.17950143,-0.08873631,0.029904466,-0.29098314,0.32421044,0.22620963,-0.14605977,0.17023958,-0.22936256,-0.3250218,-0.21059762,0.22769673,-0.034290697,0.12433262,-0.16727987,0.13362835,-0.09709962,-0.357096,0.06307224,0.046381425,0.03929181,0.09911307,-0.035857935,0.23159733,0.0069826725,0.0686479,-0.024246745,0.03572943,0.23975347,0.24267732,0.26477644,0.013474743,-0.108072735,0.11633871,0.1945765,-0.22498599,-0.10629303,-0.31942853,0.016151978,-0.20480056,-0.14198628,0.13066201,0.16157271,0.045529887,0.1639127,-0.2671643,0.0013826626,0.06307791,-0.10032579,0.19756402,0.22616746,-0.022793246,-0.040690266,-0.12876557,-0.0911894,-0.31961426,-0.075798094,0.2035606,-0.22023632,-0.022071514,0.06412851,-0.044732805,-0.23977761,0.06663031,0.13468401,0.04594977,-0.14324793,0.41887176,-0.15324292,0.09978828,-0.03911546,0.077717744,-0.034842156,0.20705226,0.22988108,-0.2156332,-0.050777324,-0.33314246,-0.10459574,-0.19704284,-0.06557038,0.29141226,-0.25242737,0.2046831,0.4141529,0.06589386,-0.05585432,0.13317282,0.051637158,-0.07625132,-0.06615559,-0.040846102,0.18505768,0.1394141,0.021267828,-0.083451614,0.019879533,0.14178905,-0.11925633,0.0376352,-0.08849526,-0.15747292,-0.057123303,-0.120190285,-0.0059071737,0.12652285,-0.008053927,-0.014621881,-0.046222117,-0.08287983,-0.1668977,0.0036852816,-0.06302351,-0.13275799,0.0648828,-0.12834594,-0.0561191,-0.19883919,0.12049597,0.03803453,0.059525646,-0.17617828,-0.16092016,0.2394143,0.037330173,-0.029232746,0.014218206,-0.0897969,-0.035580058,0.1266957,-0.09957879,0.2056468,0.06237886,0.357261,0.14832659,-0.0036722708,-0.06324787,0.0832193,0.38597515,-0.22576904,-0.011110955,-0.23610339,0.20572995,0.073811315,-0.052199677,0.110091254,0.08910145,-0.07666938,-0.065400235,0.07011308,0.14950223,0.47965518,-0.4347744,0.39357615,0.083399974,0.32029545,-0.06664559,0.12553981,0.45558202,0.17950001,-0.013470386,-0.109541394,0.29059377,0.20582332,0.32071903,-0.030509545,-0.016686851,-0.0087393895,0.013901953,-0.047173705,-0.021443695,0.1624075,0.0534781,0.375739,-0.13161133,0.039933145,-0.047458585,0.1024379,0.07026526,-0.069781594,0.08594801,-0.2471059,-0.012400447,-0.17058924,0.16768014,-0.13111912,0.062418908,-0.12029105,0.06760059,0.1442464,-0.19161166,-0.2627419,0.035290394,0.18536791,0.12324516,-0.10164079,-0.10599805,0.21120225
we,-0.30400085,-0.42607227,0.14581661,-0.2729853,0.4060653,-0.73824775,0.28668505,0.56588876,-0.39274713,0.13574147,-0.13798277,-0.3881233,-0.49190152,0.33654517,-0.48280087,0.16367921,-0.23640354,-0.03093594,-0.38662672,0.30469397,0.07952893,0.27304834,0.06354,-0.028927745,0.015348343,0.3542934,-0.31635347,-0.011682568,-0.10033768,0.09578889,-0.1808164,0.34285378,0.44797453,0.2204992,-0.22604372,-0.112292476,-0.3047349,-0.1396658,-0.07792405,-0.19573565,-0.26909542,0.04520224,0.09003719,-0.34602255,0.239491,-0.3508275,0.296698,-0.60630834,-0.030931028,0.77338964,-0.017451173,-0.09479357,-0.25286996,-0.51956356,0.52978635,-0.07266807,0.010404114,-0.7270758,-0.16504474,-0.36108693,-0.51648766,-0.42052704,0.09840462,-0.24269949,-0.7678612,0.37844324,-0.02975913,0.5260868,-0.22556834,1.1161379,-0.39286268,0.030399922,0.5483951,0.39488757,0.23204283,0.06241966,0.41044062,-0.25945723,-0.6615161,-0.49467498,-0.12368998,-0.2386918,-0.44405395,0.61147654,-0.4937021,0.15286312,0.5595451,-0.023532739,-0.38426265,0.58372873,0.106202275,-0.8843804,0.10083631,-0.30687115,0.34013367,0.28660586,0.462466,0.13175341,0.16439822,-0.20763166,-0.34144184,0.035088804,-0.024163771,-0.08897328,-0.25942773,-0.454554,-0.5326123,0.6302452,0.10814642,-0.44270042,-0.002192985,0.19781111,-0.14933012,0.12530135,-0.37443474,0.039904475,0.08730765,-0.37667462,0.119477555,-0.3231971,0.11887098,-0.3677721,-0.019858545,-0.35828897,0.40800118,-0.13849275,-0.362119,0.2395818,0.070576765,-0.2966166,-0.65008026,0.078398265,-0.2859517,0.55037194,0.13661245,0.61136544,0.057546712,-0.31397104,0.06950677,-0.57344437,0.36715364,-0.35241354,-0.090342775,-0.29546046,0.16464168,-0.37869668,-0.23213097,-0.056288652,0.10715208,0.39806262,-0.15169385,0.59645027,-0.48989034,0.4670777,0.04166842,-0.3182158,0.24779171,0.27657613,-0.030130474,-0.22811496,0.70989054,0.34734863,0.4237744,-0.14553164,0.111235924,0.1528912,0.31244788,-0.34196326,0.2750793,-0.1934132,0.20401846,-0.55734444,-0.11428952,0.079758056,0.03543668,0.018097784,-0.08533481,-0.39388484,-0.060376182,0.01986246,0.47414464,-0.117576204,-0.2640897,-0.3344415,-0.20019099,-0.51067823,0.093785815,-0.2490684,-0.6476171,-0.2564426,-0.4566919,0.17747141,0.49513397,-0.046398524,-0.15075754,0.08841803,-0.3640946,0.23136516,-0.24370848,0.17309009
so,0.01449755,-0.28403017,-0.09040149,-0.28677204,0.46247712,-0.34859845,-0.094311684,0.37582678,0.1977948,0.08545286,-0.10481388,-0.19102035,-0.3250463,0.1406411,0.06864495,-0.32860646,-0.14642951,-0.056937203,0.44179723,-0.26852235,0.2110661,-0.14414303,-0.21621709,0.23410395,-0.15799943,0.123468734,0.012939079,0.09684345,-0.01835406,0.0071940795,0.400241,-0.03973823,0.30297604,-0.29121032,0.1136883,-0.00632168,-0.02082892,-0.16019861,-0.11264709,-0.28104562,0.0033709267,-0.1248715,-0.05930583,0.1299428,0.21439777,-0.049309548,0.15861164,-0.27746505,-0.06787469,0.27434012,-0.109620966,-0.044431392,0.055328485,-0.0049938518,0.28226998,0.05607716,-0.18689856,-0.17284252,-0.2699357,0.13569266,-0.47991684,-0.14479539,0.20322332,-0.030264549,-0.47022936,0.14598444,0.0803613,0.42113018,-0.033300932,0.44499472,-0.021868818,0.41282922,0.33701953,0.04732532,0.19276276,0.061700102,0.08886498,-0.08548807,-0.28948286,-0.09105795,-0.34041378,0.12578914,-0.32336453,0.2198179,-0.03968112,-0.013018774,0.35066575,0.22767764,0.12384129,0.28225952,-0.21895117,0.056243017,0.31278285,0.1401477,0.19765098,0.2798909,0.111191854,0.20471497,0.0664696,0.019823587,-0.1417775,-0.09227669,-0.103714816,-0.13161963,-0.21114229,-0.05520523,-0.18813413,-0.03708803,-0.2072005,-0.028061768,-0.051674876,-0.07681423,-0.3146659,0.06951539,-0.0071840324,0.13987723,0.12173339,-0.18479404,0.13027744,-0.060011316,-0.047972985,-0.08925946,-0.13716842,-0.055283245,0.34664717,-0.06745436,0.27230382,-0.070319,0.13811126,-0.030701283,-0.11649731,0.06237833,0.005659612,0.021106668,0.16360436,0.18729517,-0.17637078,0.058099404,0.13345331,-0.42641315,0.20840275,-0.1349327,-0.023096247,0.0153033575,0.068768956,-0.23810934,-0.24922262,0.18113582,0.022309534,-0.061043564,0.07025243,0.34075713,0.015283605,0.14520481,0.047282353,0.022743145,-0.16754226,-0.16073522,-0.23846099,-0.052672915,0.24206012,0.27190077,-0.10892881,0.21405867,0.023107778,0.025157066,0.20199949,-0.023111494,0.18627918,0.09506075,0.15301424,-0.17748202,-0.20369816,0.1875388,0.013620007,-0.048190303,0.19834158,0.12357769,0.11694481,0.18116407,0.21200518,-0.07062515,0.09908023,-0.19003427,-0.11612231,0.0363447,0.09918443,0.0313925,-0.01710122,0.2444096,0.05569486,-0.08138656,-0.10895566,-0.3338965,-0.19313748,0.0031458677,0.1182579,-0.36674932,0.33064747,0.12134689
which,0.28210208,-0.08245055,0.10970274,-0.15707482,0.2151022,-0.043933883,0.015915055,0.007042539,0.00041861628,-0.023659807,-0.2772192,-0.00411581,-0.04517095,0.16558622,0.018199828,0.020229394,0.14752851,0.30845776,0.54867965,-0.36449867,0.56626,0.018629244,-0.088784546,0.14661291,-0.071084894,0.16242068,0.20736769,0.17471609,0.018915283,-0.22429045,0.36464953,0.13072744,0.08267381,-0.13896874,0.01792075,0.14416705,-0.031202685,-0.15365684,-0.03699681,-0.1931646,0.09283645,-0.10046953,-0.24954605,0.123315625,-0.23689477,0.31856784,-0.2380685,-0.22948645,-0.35271537,0.12915385,-0.038341895,-0.099157624,0.01830271,-0.18400666,0.14135706,0.14039929,-0.2557417,-0.42083615,-0.34086367,-0.036156982,-0.267614,-0.05165774,0.2227885,0.035807215,-0.102147244,-0.075579904,-0.13468409,0.027311148,-0.07707441,0.13436772,-0.13469042,0.21208617,-0.4869676,-0.12981895,0.108325735,0.0060190023,0.06408503,0.060923386,0.07413316,0.021559667,-0.22810215,0.17431118,-0.25945157,0.25731593,-0.18471842,0.1598683,0.37664238,-0.08414861,0.2138622,0.11427514,0.06441929,0.065325566,-0.123535804,0.003526108,-0.19501078,0.29582375,-0.23872474,-0.26879007,0.07147315,0.012869094,-0.040482193,-0.075990535,0.18163149,-0.09467928,-0.11361991,-0.06476923,0.086486414,0.10205413,-0.10202329,-0.062120892,0.018877871,-0.20225362,-0.27154255,0.27339116,-0.045733362,-0.006384079,0.21558358,-0.37577745,-0.14698513,-0.17281678,0.18995978,-0.010852297,0.09844624,-0.38057008,-0.06767362,0.40752685,-0.13008891,-0.080450326,0.0883518,0.1855796,-0.11381272,0.13858758,-0.31982523,-0.057132743,0.043811403,0.08329033,0.14891864,0.3360329,0.02024946,0.068565905,0.24648981,-0.06661571,0.13109222,0.20927373,0.38748264,0.03188204,-0.17238607,0.12018156,0.05056509,0.1835603,0.15513948,0.32735687,0.32802686,0.14464128,-0.4750148,0.5481695,0.4981909,0.3736063,0.14402495,0.035906717,0.13431598,0.043418407,-0.15261926,-0.014901801,0.16668305,0.18511038,0.42672092,0.41179904,0.250056,-0.10742687,0.031823512,0.07345708,0.16381982,0.3828032,0.07903174,0.60365206,0.040413283,0.22435339,-0.3639453,-0.10523891,-0.34528807,0.37402758,0.4790387,-0.22529936,0.20787902,0.03807307,0.16548459,0.12780382,0.1203087,0.0558362,0.2918752,-0.028587988,-0.212064,-0.10879895,-0.19595757,0.3035102,-0.019544398,0.028201941,0.059024367,0.13788891
by,0.13864277,0.041814633,-0.13904126,0.079700395,-0.009190888,-0.0034503718,0.16936,-0.19821237,0.15873659,-0.06042883,-0.09290709,0.01938168,-0.12202544,-0.09210824,-0.017962532,0.003910563,0.16471463,-0.031698663,0.42758155,-0.13393517,0.38864532,-0.06124988,0.123197496,0.15715474,-0.06225614,0.36515763,0.17132436,-0.023695068,-0.14506404,-0.115334675,0.09867375,0.056714285,0.036361516,-0.2881322,0.12738591,0.033026617,0.06659267,-0.0040387753,-0.15917513,0.101410344,0.038878012,-0.103811786,-0.14317057,0.05013181,-0.026929012,0.122133054,-0.25042903,-0.032116055,-0.044581924,0.020359538,-0.18308,0.1588249,-0.12296597,0.019262325,0.25023538,-0.2482273,-0.00011131403,-0.37137768,-0.10752209,-0.29742157,-0.30098918,0.047449805,-0.004333133,-0.10228344,-0.1666453,0.04519692,-0.17810051,0.1541979,-0.085091315,-0.03536292,-0.2830946,0.3955631,0.13615787,0.15361144,0.4110369,-0.13071893,0.1768303,0.24275845,-0.09970977,-0.19535984,-0.18984206,0.17007776,0.2491463,-0.2543185,-0.049942195,-0.1891842,0.21346599,0.1665893,-0.24545634,-0.1533019,-0.147937,-0.01629373,-0.14920057,-0.03479228,0.110628255,0.22436605,0.021049589,0.07473907,-0.17045791,-0.041768435,0.050485767,-0.007224808,0.03568531,0.11649112,-0.0021595268,-0.20094009,0.03411949,0.10807582,-0.04528282,-0.1241369,0.15003523,-0.30641752,-0.056966312,0.19204886,0.06360315,-0.21347444,0.26259664,-0.37178826,-0.19249924,-0.30854234,-0.06568262,0.17201142,0.05098589,-0.41223735,-0.122857496,0.5597347,0.12388755,0.025338212,0.19618222,0.29055855,-0.2178328,0.05336008,-0.19062594,-0.26438758,-0.31979576,0.4311549,0.45188585,-0.13131596,-0.049845845,-0.31886697,0.19334988,-0.106179625,0.1616057,0.16335145,0.38313198,0.12402817,-0.22018747,-0.049855728,0.22830492,-0.21668397,0.090050295,0.32666373,0.4261363,0.15825136,-0.51770246,0.1480786,0.36830112,0.21092282,0.26604846,-0.018447416,0.57465285,0.08268777,-0.0053747864,0.16965577,-0.01050345,0.07135666,-0.25727198,0.37812462,-0.08772777,-0.031889696,-0.09270222,0.042343043,0.117438555,0.19534357,0.04925921,0.4515245,-0.13628039,-0.00922772,-0.5171925,-0.038891774,-0.002154076,0.045766193,0.018420007,0.02020018,0.29899523,0.043368656,0.033924073,0.09184309,0.22679311,0.28800756,0.42705107,0.08311964,-0.08168411,0.03365449,-0.03788536,0.17468433,-0.01535535,0.12699614,0.2772506,0.014024397
from,0.03035734,0.1725531,-0.13030644,-0.004839858,-0.061912082,0.1149266,0.11215107,-0.0413133,0.17710361,0.017307999,0.02502827,0.04701191,-0.10733192,-0.121098086,-0.09808421,-0.008013155,0.24340823,-0.0555962,0.16544487,-0.12576318,0.29224747,-0.07541664,0.103231914,0.2188159,0.032927986,0.13995318,0.058873747,-0.21134603,-0.07130334,-0.077292874,-0.07024736,0.02782145,0.01862524,-0.26565722,0.12908906,-0.13606948,-0.012350844,0.04593558,-0.059061773,0.11074716,0.066588074,-0.07439056,-0.019110894,-0.02751594,-0.023059454,0.042618893,-0.25129443,-0.08797139,-0.055706415,0.08923012,-0.10442985,0.025173208,-0.23687384,-0.036057204,0.054437455,-0.26490325,-0.00035867206,-0.43111247,-0.03125009,-0.36941287,-0.048179563,0.0057748,0.05260805,-0.019247584,-0.15368327,0.10545178,-0.0059919786,0.09940138,-0.09791186,-0.05570012,-0.13695227,0.16482097,0.19318046,0.05565029,0.24905947,-0.22615151,0.1341192,0.21081835,-0.1058219,-0.15806635,-0.215378,0.05178642,0.17485836,-0.22172268,-0.12996206,-0.22032636,0.11476477,-0.17575507,-0.16888301,-0.057170246,-0.07781576,-0.07770337,-0.020529913,-0.0011921611,0.16906066,0.053038426,0.10195855,0.05547723,-0.07212132,-0.050939765,-0.12928768,0.012044592,0.14714582,0.047268968,-0.16693999,-0.37142366,-0.014689336,0.11831592,-0.21068269,-0.26689836,0.07394277,-0.18508944,-0.0845645,-0.081535265,0.12017357,-0.03401845,0.2367363,-0.3928457,-0.051515277,-0.316211,-0.05337624,0.2416848,0.2750973,-0.26042342,-0.22161095,0.58466995,0.05495952,-0.11858526,0.0147005925,0.26413178,-0.23590687,0.04909434,-0.011436142,-0.11866095,-0.20658658,0.5789137,0.22540075,-0.20026664,-0.14044416,-0.3332181,0.32448643,-0.27464318,0.11100198,0.07497888,0.38519964,0.1493333,-0.3249316,0.019535424,0.11081378,-0.25342855,-0.018559907,0.33989,0.17876843,0.10567651,-0.35786736,0.03608864,0.3138035,0.101146944,0.28334105,0.013654518,0.36775103,-0.015458531,-0.050782982,0.15138453,0.04830769,0.070906065,-0.14174433,0.1943441,-0.06559971,-0.0870021,-0.14303073,0.1140388,0.08224715,0.09755909,0.02891506,0.4736145,-0.17922375,-0.023945704,-0.2890934,-0.06677136,0.03410297,-0.047291905,-0.04152815,0.0937234,0.122868694,0.024028592,0.0110095665,0.07375119,0.20702581,0.2645816,0.26043323,0.14716889,-0.08415443,0.10852922,0.13984962,0.15007325,-0.13753009,0.017281953,0.14882804,-0.14033462
they,-0.0354813,-0.4461799,0.21180475,-0.347966,0.2932908,-0.7460618,0.19482462,0.20777026,-0.29984757,0.108405925,-0.035391897,-0.08611945,-0.5729004,0.21885775,-0.4848219,0.061490275,-0.05219374,-0.19947682,-0.046436608,0.26435137,0.01646941,0.37669253,0.0036555636,0.24623366,0.1525127,0.4769987,-0.2229107,0.17974392,0.10774845,0.0496565,-0.30938184,0.43704644,0.29245207,-0.038692873,-0.13940792,-0.14715156,-0.2858582,-0.2899601,-0.028010117,-0.029754877,-0.2976953,-0.12473932,0.0351909,-0.32710597,0.17104772,-0.41143584,0.11181059,-0.58022255,-0.07165955,0.57322294,-0.19724837,-0.07689316,-0.27306345,-0.2876776,0.59187824,-0.17956583,0.08330046,-0.6291223,-0.10006927,-0.1502779,-0.68580467,-0.60628575,0.11297404,-0.054828707,-0.6506489,0.3216216,0.058046166,0.30513126,-0.041080017,0.94056183,-0.46587524,0.15775478,0.3660744,0.39173305,0.19126862,0.13879009,0.42840093,-0.19430488,-0.48349378,-0.4210919,-0.08144966,-0.0012767604,-0.33227202,0.39919078,-0.41654316,-0.009898815,0.49962106,0.03143828,-0.25933936,0.6281371,-0.050716426,-0.7668755,0.06885065,-0.36589563,0.20668486,0.29174608,0.31145185,0.13134503,0.20051795,-0.18790281,-0.12610269,0.07576068,-0.08904383,-0.11519523,-0.10196773,-0.40618446,-0.5037553,0.5822645,0.033323366,-0.43045008,0.037950307,0.3568163,-0.13609742,0.19577017,-0.31960943,0.08703991,0.038972095,-0.21095063,-0.010606733,-0.3049525,0.18851215,-0.4882508,0.07159435,-0.47509897,0.49787325,-0.016806958,-0.1181055,0.32829243,0.00871254,-0.029199183,-0.66165805,0.081627384,-0.30190343,0.39199224,0.0301753,0.64237005,-0.0256313,-0.4008317,0.12010262,-0.39420483,0.44089964,-0.34226748,0.00018135858,-0.18751049,0.46309578,-0.3403652,-0.16498742,-0.28368515,0.17323951,0.113929786,-0.1320188,0.6483402,-0.43121874,0.49965873,-0.10172478,-0.047656648,0.41078436,0.43959063,0.2517318,-0.35887015,0.95295405,0.2979904,0.11041253,-0.019770911,0.12482695,0.30464274,0.36364013,-0.14128403,0.38596538,-0.02525568,0.2724675,-0.5644105,-0.05050684,0.4002421,-0.061597276,0.3215155,-0.022282468,-0.38413122,-0.051790636,0.05230498,0.31750318,-0.19075413,-0.062258985,-0.23936965,-0.10176642,-0.13060585,0.34394243,-0.35969752,-0.37935242,-0.2567004,-0.3040869,0.036278956,0.28521314,-0.05653663,-0.32613683,0.1452357,0.01696153,0.059724342,-0.10737613,0.27979878
when,-0.10374305,-0.013254892,0.15160057,-0.31794497,0.24200268,-0.083410315,-0.010865086,0.42172337,0.18604015,0.07930718,-0.2939053,0.04376482,-0.30556294,-0.042669486,0.044647023,-0.14557464,-0.12743372,0.19652925,0.12393269,-0.30197582,0.466401,0.020561386,0.011380225,0.35468632,0.06375819,0.042018782,-0.010307406,0.07683675,0.09872079,0.1885907,0.103225805,-0.18343036,0.20986624,-0.4312489,0.05339224,-0.23610118,-0.17889266,-0.11339515,0.081078924,-0.2506041,-0.10182884,-0.17861193,-0.12609753,0.18393512,-0.07582509,0.06151092,-0.32605958,-0.287973,0.002225019,0.1862497,-0.14313523,-0.2030208,-0.034391444,-0.21325599,0.015361314,0.23613465,-0.22481951,-0.38937026,0.0038805143,0.0196644,-0.30582547,0.006886498,0.08897805,-0.040730853,-0.029037982,0.17207083,0.16740239,0.11896615,0.04609354,0.15426667,-0.011254076,0.13512595,0.11279855,-0.22561634,-0.19891176,-0.25359768,0.18399619,-0.02441344,-0.17211819,-0.15651365,-0.3526182,0.04318622,-0.048092823,0.20219523,-0.07199062,-0.01703712,0.13615386,-0.18782617,0.23448806,0.13102008,0.14218913,-0.08940755,0.19731952,-0.16569035,0.030070528,0.004979538,0.13982746,-0.055726357,0.19345345,0.14695835,-0.03166875,-0.21134953,-0.035832066,-0.21630283,-0.16697967,-0.3886907,0.25614205,0.038942497,-0.1756781,-0.21954322,0.07238909,0.11236401,-0.5146469,-0.00922526,0.2737185,0.19476265,0.19924246,-0.41115373,-0.050843738,-0.52741903,0.1382499,-0.065021895,0.020590683,-0.15585849,0.025371393,0.21475567,0.25147238,-0.29531783,-0.14049745,0.07208817,-0.047615714,0.02508273,-0.13167621,0.16780475,0.07021028,0.05968633,-0.048498925,0.16134767,0.2105041,-0.17230202,0.393732,-0.37888888,0.12847501,-0.17472233,0.22917984,0.15769407,-0.0627675,0.18406773,0.024851764,0.0027537993,-0.15520293,0.4810785,0.016592909,0.21680665,-0.1942697,0.09604381,-0.026238993,0.026749013,-0.042829197,-0.020183995,0.3297146,-0.06718949,-0.17544857,-0.0027729392,0.19620058,0.07799351,0.54803,-0.20021349,0.22867166,-0.031631645,-0.034488782,0.20821585,0.12468235,0.24081613,0.05322446,0.59240663,-0.07451271,0.13130623,-0.012973387,-0.053430334,-0.003202085,0.108258165,0.29894903,-0.11127909,-0.08341667,-0.1570778,0.1539967,0.04630368,0.2272773,0.17651281,0.18603465,0.21541804,-0.096329145,-0.21043128,-0.23471075,0.07394737,0.13469572,-0.37924087,0.12514868,-0.048180122
will,-0.35130867,0.36354178,-0.07079133,0.069811225,-0.07398934,-0.08113411,0.48947814,0.52407783,0.007089732,0.23005235,-0.08877124,-0.5274885,0.11199278,0.20434263,-0.0019863704,0.032116316,-0.46058962,-0.0974653,-0.31838575,-0.20067565,-0.3883654,-0.48228398,-0.009992858,-0.12412888,-0.15985046,0.0018163094,-0.24204905,-0.31546697,-0.3728088,0.36606643,0.42936856,-0.25215098,0.24624567,0.086130984,0.04159136,0.18722814,0.7075019,0.1191912,0.06518825,-0.3305107,-0.03604963,-0.33897227,-0.18363898,0.34675387,0.7555601,-0.20018516,0.4158889,-0.05892785,0.41162828,-0.5112429,0.016971814,0.21648976,0.39967266,0.41009328,-0.3187889,-0.15994449,0.031538747,0.041988812,-0.029741723,0.11662034,0.23493227,0.32736993,-0.2265602,-0.012180394,-0.1382203,0.090457,0.7168485,0.22892895,0.013487825,0.58711374,0.2903846,0.0131158875,0.570376,-0.06579857,0.00922936,0.20043014,0.30652505,-0.30940717,-0.3190239,-0.56841105,-0.23743401,-0.54602003,-0.2894965,0.26517794,-0.28145453,0.022943456,0.118906185,0.4829886,-0.22884786,-0.08511594,0.19111049,0.5105231,0.6611019,0.54117733,1.0358932,-0.13947831,0.12216784,0.05526012,0.10992351,0.003236716,-0.39525366,0.697017,0.02545843,-0.33224,-0.16752064,-0.1802224,0.41104114,-0.19945678,0.056078807,-0.05327401,-0.117188506,-0.55094224,0.29075494,-0.44435552,0.21342696,-0.34405795,0.061172742,-0.4178471,0.03932905,-0.3285467,-0.31817934,0.6098727,-0.2668431,0.23682755,-0.973194,0.109731086,0.46922156,-0.2921425,0.13440992,-0.34524748,0.2718543,-0.105377965,0.009774995,-0.03192713,-0.23604374,0.56033134,0.16824238,-0.1715304,-0.024073653,-0.08061237,0.40325707,-0.42668134,-0.047025956,-0.6689578,-0.10083383,0.29869428,-0.12035092,0.6575887,-0.11482754,-0.37209484,-0.029099295,-0.42633107,0.26188537,0.29752725,-0.4234756,0.2222516,-0.7685726,-0.04604657,-0.55508995,0.2027328,0.16273105,-0.124053545,0.06510241,-0.23153219,0.2474153,0.006101927,-0.32188562,-0.05227942,-0.70539,-0.28450918,0.1342914,0.2702497,-0.03554506,-0.39188454,0.21416324,0.0068058283,-0.29953745,0.33710083,0.06773031,0.17774735,0.27665013,-0.5015373,-0.3775347,0.19247726,0.033148725,-0.19286902,-0.030481292,-0.06617551,0.12278605,-0.105840996,0.25564796,0.17145073,-0.24459022,-0.26904377,0.17864613,0.018075377,0.1574877,-0.14565402,0.12347649,-0.064305425
your,0.073577754,0.039023876,-0.109122425,0.27425107,0.11476869,-0.06271067,0.3104732,0.5257154,-0.53357565,-0.061952982,-0.14198837,-0.64006025,0.46226788,0.5183047,-0.042752177,0.31471628,-0.18675013,0.29784867,-0.17367357,-0.03616273,-0.058193862,-0.10719967,0.38290653,-0.4095538,-0.11526074,-0.26409364,-0.23336537,-0.07539963,-0.032996133,0.040361688,0.23303008,0.10485692,0.14929211,0.4967827,0.022611318,0.20779064,0.12580165,0.12794009,0.12873682,-0.3056675,0.25131407,0.12950723,-0.07066298,0.25254098,0.082985796,-0.17150356,0.5925615,-0.13936132,0.33963752,-0.4416507,-0.14591649,0.20996895,0.34027535,-0.03390209,0.047500804,0.058176715,0.09233155,0.04307491,0.3126907,0.03776806,0.44088775,0.12016794,0.19346435,-0.06895916,-0.6099191,0.19618703,0.18866456,0.23872486,-0.4585612,1.1436814,0.41669896,-0.22741461,0.23713087,0.062794596,0.12206065,0.3193078,0.24966429,-0.037773956,-0.57141834,-0.15331699,-0.012768005,-0.3150106,-0.2864418,0.7232169,-0.22676402,0.1959452,0.46837655,0.13679579,-0.16391207,0.12413595,0.42626745,-0.06285278,0.2727513,0.19243695,0.40688515,0.06747261,-0.05849546,-0.06292854,0.28304866,0.0017494878,-0.2569193,0.56496,0.004437412,-0.23572984,-0.30390146,-0.070248194,0.2608941,0.034860753,0.52315044,-0.24155298,0.13729917,-0.46967536,0.3153455,0.060591355,-0.11203217,-0.26075795,0.22086966,-0.29738057,0.15959044,0.2854191,-0.15312238,0.24639732,-0.0033791256,0.28480917,-0.5660991,-0.40815714,-0.7186358,0.02865032,-0.012173888,0.0033942543,0.12540573,-0.33390957,-0.27247322,-0.049255285,0.076404884,0.48135176,0.09082532,-0.18546152,-0.2822997,-0.058021706,-0.026088877,-0.066930756,-0.24552305,0.013462008,-0.3573497,0.22660704,-0.14393419,0.444381,-0.042477947,0.35812876,-0.0811502,-0.49968767,-0.055693083,-0.031440735,0.17132483,0.5571176,0.29025957,0.51558673,-0.13137338,0.1420696,-0.36682674,-0.035209395,0.44701138,-0.3150776,-0.02392234,0.34588742,-0.5002329,0.07664062,-0.45820004,-0.4108814,0.010274926,0.39102337,0.21972254,-0.2759056,-0.4488276,-0.3848252,-0.3037043,0.12391857,-0.15418522,-0.117858864,-0.38457942,-0.04136169,0.2720271,0.20807685,0.4775532,-0.31919584,-0.21892385,-0.07911657,0.18859746,-0.41399583,-0.029995525,0.024814893,-0.4243241,-0.24950874,0.1427861,0.3567017,0.2375401,0.355691,-0.59544986,-0.16564144
there,0.2579445,-0.5182916,0.29640645,-0.13774481,0.61795855,-0.40873605,0.07310614,0.41675502,-0.14423512,-0.16976766,-0.1977882,-0.19660375,-0.62745255,0.096941896,0.22971046,0.020065464,-0.4426571,-0.12778682,0.25411326,-0.36651832,0.19685435,-0.009164631,-0.12972255,0.624521,-0.015567344,0.3950703,0.3863925,0.08121116,0.27226278,0.13653141,-0.3639388,0.40848097,0.21890074,-0.17847367,0.17269656,0.018529302,0.22469567,-0.36727116,-0.25454593,-0.043291308,0.021937218,-0.057330478,0.3136614,0.38931122,0.30222312,0.067495026,0.081544556,-0.050082043,0.079207234,0.16304135,0.066559896,0.011253321,-0.3312967,-0.08201454,0.19198227,-0.1753304,0.050657112,-0.25299758,-0.2777624,0.296258,-1.0283,-0.050282594,0.0004315416,0.02925374,-0.6267617,0.10080005,-0.2957174,0.7914804,-0.37218684,0.62511355,-0.5984326,0.5782691,0.1469314,0.14366926,0.7581454,0.08411042,0.56159633,-0.32528734,-0.13801202,-0.008267282,0.2728447,0.024764186,0.05557926,-0.3318807,0.066374764,0.0031029452,0.2776637,0.3227609,-0.02213201,0.32248342,-0.3815392,0.14500499,-0.14700638,0.46541947,0.13738787,0.4665028,0.33202887,0.23060627,0.0877961,0.04213268,-0.06254024,0.11275592,0.059229996,-0.121108785,-0.107958555,-0.12081968,-0.3550342,0.101218425,0.19249173,0.1571291,-0.16765228,0.12708306,-0.43996173,0.14772554,-0.1430916,-0.017912393,0.17815255,-0.12462031,-0.00050305884,-0.5231595,0.20797025,-0.08202468,-0.065371655,-0.5323344,0.3909716,0.4064971,-0.1927525,0.022096634,0.21839106,0.19175158,0.11968502,0.01974801,-0.30687532,-0.22730623,-0.24043489,-0.012587848,0.15794818,0.21507871,0.031733435,-0.34971938,0.3032966,-0.004863293,0.2012389,0.21099411,0.007264076,-0.5650572,0.16340095,-0.13301364,0.38680157,-0.17348288,0.04712745,0.2492028,0.36532968,0.38594252,-0.13673261,0.007127,-0.2537244,-0.13156883,-0.01630729,-0.118340224,0.6501427,0.55107206,0.044685062,0.21338911,0.27210584,-0.027682178,0.10493809,0.38845214,0.5570179,0.30444652,0.1254367,-0.101614095,-0.17977642,0.44252747,0.1446276,0.518754,-0.030465418,0.4159943,-0.17777424,-0.11683669,-0.11848409,-0.12166284,-0.025706297,-0.3455134,-0.082918026,0.01501427,0.3310016,-0.018844452,0.012793339,0.25297087,-0.11348174,-0.12761228,-0.12442067,-0.6063652,-0.49150026,-0.16774173,0.38061905,0.32174924,-0.085301496,0.28906676
were,0.067441635,-0.0002965674,0.08404885,0.117047384,-0.114411905,-0.5079447,0.0076798443,-0.33287588,0.06419724,0.18912077,0.027262148,0.047116403,-0.012780486,0.13327086,-0.035004355,0.14254354,-0.053613387,-0.40592062,-0.01186779,-0.29874343,-0.36909148,-0.09077741,-0.3085463,-0.15171514,-0.05574667,0.3246591,0.004590352,0.47179693,-0.5672939,0.1329283,0.13725694,-0.07485192,0.18801844,-0.23459557,-0.2115458,0.1746913,0.59825987,0.03519878,-0.4051239,0.33829165,-0.38863304,-0.35202843,-0.2227612,-0.52937675,0.66634375,-0.021265449,-0.44955468,-0.3976261,0.078414656,0.33302295,-0.37927628,0.0028385387,-0.21615456,0.59035754,0.18359526,-0.35505465,0.11915158,-0.21621522,-0.10817397,0.14779861,-0.35279483,-0.048284344,-0.19201322,-0.007741087,0.05331531,0.10880196,0.32785004,-0.25432688,0.31559616,-0.047616024,-0.07350952,0.31522012,0.085198544,0.14566417,0.24523318,-0.002462186,0.1672819,-0.22373457,-0.09602228,-0.30218345,-0.23593795,0.06920004,-0.1302935,0.022616418,-0.11321942,0.28597724,-0.19870514,0.58298427,0.03306268,0.037260897,-0.08538146,0.440171,0.38979697,-0.029772079,0.40765443,0.1776276,-0.20237622,-0.12679179,-0.2266555,0.15636992,0.10257731,0.45841715,0.16675173,0.15459013,0.15832953,-0.31618482,0.45936042,0.3142162,-0.33347493,-0.121315315,-0.026728477,-0.20200369,0.6578156,-0.0082062185,-0.018446894,-0.42193744,-0.33735475,-0.13479443,-0.41615164,-0.27022466,-0.09720563,-0.068798564,-0.43889794,-0.3938654,-0.08230227,0.19397658,0.7895485,0.2685458,-0.0751363,-0.22033337,-0.026166342,0.25368,0.21198763,-0.017105227,-0.0067948736,0.28645054,-0.046792604,-0.61952096,-0.13360068,-0.1851302,0.3011387,-0.03434102,-0.019549737,-0.32662958,0.5279507,-0.04599074,-0.06573504,-0.2843479,-0.060937267,-0.19883841,0.09717413,0.018882379,0.08253304,0.10297092,-0.7789066,0.43547902,-0.045211453,0.7507735,0.20276737,0.01360896,0.7256554,0.044360466,-0.38369593,0.10766564,0.054699924,0.31781012,0.06621731,0.139072,-0.12553643,0.21463995,0.04687091,-0.25800171,0.13074198,0.023978945,0.51938456,0.18855366,-0.008996239,-0.09701573,0.3019264,0.33405477,0.3200898,0.08742683,-0.25948295,-0.09438667,0.5189428,0.27036175,0.57808125,-0.35777977,0.29290944,-0.23558602,0.5896729,0.023782738,-0.10953755,0.09440947,-0.1219355,0.020656526,0.32696572,-0.5090664,0.42112038,0.3028733
