term_str,0,1,2,3,4,5,6,7,8,9,10,11,12,13,14,15,16,17,18,19,20,21,22,23,24,25,26,27,28,29,30,31,32,33,34,35,36,37,38,39,40,41,42,43,44,45,46,47,48,49,50,51,52,53,54,55,56,57,58,59,60,61,62,63,64,65,66,67,68,69,70,71,72,73,74,75,76,77,78,79,80,81,82,83,84,85,86,87,88,89,90,91,92,93,94,95,96,97,98,99,100,101,102,103,104,105,106,107,108,109,110,111,112,113,114,115,116,117,118,119,120,121,122,123,124,125,126,127,128,129,130,131,132,133,134,135,136,137,138,139,140,141,142,143,144,145,146,147,148,149,150,151,152,153,154,155,156,157,158,159,160,161,162,163,164,165,166,167,168,169,170,171,172,173,174,175,176,177,178,179,180,181,182,183,184,185,186,187,188,189,190,191,192,193,194,195,196,197,198,199
the,0.15946673,-0.12104677,-0.03304542,0.23016986,-0.3066951,-0.22160861,0.58503234,0.13895908,-0.0583793,-0.2799113,0.013926715,-0.11232478,-0.12123187,0.15469211,-0.22333091,0.22956088,0.120828025,0.26547152,-0.19262786,-0.40061086,0.2902204,0.24004103,0.28989178,-0.013157385,0.20036113,0.19990443,0.01773664,0.07396887,-0.11531976,0.07062185,-0.14852779,-0.24139169,0.3008521,-0.07664247,-0.17399028,0.06194701,-0.12577055,0.045244742,-0.0215908,-0.011605152,-0.28994846,0.08770836,-0.5783951,0.16723123,-0.3485602,-0.07412629,-0.32401776,0.038225304,0.17687592,0.05237952,-0.058744103,0.06714134,-0.17218857,-0.17198111,0.1997116,-0.08993489,0.02201141,-0.40486547,0.15141135,0.31412867,-0.055850778,0.08813791,-0.12195912,-0.43832976,0.01799473,0.2700412,-0.13736172,0.13265811,0.110433474,0.10193263,0.22581972,0.42964968,-0.00762063,-0.07161546,0.32699347,0.11571507,0.4296939,-0.038008675,-0.16655831,-0.5044163,-0.258507,0.2260009,0.18310566,0.09878162,-0.09471726,0.18680426,0.22335608,-0.1668598,-0.17801502,-0.008171036,-0.059870347,-0.018021576,0.2090603,-0.012324412,0.15879558,0.2412934,-0.22324383,-0.08090517,0.1418582,0.2471319,0.06320309,0.18154764,0.057183728,0.31612268,0.1690077,-0.2488872,0.3399702,0.36934626,-0.13257694,-0.26293468,0.036317606,-0.37305132,-0.16251446,0.29700008,-0.096650876,0.1030282,0.15231292,-0.0077058617,-0.16658464,-0.017236818,0.031783424,-0.28960308,0.17768653,-0.48733768,-0.0104909185,0.47493964,-0.24205089,0.08196064,-0.036416102,0.39979362,0.06541343,-0.22330256,-0.10016507,-0.30338985,0.056581043,0.34590882,0.36515322,0.36518288,0.32385805,0.407697,0.21231669,-0.47806326,-0.0060003237,-0.00204793,0.0974531,0.45528954,0.42556036,0.090027556,-0.10491184,0.31019112,0.17320593,0.006279361,0.1493023,0.049467877,-0.38796058,0.15406032,0.5114032,0.6254705,0.28834885,-0.015019327,-0.076843604,0.20761533,0.037411846,0.050636407,0.004490889,0.2814463,0.39172962,-0.018431455,0.08860758,0.12626918,-0.11619621,0.038595233,0.39591002,0.34070432,0.07870977,0.31564465,-0.32889974,0.17562588,-0.16879803,-0.32059348,-0.5497149,0.26265314,0.3798137,-0.1587955,0.3626968,-0.09990271,0.08526389,-0.11366483,0.37467992,-0.3671498,0.3279892,0.12175481,-0.27075446,-0.08743337,-0.38039532,0.105489895,0.20634173,-0.03173968,-0.28700763,0.5099848
and,0.3217468,-0.10444931,-0.18079406,0.032110576,0.14721024,0.09394466,0.123675555,0.23965843,-0.076528504,0.13700473,-0.09650201,-0.17546417,-0.04945839,-0.0010311287,0.0017587101,0.013817814,0.24458627,0.22853054,-0.09597617,-0.31009528,0.10316961,-0.031705253,0.06990944,0.10434581,0.034796044,-0.101248585,-0.038970705,-0.09832318,-0.12780859,-0.04446652,0.0791549,-0.087719426,0.1679433,-0.21126743,-0.17862326,-0.081282035,-0.13432097,0.057855587,0.052224398,-0.014349175,-0.10664471,-0.059303515,0.047055673,0.23981239,-0.047906723,-0.016580706,-0.20166756,-0.20696253,-0.045518048,-0.027921934,-0.12922029,-0.0814798,-0.1141693,-0.1648823,-0.062133234,-0.14435051,0.0053406083,-0.3438601,0.17899261,-0.10904535,-0.017703276,0.014909302,0.3216534,-0.10641469,-0.12865628,0.2047942,0.065951325,0.010708554,-0.19195095,0.08720974,0.0022359872,0.19234447,0.2250433,-0.04711894,0.08061038,0.04426882,0.36134103,0.06685278,-0.29214793,-0.25174224,-0.12950823,-0.026369808,-0.16064563,0.052965093,-0.09726548,0.010519488,0.18737084,-0.14780957,0.028100722,0.23608041,-0.09916342,-0.05095297,0.40595266,-0.017603075,0.1522818,-0.0065235477,0.0904984,0.010916328,0.18586797,-0.07894396,-0.14905353,-0.027469536,0.052835245,0.12182208,-0.018272903,-0.29140663,0.043121375,0.11055502,-0.092482746,-0.22518498,0.11133399,0.089536846,-0.07521631,0.02652544,0.017985117,0.050647564,0.04016947,0.00457101,0.0043558795,-0.078631714,-0.16968879,-0.13452676,0.14421238,0.070527814,-0.10399106,0.2044313,-0.08052858,0.01723601,-0.17067966,0.28118303,-0.06464445,-0.21270369,0.04670864,0.012760648,-0.036952075,0.34827167,0.05654399,-0.1655385,-0.128392,-0.0025831512,0.18794394,-0.21962124,-0.034970883,0.0105869705,0.43051788,0.19459152,-0.086674355,-0.17569733,-0.03476461,0.0056159548,-0.04841801,0.14772585,-0.11548039,-0.1822265,-0.07277817,0.104484476,0.33169854,0.3987891,0.22722846,0.070480034,0.14801317,0.009023166,0.031571064,0.0519577,0.095725834,0.32111916,0.1357906,0.21367256,-0.022675633,-0.030390691,-0.01533886,0.12044568,0.21587566,0.27741486,-0.0862884,0.20126285,-0.28340438,0.06178114,0.025404617,-0.011465635,-0.23359855,0.061616972,0.26806736,0.21278383,-0.011577321,-0.077814184,0.17914616,-0.13663457,0.16786914,-0.08104393,-0.058623347,0.0018794384,-0.16647601,0.083162926,0.078678295,0.14390826,0.11360425,-0.1286339,-0.20017684,0.09814028
to,-0.26586607,0.038013626,-0.16106232,-0.03465589,-0.1111971,0.12916863,0.3210797,0.10401772,-0.21080124,0.26620564,-0.050358713,-0.009095898,-0.15388855,0.19806555,-0.071294546,-0.029572893,0.018205116,0.09494277,0.2064161,0.0064859944,0.1442288,-0.12751667,0.19881219,0.15104982,0.08891264,0.20265949,-0.1396185,-0.29784274,-0.08071992,-0.09418908,0.3193282,0.11441428,-0.059931125,-0.31567535,0.26674747,0.065990746,-0.08768427,-0.039909888,0.2764387,-0.24240988,-0.14652136,-0.40981883,-0.14980899,0.38784492,0.15789716,-0.19885132,0.16974719,-0.18006212,-0.013662362,-0.7384507,0.07671968,0.14225876,0.08782624,-0.02137621,-0.1782163,0.053969447,-0.0055648494,-0.005183082,0.14786515,-0.084861964,0.123860285,-0.060167897,-0.009994123,0.06540158,-0.088417865,0.2662867,0.31929925,0.39961407,-0.034885097,0.5585024,-0.022768555,0.32857272,0.5266285,0.023034306,0.13666916,0.14103025,0.020437155,0.018819267,0.063096724,-0.4354244,-0.18498312,-0.25931418,-0.15491913,0.009930726,-0.20633578,-0.34518573,0.16144803,-0.05066921,-0.37375537,0.0077228327,-0.022108039,-0.14875254,0.14743479,-0.088347964,0.07216427,-0.40759274,0.2582411,0.21112543,0.27191305,-0.075392365,-0.13652502,0.1506887,-0.11012772,-0.22360767,-0.2781858,-0.48029098,-0.0055637877,-0.1845277,-0.1473664,-0.4002642,0.07008371,-0.0051712547,0.04996317,-0.31189504,0.11907627,-0.15891528,0.085929185,-0.38775378,0.07467623,-0.20265429,-0.17438962,0.23245464,0.1175578,0.2732767,-0.7472079,0.05098533,0.059872594,-0.29025993,0.07963429,0.31945106,-0.21813498,-0.15635163,-0.32862648,0.010249331,-0.3274586,0.93536043,0.27016467,-0.003979458,-0.12536371,-0.12666583,0.5729172,-0.30539533,0.011205386,-0.17438681,0.057804782,0.123738244,-0.09934747,0.4149618,0.12344032,-0.37696135,0.10487332,0.0038006357,0.24691702,0.091390274,-0.18895812,-0.12781325,0.032621566,-0.049730293,-0.21677661,-0.2042771,0.68233645,0.014925486,0.16904391,-0.17659895,0.12258453,0.1935447,-0.10752586,0.15582502,-0.392876,-0.22134979,0.16893983,0.3877268,0.14969009,0.027246257,-0.13287471,0.69887465,-0.059464376,0.06370254,-0.19157246,-0.13486707,-0.043165,-0.517894,-0.075707085,0.36562434,-0.04252032,-0.15329394,-0.15505096,0.20431049,-0.002605381,0.10346509,-0.051850203,0.17700672,-0.20264356,-0.054846816,0.14647925,0.20982127,-0.023258446,0.1767632,0.37346157,-0.18408863
of,0.20166242,-0.024037967,-0.20672552,0.2821228,0.11097088,0.18233609,0.09696879,-0.047936097,-0.08607725,-0.2386518,0.050154176,-0.056419812,0.1196489,0.17581868,-0.19489957,0.3868947,0.4139213,0.15189703,0.2901448,-0.4466879,-0.010985929,-0.0552632,0.2740625,-0.088404134,-0.14772798,0.24883279,0.10234478,-0.07910005,-0.087904155,-0.1385318,0.075352006,0.18092284,-0.014753458,0.17993024,0.07066345,0.22271137,-0.04387103,0.021452583,-0.062494446,0.037334893,0.1654549,-0.15593235,0.033123836,-0.039152753,-0.06739448,0.37133428,-0.09545274,-0.22426172,-0.09742043,-0.05486309,-0.21814173,0.080127575,-0.3713539,0.04222208,-0.038462263,-0.24526274,-0.056942854,-0.25388533,0.11189053,-0.26637584,-0.03408995,0.04357126,0.21479867,0.103934385,0.040380895,-0.11623984,-0.24853216,-0.38408083,-0.11765532,-0.032614544,-0.183981,0.14964396,0.041433927,0.22946157,0.5900546,-0.19459493,0.18420532,0.13052566,0.099233784,-0.06418361,-0.14336163,-0.14696892,-0.35270876,0.078580216,-0.13710164,-0.07860843,0.44130218,0.26986924,-0.11297671,0.12293049,-0.08086404,0.15832713,0.20877631,0.4035418,0.38443273,0.46246034,0.26259887,-0.23034896,-0.08201905,0.16419578,0.25135002,0.24813275,0.2240842,0.49184325,-0.20941694,-0.109416544,0.24850449,-0.0070629776,-0.23248012,-0.06013427,-0.13946381,-0.44495508,0.43137738,0.22098763,-0.102019966,-0.24637288,0.061409127,-0.11776427,-0.041553684,-0.03612166,-0.19560555,0.45714238,-0.063971,-0.41458145,-0.33847535,0.33572194,-0.1136616,0.27561757,0.026644628,0.106851675,0.023261802,-0.19769228,0.015452887,-0.097951435,-0.1503136,0.3603396,0.42280316,-0.11668698,-0.22523238,-0.23294094,0.29192457,0.039767615,-0.15004918,0.22582565,0.20289104,0.2255445,-0.26745012,0.083115,0.18495421,-0.12752526,-0.15412088,0.092753455,0.5452106,-0.17358004,-0.586734,0.43472293,0.2548517,0.40047604,0.22409703,0.19019844,0.32165226,-0.055115785,-0.08425254,0.20174694,-0.04177888,0.33368662,-0.5192022,0.5623464,-0.29988086,-0.15280598,-0.19089936,0.1206247,0.29216018,-0.10703061,-0.05592335,0.42189664,-0.12180778,0.13304482,-0.38818568,-0.2629743,-0.259384,-0.04035773,-0.023843477,0.12513176,0.27726695,-0.12391605,0.030236019,-0.0020572091,0.25723594,0.02048167,0.053021453,0.09399095,-0.19978048,0.3775046,-0.16292268,-0.12148614,-0.37074018,0.3890743,0.00045329248,0.027713094
i,-0.709911,0.04203199,0.096736,0.009318593,0.37692952,0.041195747,0.22238624,0.07642657,0.09042217,0.20581713,0.11688178,-0.3672896,0.034889318,-0.23409538,0.1912262,-0.30416608,-0.35211343,-0.10623428,-0.1615227,0.16533759,0.28705215,0.090500504,0.12427309,0.0049283104,0.27374405,-0.2319583,0.068232425,-0.5191751,-0.15994738,-0.40998533,0.77415156,-0.042109612,0.4235649,0.23199861,0.097312465,0.0646883,-0.04976396,0.23939034,0.23341952,-0.64252,-0.049566988,0.04593137,-0.33729887,0.11165741,-0.14352505,-0.38395402,0.6373934,-0.17334896,-0.08397488,-0.02701774,0.3224194,-0.17417292,0.16401474,-0.32157362,0.3123283,0.2367825,0.13409612,0.32777986,0.21903136,-0.20341404,-0.118586145,-0.3272039,0.41391695,-0.15561315,-0.6043621,0.007908878,-0.23044702,0.49461037,-0.56477284,0.6128875,-0.24743767,0.032159697,0.86014026,0.42161837,-0.06420788,-0.083180115,-0.023162624,-0.5406592,-0.56398356,-0.05246416,-0.3636237,-0.44927984,-0.2679876,0.40920812,-0.26486996,-0.20571335,0.28160742,-0.11138625,-0.11700778,0.23641786,0.04337585,-0.3076736,0.35208756,-0.004439928,0.37271714,0.39533162,0.52065974,0.547563,0.19939233,-0.3533568,-0.65033436,0.19617963,-0.19908479,-0.15666805,-0.37014678,-0.82974756,-0.45583034,0.30673236,-0.22374696,-0.44754648,0.23189554,0.045387186,-0.41474468,-0.08254549,0.05121667,0.2853253,0.6099595,-0.6381528,0.14032002,-0.4389664,0.17975107,-0.048754033,0.18160348,-0.0003919838,0.51076615,-0.0057042316,-0.60270745,-0.10542287,0.34437153,-0.07648049,-0.13517764,0.04942416,0.034658123,0.26927504,-0.16190189,0.51727384,0.013372121,0.19824073,-0.06517792,-0.24828272,0.09329146,0.203098,-0.038616017,-0.19867884,-0.1810433,-0.5389524,-0.19232239,0.23963879,0.29010358,0.2788176,0.20889503,0.47540486,-0.40143046,0.57923263,0.13513218,-0.3951553,0.084708504,-0.28278777,0.08223747,-0.15119232,0.44387364,0.56625736,0.4333661,0.10791234,-0.4098054,-0.062797174,0.107990324,-0.62970775,0.15308715,0.029799916,0.012645954,0.28571698,-0.28299522,-0.5603078,-0.010565871,-0.15555283,-0.39624274,0.13219085,0.03582119,0.31071782,0.08021384,0.12725137,-0.001156815,0.36417383,0.078764655,0.086237736,-0.26613355,0.6834522,0.6965832,0.3581943,-0.40389982,0.024593566,0.18918337,-0.26809412,0.24640879,-0.06644963,-0.42595795,0.24124356,0.4060697,0.18926513
a,0.32852784,-0.020982208,-0.0515505,-0.22266692,0.013235575,-0.31825054,0.013042125,0.2610875,-0.25487787,-0.36307427,0.28545773,-0.22908191,0.34747624,0.12426654,0.045232974,0.34249395,-0.017199142,0.04196337,0.337433,-0.5958468,0.21515764,-0.02217252,0.13884997,-0.0034876284,-0.180764,0.07941027,0.14552736,-0.019459134,-0.07732644,-0.12232866,-0.13170376,-0.16377746,0.38055524,0.011763353,0.3331038,0.1128686,-0.10583135,0.28847045,-0.11038609,0.08793092,0.057025492,-0.15334198,-0.41423568,0.47911486,-0.4107216,0.03914426,-0.26876086,0.061666407,-0.20518948,0.2612863,-0.23398909,0.008385886,-0.2997512,-0.23497464,0.12992829,0.13876098,-0.16799521,-0.14224857,0.21838078,0.27860472,-0.17183942,-0.16644888,-0.09554615,0.009965928,-0.24267012,0.4686582,-0.2448351,0.2872865,-0.04618184,0.31693318,0.3931777,0.45823243,0.12137214,0.13987842,0.5134139,0.35508442,0.4212407,-0.124167584,-0.13476072,-0.0018299043,-0.03043006,0.41636443,0.0902652,-0.10797208,-0.24130668,0.12794614,0.019876108,0.1526041,0.008257795,-0.09364634,-0.0115893325,0.13608302,-0.022111835,-0.021597255,-0.21515979,0.066120304,0.025629077,0.11025076,0.18667385,0.02549048,0.40107867,-0.003611355,0.105195075,0.29828078,-0.0710406,-0.11045984,0.20974725,0.38897645,-0.09701838,0.008937852,0.0349199,-0.08097473,0.14662659,0.055845775,-0.21863228,0.1483882,0.053778138,-0.15964721,-0.20550266,-0.058630437,-0.044433,-0.07466604,0.068295345,-0.4223442,-0.14455369,0.25701848,-0.43031687,-0.19715966,0.010272708,0.44923958,0.15904158,-0.1305702,0.009916591,-0.3480925,0.20836638,0.115604825,0.006211694,0.3558722,-0.10759818,0.038188115,0.20489196,-0.14292632,-0.22793369,0.45935965,-0.02542703,0.02266372,0.1482369,0.21153308,-0.3192532,0.29152986,0.2850779,-0.00077628583,0.1573689,-0.06381809,-0.18758799,-0.006737805,0.32896265,0.45875365,0.312125,-0.15370199,-0.3049728,0.28557885,0.08359481,0.06269467,-0.33619002,0.009416411,0.3627303,0.38845205,-0.14358321,0.13758664,0.006441277,0.36020085,0.17965673,0.2722507,0.15003884,0.3933885,-0.3660924,0.5215137,-0.6209663,-0.10599713,-0.44142246,0.31561366,0.5262147,-0.26499704,0.33726454,0.2139364,-0.15378456,-0.13949387,0.3023487,-0.21597768,0.38675904,-0.006887004,-0.12395663,0.18462582,-0.22159228,-0.10811797,-0.15307178,-0.043023985,-0.06029305,0.060093895
he,-0.087525874,-0.16787538,0.093876496,-0.3283399,0.24293138,-0.17317963,0.060765613,0.3590876,0.118495256,0.10279884,0.073063694,-0.13561732,-0.23946872,0.05565776,-0.1529341,-0.511806,0.14329036,-0.10051638,0.05980853,0.14326538,0.20543718,-0.13577996,-0.16946958,0.5317224,0.4408575,-0.054067638,-0.11272239,-0.041000076,-0.046074633,-0.07771796,0.23470739,0.14726345,0.12418747,-0.09154876,-0.07846182,-0.30170998,-0.3200441,0.14628187,-0.029498622,-0.40284175,-0.041892037,0.08308331,-0.24086656,-0.010402154,-0.5251451,-0.5084508,0.30718046,-0.19693924,-0.19679706,0.31068185,0.13858432,-0.40819493,-0.17934935,-0.35636124,0.48586217,0.11410374,-0.034211982,0.2312006,-0.12769148,0.04238008,-0.4466495,-0.68019766,0.16753735,-0.022074277,-0.4803611,0.14242306,0.10162602,0.35880202,-0.4495038,0.19323198,0.069963954,0.28305954,0.37026888,0.18234986,0.023089467,-0.069111295,0.03903686,-0.16355872,-0.23903927,0.34234658,-0.27497333,0.17582965,-0.2008956,0.005751224,-0.35303205,-0.34352368,0.40597668,-0.06584677,-0.14534648,0.010618775,-0.13367265,-0.26213706,0.008469115,-0.01979868,0.1616625,0.031867754,0.21249881,0.40595874,0.15396614,0.056324914,-0.52375925,-0.0052685826,-0.03481916,-0.37584132,-0.2610178,-0.36928448,-0.49352673,0.27055275,-0.17007919,-0.14074856,0.16843817,0.3112182,-0.37562054,-0.061880123,0.1741343,0.61103284,0.4345209,-0.083347924,-0.012600512,-0.123494074,0.3679569,-0.2204642,0.50087,-0.107549466,0.5160528,0.32939038,-0.4932323,-0.1606155,0.1848637,0.14648387,-0.19106883,0.044239007,0.04496667,-0.14550254,0.15396039,0.14068303,-0.30386078,0.24297002,0.01215763,-0.2713476,0.004410021,0.045341972,0.16369404,0.08746869,0.21424682,-0.746893,-0.36811602,-0.2427567,0.35156468,0.22477843,0.23526283,0.33525994,-0.5189244,0.4760116,-0.13480356,0.21518905,0.6003646,0.24670582,0.27647948,-0.21164219,0.66037935,0.41818017,0.047973193,0.25146413,-0.13867262,0.09761187,0.374649,-0.26300934,0.5974854,0.13632074,0.09223891,-0.049062088,-0.19223554,-0.034353342,0.19848311,0.2063518,-0.1643829,0.38413492,-0.16879596,0.3155835,-0.08660394,0.15484242,-0.00855686,0.305815,-0.14258967,0.38624832,0.06457822,0.5516964,0.25109586,0.11131842,0.0068173637,-0.047328576,0.19463609,-0.2141242,-0.10037568,-0.05257321,0.0010688073,-0.1253469,0.15154289,-0.0081542265
in,0.21649763,0.011846049,-0.1402485,0.082104824,-0.11628966,0.13064022,0.1904017,0.024982339,0.04394699,-0.037966568,0.080530286,-0.08967348,-0.06788941,-0.09423572,-0.08686506,0.23810375,0.2120092,0.067855075,0.22784762,-0.1681494,0.22103022,0.031653583,0.19947757,0.2012376,-0.03985856,0.4020559,0.0964342,-0.1161085,-0.019540064,-0.06528239,-0.07115233,0.04595802,0.14797817,-0.29289076,0.06545477,0.10447149,-0.08809773,0.035023835,-0.19961326,0.2341261,-0.0852941,-0.13513793,0.037741225,0.16907276,-0.07123988,0.1141082,-0.28482482,-0.110786326,-0.098415606,-0.16570579,-0.13053447,0.16998015,-0.22488692,-0.023170115,-0.064420335,-0.2599108,0.0027225765,-0.41387486,0.18769869,-0.10160328,-0.17035462,0.08999084,0.076378375,0.011487227,-0.05405966,0.13311066,-0.097829476,-0.19595636,0.12943412,0.062239733,-0.15579066,0.31783193,0.22929206,0.02710233,0.3250074,-0.09381443,0.30849174,0.13146877,0.008796144,-0.3339947,-0.299987,-0.038357202,-0.14098929,-0.16788223,-0.21403654,-0.033241265,0.42540774,0.06846813,-0.15447693,0.019035751,-0.124430306,-0.031286355,0.22916019,0.06437748,0.21092463,0.14150861,0.20742173,0.038990337,-0.14523935,0.10150537,-0.004515478,0.07720691,0.22407314,0.33238143,-0.1685618,-0.47901657,0.19207878,0.18945616,-0.28458554,-0.32238486,0.0016533609,-0.366215,0.1331275,0.25508446,0.015331773,-0.09515044,0.060493562,0.007041169,-0.0533977,-0.07329551,-0.22974063,0.068946935,-0.02111231,-0.26257724,-0.22010122,0.4698926,0.078288406,0.14060178,0.04314138,0.30452213,-0.16649376,-0.15921953,-0.08645014,-0.0885294,-0.18702796,0.57297075,0.4078197,-0.13981456,-0.054704167,-0.19060047,0.3564267,-0.11684141,0.0039609764,0.128075,0.51299053,0.21027817,-0.18726884,-0.062284816,0.15487581,-0.35643303,0.016492173,0.2712354,0.4468219,0.016207641,-0.36711994,0.046551704,0.31630528,0.2935463,0.32797378,0.008955088,0.3984685,0.06033016,-0.026650984,0.15622531,-0.031667717,0.24436222,-0.35209405,0.40021577,-0.18025315,-0.05054029,-0.08823632,0.01678881,0.24839018,0.14870514,0.03204542,0.62921137,-0.15918559,-0.010076828,-0.21998782,-0.27039388,-0.079360716,-0.08852731,0.015438058,0.08381476,0.13248655,-0.13782197,0.043640148,-0.124262914,0.20746003,0.23031336,0.13350782,0.113609634,-0.14863215,0.12970972,0.00041185197,0.01718934,-0.066099465,0.19598536,0.22362792,0.20293349
that,0.0896669,-0.2581521,0.038948312,-0.17517245,0.40538296,-0.012559437,0.0237936,0.07441961,0.092583075,-0.056406718,-0.18576215,-0.23172003,-0.037449785,-0.0483192,0.10783892,0.19413656,-0.36020973,0.20457044,0.2044932,-0.24448779,0.34377158,-0.037610933,-0.07261359,-0.08043367,-0.37371853,0.08073407,0.089850165,-0.1470157,-0.082984455,0.015548975,0.40494218,-0.06284844,0.307136,-0.17315045,0.10779813,0.1354645,-0.04099478,0.05163392,0.011261543,-0.04216677,0.24616672,-0.037963927,-0.2848424,0.26484248,-0.10656802,0.20101064,0.12766634,-0.0036191095,-0.01895488,0.19940616,-0.03058466,-0.009901505,0.18140204,-0.16033517,0.3132311,0.11162257,-0.27277026,-0.36271468,-0.24249451,0.044119295,-0.26138312,0.07649272,0.14069344,-0.1301185,-0.18540393,-0.14511964,-0.1460118,0.36396018,-0.20955849,0.52332276,-0.10296922,0.25331667,-0.028290555,0.078399315,0.2297472,0.03398782,0.25501075,-0.09235377,-0.14542788,-0.04067643,-0.26996565,0.064949915,-0.33618113,0.021469261,-0.12834753,0.09610383,0.2718443,-0.041287463,0.20608276,0.0005370663,0.16962592,-0.036337726,0.14012536,0.06736713,-0.14709707,0.0960471,-0.2144999,0.05229648,0.108812325,-0.16610925,-0.16637728,0.20242637,0.111315146,-0.2973222,-0.17741998,-0.22602701,-0.03944599,0.07318674,-0.0009615694,-0.0071652094,-0.22747889,-0.4281327,-0.4251425,0.12186588,-0.008874217,-0.06800554,0.36367345,-0.42795786,0.023023332,-0.2853094,0.182683,0.009182602,-0.110652186,-0.23903742,-0.031440258,0.06416835,-0.08618973,-0.13389654,0.21377343,-0.055769153,-0.10424733,-0.048189107,-0.20803717,-0.04699569,0.06831179,-0.049607616,0.021409092,0.25311363,0.0034939123,-0.26569703,0.13218611,-0.2043662,0.1796469,0.0031210587,0.24195832,-0.080589354,-0.3062164,0.12549002,-0.08074931,0.31960505,0.12913463,0.30387396,0.3753131,0.0702571,-0.14770335,0.13100833,0.032124262,0.11210821,-0.044630446,0.05745367,-0.33174667,-0.008933696,0.15000641,-0.03802957,0.14306723,-0.2133321,-0.13781677,0.3256222,0.23734865,-0.2537677,0.06669041,0.24248567,0.108961165,0.04440699,-0.10137242,0.23139115,-0.042340215,0.29795858,-0.104959674,0.05236059,-0.14393076,0.32864678,0.39924487,-0.11818123,0.2317694,0.008527947,0.14820887,0.1753417,0.24952509,0.15588196,0.26258147,-0.10412389,-0.24839479,-0.30907694,-0.007946048,0.33085886,-0.056888632,-0.053866833,0.08314381,0.12824418
his,0.32085213,-0.21982548,-0.2827174,0.20163971,0.10940924,-0.09614279,0.37522498,0.25662038,-0.32812583,-0.35967115,0.05755318,-0.018626938,0.26056284,0.25963563,-0.14439473,-0.03748354,0.3504732,0.07166907,0.5262388,-0.02137611,0.34192282,-0.07118765,0.38363066,0.07237841,0.21537974,-0.1240045,-0.20136486,0.2405915,-0.0048228903,-0.11908706,0.1725924,0.03864358,-0.25233376,0.008663973,0.040842764,-0.02460186,-0.28050846,0.19880033,0.28089175,0.10097208,0.12141544,0.055894364,-0.2894794,0.13850343,-0.61218685,-0.1716866,-0.08847891,-0.05014399,0.25264135,0.09088359,-0.19468464,-0.25940475,-0.017108755,-0.33057898,0.41750523,0.3688498,0.11608145,0.030439757,0.28135434,-0.2034432,0.10798547,0.032667853,0.10996197,-0.136074,-0.29807132,0.43758446,0.035916056,0.20136812,-0.34015566,0.35533106,0.46736115,0.07648865,0.39939997,0.20325874,0.46429646,0.011831609,0.1644654,0.35559988,-0.3818625,0.013455651,-0.19302288,0.25161237,-0.07103399,0.34056887,0.2220862,-0.24645486,0.23869792,0.30381614,-0.15544917,-0.06282195,0.2772569,-0.21452843,0.08601725,-0.18723963,-0.25928992,0.022200888,-0.15869023,0.007973596,0.20178002,-0.03655019,0.43487757,0.14447011,-0.0946937,0.15605934,0.05712731,0.32319155,0.17008767,-0.17509861,0.3768502,0.009072857,0.40802354,0.09021687,0.38900724,0.3294793,-0.02225611,-0.023746682,0.32753915,-0.10369684,-0.21772304,0.24692018,-0.04728423,-0.005704349,0.1245014,-0.3311353,-0.28756285,0.25649747,-0.6809487,-0.03527756,-0.059117533,0.3234848,-0.23740354,-0.24700615,-0.20708135,-0.4984889,-0.3173725,0.28880385,0.1054233,-0.053174518,-0.22483909,0.12687092,-0.26702338,0.04530501,0.044167265,0.37616295,-0.029425954,0.31866682,-0.031910814,-0.1580716,0.14450581,0.37405676,-0.05754035,0.024254698,-0.18320121,-0.24948733,-0.24697517,0.3776056,0.8131701,0.7216561,0.32308704,-0.2030289,-0.06865082,-0.09793688,0.2059808,-0.008783222,-0.20268911,0.45747066,-0.1615698,0.287241,-0.30654693,-0.0522395,0.109016076,0.46042204,0.4951028,0.0355739,-0.40669426,0.27428153,-0.28713408,0.16066517,-0.7464905,-0.28784454,-0.6971464,0.22872171,0.49612898,0.33773613,0.5959008,-0.054670956,-0.075151145,0.14473926,0.3570496,-0.27942565,0.2552209,0.12882705,-0.4238581,0.08341757,-0.50544894,0.22900371,0.30570263,0.5173005,-0.35855657,0.113368936
was,0.14884987,-0.03294719,-0.16864306,0.07180486,0.14262076,0.20353405,0.12371384,0.11034777,0.4271941,0.036543954,0.24616373,-0.031169008,0.34795037,-0.04552035,0.08870457,-0.20841458,0.026421014,0.13607372,-0.05269162,-0.026051491,-0.15351816,-0.12320994,-0.0767997,0.15711962,0.08179377,-0.22148347,0.30690932,-0.19139215,-0.338978,-0.23109673,-0.18815441,-0.558867,0.3128411,-0.38783568,-0.21973327,0.038845275,0.33758748,0.51117903,-0.038530927,0.13312122,-0.21314715,-0.10564052,-0.27069655,0.12575522,0.146841,-0.25549802,-0.4350071,0.09683369,0.25902885,0.6130096,0.08042315,-0.36637077,-0.74501216,-0.07014467,0.07617773,-0.047000673,-0.05278555,-0.56013906,-0.40672046,-0.58457875,-0.515949,0.15378992,-0.041147836,-0.03158875,-0.37351078,0.3663462,-0.15102674,0.27891076,0.17367898,-0.2527385,0.5128969,0.6727581,0.30158326,0.2499333,0.57620037,0.07168024,0.5595927,-0.15791725,-0.15301526,0.21040012,-0.4645485,-0.04828798,-0.18390714,-0.38926846,0.022745254,-0.15328602,-0.07251421,0.21900518,-0.0328348,0.12140659,-0.39622578,0.6221345,0.3996407,0.48760772,0.43033487,-0.03084531,0.13455682,0.13021123,-0.26439917,-0.15412438,0.13448507,0.25514877,0.4048285,0.39527822,-0.059962012,0.06148164,0.3044447,0.17302208,-0.55061716,-0.06814277,0.18676396,-0.11383488,0.34261614,-0.04054507,-0.07414757,0.107381254,0.14073333,0.10953447,-0.13890211,-0.01858429,-0.2765471,-0.27761132,0.12946896,-0.23453383,0.10328924,0.40955645,0.11737151,0.2417439,-0.08778746,0.040826544,0.067588985,-0.17927253,0.61504525,-0.5527939,-0.23600279,-0.3097086,-0.08068459,-0.35997298,-0.20620169,-0.065659806,0.08368089,0.2348624,-0.03349571,0.04480766,0.32832465,-0.20608874,0.12107508,-0.30017263,0.007821601,-0.05021079,0.17893754,0.15796827,-0.16350192,0.07707072,-0.52698237,-0.4172521,-0.3011285,0.2473785,0.30787873,-0.07667039,0.17969167,0.4113632,-0.38949496,0.35132915,-0.17921819,0.09083908,-0.064847305,0.12421394,-0.31161824,0.14914997,-0.24021028,0.37395105,0.11275464,-0.0754145,0.23312001,-0.03261472,-0.20880158,0.4116718,-0.23583439,0.26967648,-0.18696958,0.2034438,-0.32438537,0.10453911,-0.010437031,0.061246384,0.2397722,-0.11908961,-0.0753487,-0.09052602,0.22529086,-0.17060733,-0.0024393687,0.02325949,-0.31076968,-0.36374468,-0.2688891,0.0018730296,0.054082546,0.20800553
it,-0.023302013,-0.14453441,0.3428231,-0.03641937,0.23364902,-0.28624162,0.14402898,0.13970722,-0.18227327,-0.24052165,0.11548449,-0.36195043,-0.02026665,0.15851189,0.20898691,0.15132284,-0.42628464,-0.066846974,0.23624532,-0.23909107,0.19014981,-0.11048558,-0.3031677,0.29443058,-0.17571466,0.10440678,0.013365766,-0.14238295,0.10570632,-0.044570334,0.1941219,0.13505863,0.1517822,-0.07655646,0.1947784,0.15825157,0.15992282,-0.05683375,-0.05015741,-0.21158022,0.4284784,-0.11855524,-0.34136102,0.0962258,-0.14625835,-0.29809022,0.4027156,-0.02475361,0.044875503,0.09415245,0.19628493,-0.20105752,0.06608184,-0.09409781,0.5873503,0.12625076,-0.25234285,-0.0765829,-0.31063557,0.17348324,-0.5351378,-0.3448693,0.06936108,-0.09661346,-0.3418932,0.09752675,-0.16371989,0.665364,-0.31204233,0.6906148,-0.09318024,0.35001174,0.08934032,0.10320877,0.2135641,0.45416415,0.18196101,-0.39089808,-0.02225665,0.15541357,-0.07159908,0.111944005,-0.24204196,0.032516975,-0.19639692,0.06926495,0.28428894,0.31033492,0.06710214,0.10425598,0.034135036,-0.014381852,-0.13840225,0.22798745,-0.07161475,-0.12325782,-0.1499087,0.42099532,0.35698158,-0.09474147,-0.16136912,0.2655527,0.014284567,-0.5185594,-0.2954931,-0.1704031,-0.37398413,0.0749215,0.05687212,0.07014741,-0.13865441,0.17926407,-0.3733181,-0.11644365,0.13516493,0.13584463,0.46111423,-0.66410357,-0.07678898,-0.42113155,0.39945623,0.16475059,0.1756724,-0.36888972,0.0535962,0.14553198,-0.4230316,-0.25179645,0.21716134,0.2422284,0.022441292,0.07460912,-0.24005137,-0.27608636,-0.024138829,0.16197956,-0.062371116,0.117017165,-0.16757815,-0.26186392,0.2555925,-0.15159035,0.2152011,-0.007929647,0.025454095,-0.4980269,-0.1003971,0.2042321,0.14302759,0.2044002,0.36641547,0.16270213,0.032785628,0.4531333,-0.21752366,0.33364105,0.02261562,0.1915091,0.015195936,-0.19136217,0.10807464,0.24255316,0.08996151,0.11165023,0.24925765,0.095084935,0.18492585,0.08342183,0.4568956,0.011453603,0.3293721,0.14692292,-0.2955509,0.037113547,-0.014282206,-0.004607279,0.05668678,0.43319997,-0.1833946,0.17322096,-0.16912751,0.11644211,0.08702212,0.053276267,-0.004732593,0.24141741,0.13507263,0.26818585,-0.08801256,-0.0007310801,0.031177487,-0.25297916,-0.13422756,-0.62762743,-0.049809754,0.11506721,0.073344484,0.092115104,0.089157365,0.23012923
you,-0.5759337,-0.13147523,0.09927326,-0.09623725,0.14546877,-0.4014472,0.16527955,0.21402557,-0.42685127,0.03563312,-0.32877204,-0.46227276,-0.2232998,0.0792794,-0.026370006,0.06216845,-0.28317344,0.02547529,-0.24151422,0.010985849,-0.043638688,-0.2631266,-0.27076378,-0.18320173,-0.26507828,-0.32773542,-0.027242668,-0.30802223,-0.4140482,-0.2185068,0.64436996,0.44590583,0.16815613,0.50007874,0.10720821,0.044322085,0.23595272,0.021488806,0.20929453,-0.17083724,-0.012815715,-0.09384129,-0.120953344,-0.026018295,0.5362018,-0.19008705,1.0628974,-0.37529635,0.1807458,0.057979465,0.30670637,0.28102854,0.39217332,-0.028575601,0.15232539,0.1757438,0.19707921,0.31297636,-0.039316647,0.006433277,0.1993996,-0.050995857,-0.109491915,-0.42726687,-0.601086,0.058902252,-0.16487089,0.6841189,-0.2216775,0.94029784,-0.07352951,-0.54693687,0.43063033,0.25228316,0.1712897,0.27150413,-0.08472923,-0.21577373,-0.36475605,-0.19976054,0.049742773,-0.4993708,-0.334071,0.6905772,-0.2580709,0.07410654,0.036948036,0.4301582,-0.015481974,0.40866002,0.26595968,-0.19941016,0.3239532,0.35740915,0.26876506,0.26424366,0.31237572,0.1785323,0.2538523,-0.46487635,-0.5877922,0.67037493,-0.07472045,-0.5235023,-0.57035524,-0.58915424,-0.18351707,0.2482188,0.38397992,-0.09196688,-0.20514257,-0.1442685,0.18718545,-0.41694862,-0.26190925,-0.41610157,0.4718132,-0.938692,0.08681291,-0.46991432,0.13491844,0.57137585,-0.10569503,-0.11363184,-0.1280165,0.060518652,-0.7804369,-0.3559507,0.12956405,-0.23463361,-0.2562597,-0.01559322,-0.31642315,0.2957428,-0.17477167,0.8455569,-0.002580018,-0.3652964,-0.09334447,-0.521991,0.11599824,-0.23106422,-0.017036222,-0.35864007,-0.47130927,-0.2230574,-0.11743648,0.27639356,-0.14320445,0.23956166,-0.020873027,-0.2338587,-0.26798204,0.1931613,0.13716073,-0.042556845,-0.1333217,-0.17842895,-0.46314827,0.22149514,0.6398711,0.1676064,0.51065326,-0.24213243,0.011207653,0.14226738,0.23764423,-0.36577186,-0.27001807,-0.02579868,0.05061567,-0.046882417,-0.11129422,-0.3898307,0.0737681,0.021567004,-0.23283519,0.014318874,0.05937583,0.2994841,0.2426763,-0.09525583,-0.14154786,0.094581924,-0.14293265,-0.15185714,-0.24848728,0.43645048,-0.23514257,-0.37745082,-0.4557645,-0.10789218,0.39709705,-0.33708754,0.08264562,0.008476564,-0.19204035,0.46369246,-0.18907084,0.016229706
my,0.028550195,-0.11030441,-0.22225654,0.310071,0.0024923307,0.12620209,0.39057457,0.12208224,-0.46471968,-0.45198724,0.10440132,-0.07417261,0.36438438,0.08773633,-0.04731658,0.38622552,0.1479485,0.08291015,0.0994609,0.02608897,0.26309693,-0.13929416,0.14413664,-0.29517245,-0.2408066,-0.45946556,-0.1553188,0.084040955,0.030877406,0.17334315,0.039571404,0.014045893,-0.121561125,0.20872815,0.026978891,0.06764243,-0.121800296,0.22232327,0.28303006,0.18889892,0.5013778,0.052088268,-0.20131893,0.4169567,-0.2798834,-0.06429028,0.4096898,-0.053831022,0.612738,0.08757492,-0.18044566,-0.029722933,0.10178901,-0.22946315,0.051656716,0.20893624,0.20052706,0.041894045,0.46089783,-0.16837533,0.5575966,0.16049047,0.17609541,-0.3494862,-0.49013793,0.41490263,0.1523527,0.16912682,-0.3553322,0.49701726,0.42491233,-0.27071327,0.73365355,-0.018748805,0.58315045,0.03978234,0.35218513,0.3053188,-0.7607228,0.03818205,-0.411248,0.040180776,-0.24854392,0.8522521,0.09241357,-0.02231394,0.3365444,0.59796524,-0.12350255,0.18819687,0.57793164,-0.09760323,0.4878056,0.04704845,0.04826371,-0.04943648,0.12297751,-0.04301645,0.4218789,0.077822894,0.16143228,0.5360272,0.073184565,0.061572507,-0.22401336,0.036335383,0.50987923,-0.1279927,0.5795525,-0.025185706,0.26835603,-0.21367712,0.339339,0.0038493033,-0.20194542,-0.13783494,0.5652231,-0.47610363,-0.21467052,0.050324094,-0.199832,0.39378726,-0.083314404,0.049438942,-0.37907368,0.111356355,-0.8339769,-0.2110799,-0.26610833,0.40019307,0.159038,-0.5602893,-0.24994068,-0.49413562,-0.3353231,0.4036285,0.008387094,-0.06943164,-0.033627935,-0.043192845,-0.35043576,-0.10130052,-0.21103974,0.2677491,-0.43839377,0.4870604,0.0020324388,0.24050759,-0.06576709,0.41445947,-0.33707502,-0.44907784,-0.14302595,-0.628979,0.36090672,0.36262873,0.457571,0.3860391,0.100051604,0.113066904,-0.5302258,-0.26341668,0.4480119,0.021196745,-0.27391022,0.39691165,-0.35398686,0.15955697,-0.37859702,-0.12882397,0.012044917,0.5206488,0.4884565,-0.19461544,-0.70888275,-0.412157,-0.431904,0.18330187,-0.35801488,-0.35712835,-0.6732709,0.08401815,0.5448589,0.4155166,0.55784166,-0.40894687,-0.44168425,-0.08116324,0.2078282,-0.4027526,-0.10536207,0.003209713,-0.18268947,-0.08731888,-0.08758917,0.032754306,0.34307566,0.5383535,-0.72925127,0.19194143
with,0.28260037,0.1292299,-0.31481433,0.08719283,0.037660588,0.2023582,0.11464643,0.11821113,0.014303881,0.1276234,-0.033552825,-0.018269986,-0.011009473,0.064134985,-0.08727897,-0.04767076,0.49334183,0.12918946,0.31315282,-0.23807329,0.30734506,-0.10294389,0.16906072,0.33039165,0.10289539,0.08453989,-0.11018363,-0.1580729,-0.0887948,-0.05535019,0.15474786,0.07834557,0.17569716,-0.35233238,0.021869393,-0.037216913,-0.028853554,-0.070782244,-0.009173326,-0.02713055,-0.04349781,-0.2411866,0.30372444,0.18854238,0.06525423,0.08976018,-0.43171528,-0.20026019,-0.088769965,-0.07690319,-0.21994242,0.035519354,-0.2409111,-0.028547632,-0.08697707,-0.23455246,-0.053058866,-0.39546883,-0.01096329,-0.19743322,0.012214572,0.009561606,0.19173555,0.10189212,-0.22974364,0.22779548,0.022137828,-0.026617512,0.0521537,0.07364627,0.07562818,0.17134249,0.32685378,-0.0683889,0.13061656,-0.16771741,0.0991354,0.35547948,-0.04304016,-0.21060173,-0.23460118,-0.046331648,-0.16473933,0.08419348,-0.21027115,-0.2101743,0.40030167,-0.100364745,-0.10166606,0.08834341,-0.12579572,-0.048647694,0.080713525,-0.035895918,0.021675996,-0.10590331,0.12623566,0.042334385,0.053074885,0.036384046,0.04322858,-0.2444049,0.10357542,0.17725101,-0.19852665,-0.20928808,0.2028724,0.0009108997,-0.26979807,-0.350863,0.010431982,-0.13430889,0.11737273,0.11942911,0.040232625,-0.028886037,0.10283889,-0.036255635,0.004960438,-0.04679354,-0.27652812,0.18026087,0.1096067,-0.0065497933,-0.19348404,0.41829056,-0.07746912,0.02800626,-0.12308652,0.39169997,-0.23474708,-0.09874727,-0.081473455,-0.14296468,-0.13181095,0.5055294,0.14394686,-0.13235882,-0.11723098,-0.11722494,0.14553238,-0.17223342,0.06728771,0.14835238,0.44076452,0.30828488,-0.4033451,-0.024338953,0.066919036,-0.25262415,-0.10268026,0.2841217,0.1659143,-0.13966012,-0.23259757,0.12602443,0.35906145,0.22213039,0.2823295,-0.0060656886,0.23825546,-0.13055667,-0.000926356,0.2257582,-0.121195346,0.14671041,-0.33899695,0.28346846,-0.1937122,-0.19203205,0.051130142,0.08841516,0.11477022,0.13930179,-0.121229865,0.32828486,-0.10145314,-0.05162946,-0.06083405,-0.1777089,0.03244766,-0.22198395,-0.015435591,0.21978487,-0.01382052,0.06584266,0.026687684,-0.11472973,0.24389781,0.24054345,0.17664501,0.069491155,-0.15279028,0.13663019,0.14414468,0.062229823,0.082286686,-0.019760804,0.18542625,-0.1561825
for,0.03617755,0.03835016,-0.084033564,-0.09630046,0.10631555,0.18043838,-0.022036364,0.036008507,0.10767996,0.18077423,-0.20602877,-0.17391606,-0.11458854,-0.16406442,0.016961023,0.10767643,0.024805155,0.045734156,0.25089744,-0.18595432,0.23407334,-0.20901081,-0.06701056,0.07209874,-0.26371017,0.093768306,0.048618104,-0.2659339,-0.21395425,-0.08348203,0.3116042,0.13974635,0.22638969,-0.23748584,0.17984346,0.14641438,0.039976764,-0.084692106,-0.098088324,0.12249119,0.08091889,-0.2266678,0.1086969,0.2856,0.28875038,0.19553393,0.012045813,-0.16331421,-0.10767539,-0.056714647,-0.09788846,0.20179866,-0.07637007,0.072395466,-0.07974116,-0.14533898,-0.08539437,-0.4174442,-0.09167687,-0.10943569,-0.086500846,0.14459698,0.08969932,-0.030373173,-0.27494538,-0.025208002,0.036957372,0.14497013,-0.097370975,0.2932893,-0.15820834,0.20611896,0.19706424,0.007494611,0.2520596,-0.07888377,0.13148832,0.102051795,-0.039636474,-0.24813257,-0.17106517,-0.1438518,-0.18337111,0.014169063,-0.23617236,-0.046390545,0.29833546,0.07462775,0.046734568,-0.004609818,-0.03777816,0.01486924,0.13211173,0.08483232,0.103852466,0.035057228,0.10409742,0.0833653,-0.083113596,-0.009531862,-0.25949505,0.010341771,0.18957186,-0.08440428,-0.35001054,-0.46669352,0.09812105,0.10207636,-0.035140794,-0.1440373,-0.101176195,-0.4529941,0.0016287721,-0.003684525,-0.013095123,-0.22861382,0.08926896,-0.22107634,0.20355068,-0.18945265,-0.14968744,0.25320965,-0.04683568,-0.0108136395,-0.24968222,0.25354815,0.07172733,-0.03491485,0.09388841,0.07426816,-0.07137782,-0.04763787,-0.061558846,0.074658275,-0.040005386,0.34881866,0.15370308,-0.12246832,-0.14844136,-0.3985511,0.28591424,-0.20142718,0.0466893,-0.030477278,0.28261805,0.032564797,-0.40316713,0.12605552,-0.00880734,-0.3054536,-0.010563134,0.19754562,0.4265006,-0.024642017,-0.20426647,0.009482133,0.04583654,-0.024773678,0.012585748,0.17737485,0.26559195,-0.00997836,0.15179336,0.03798934,0.04383261,-0.023793211,-0.39638343,0.2648201,-0.14298095,-0.13642798,-0.06439713,0.14178722,0.08340555,9.519764e-05,0.03587906,0.40125272,-0.14027716,-0.044749238,-0.051057752,0.03039235,0.2820271,-0.16693652,-0.0721795,0.0138032045,0.004420406,-0.07126865,-0.11800973,-0.081131786,0.07919351,0.34409696,0.034681298,0.0373226,-0.08371887,-0.09500286,0.31220725,0.02162849,-0.1744829,0.025954407,0.2729418,-0.20650268
as,0.20111293,-0.2796679,-0.17531732,0.038654346,0.42762712,-0.13841896,-0.18895389,0.12563854,0.15668336,-0.03647389,0.13066,-0.15425321,-0.14735135,0.00927575,0.08096713,-0.08726568,0.032610234,-0.22075853,0.23971999,-0.36775535,0.16075337,-0.084919706,0.18488161,0.23843174,0.0325328,0.21335444,-0.08744198,0.11224257,0.047657114,0.1997326,0.21173759,-0.18935831,0.48667434,-0.31979528,0.13439304,-0.2447145,-0.09057361,-0.38794047,0.050086282,-0.20038193,0.044616196,-0.36337408,-0.08171798,-0.13163917,0.11771419,-0.18824898,0.05232458,-0.27997386,-0.17596033,0.3466032,-0.22577776,-0.43888432,0.014091592,0.006993473,0.49489096,-0.055553205,-0.3119508,-0.5000181,-0.34635168,0.008202188,-0.6003879,0.09858212,0.42574227,-0.008512856,-0.4473117,0.2933082,0.13796245,0.5392175,-0.19845767,0.72698116,-0.05535015,0.078798145,0.19871277,-0.07549283,-0.10725235,-0.019963438,0.11727257,0.103355765,-0.18201335,-0.3384018,-0.061238054,-0.048290405,-0.42508027,0.37095323,0.03625402,0.15636188,0.29569057,-0.042958263,0.36441302,0.38923588,-0.09811313,-0.3120137,0.38544056,-0.07623749,-0.07401652,-0.019872388,0.061512683,0.28552818,0.24386461,-0.27928156,0.03882176,0.103355944,-0.1634541,-0.027222702,-0.33474904,-0.4028506,-0.009432955,0.17177206,-0.32019877,-0.3552415,-0.065460056,0.27967462,-0.29363114,0.41309044,0.0467608,0.06443544,0.046277076,-0.3416655,-0.007006872,-0.23304851,-0.12023986,-0.26630682,-0.1738755,-0.19001469,0.2912559,0.0021656996,0.28440696,-0.0064511546,0.092700206,0.15390858,-0.28013292,0.07256425,-0.08507756,-0.2230518,0.08944886,0.22688468,-0.23314998,0.038784027,0.10695582,-0.29738218,0.05873461,-0.3413172,0.060299616,-0.050059438,0.64198285,0.017219508,-0.35509393,-0.02281772,-0.0970076,-0.013244683,-0.06918111,0.7018922,-0.14069073,0.2951247,-0.21390383,0.033506833,0.092350446,0.207437,0.10344559,-0.14465748,-0.014750589,0.08680572,-0.16963354,0.24313241,0.105277576,0.23689875,-0.0137251895,0.12128,0.30185044,-0.084601685,0.4688069,-0.2088845,-0.22306602,0.24458115,0.05070933,-0.10985118,-0.024118042,-0.15728714,0.24339367,-0.13321422,0.5044499,-0.17719531,0.18806228,-0.13309407,0.07874383,0.20877841,0.43598652,-0.32258844,0.07370737,0.36824396,-0.06338944,-0.2911614,-0.24972987,-0.090706855,-0.25645885,-0.037340406,0.008546124,-0.36193407,0.3024984,0.18717156
her,0.059297204,-0.30888903,-0.17457479,0.07397114,0.14324859,-0.12508236,0.28274298,0.17357922,-0.12486681,-0.15036573,0.10525016,0.06297402,0.28701162,0.23648049,-0.12583576,-0.17229204,0.19147237,0.012226458,0.5503081,0.18959092,0.4468462,0.10792821,0.23613578,0.11894139,0.24569273,-0.26741347,-0.17067085,0.2003852,-0.08567443,-0.34942627,0.33116627,-0.016815431,-0.18811971,-0.26581037,-0.005146744,0.076830484,-0.29857096,0.38490894,0.4696903,0.08436177,0.08988232,0.11134262,-0.31052634,-0.023060817,-0.68695,-0.3935592,-0.12543155,-0.1260513,0.2939653,0.26377362,-0.2469674,-0.44203064,-0.011559302,-0.25656855,0.6101906,0.5276798,0.15370044,-0.1366632,0.32706293,-0.39783633,-0.0007038295,-0.11157565,0.24131814,-0.2581425,-0.5758477,0.55264014,-0.029081283,0.30395618,-0.30892086,0.45987192,0.5964475,0.2215202,0.55465126,0.28477558,0.42140877,0.019288601,0.12515846,0.123746194,-0.55863017,0.22835699,-0.281998,0.4510751,-0.21792571,0.2567454,0.27813104,-0.2655486,0.21159886,0.4283046,-0.039631598,0.21316223,0.19100519,-0.11064252,0.20781325,-0.29502314,-0.32134926,-0.09278317,-0.24951994,0.13379633,0.23175406,-0.18817547,0.41838512,0.04325471,-0.15114628,0.02394903,0.19205694,0.21243227,-0.1365612,-0.2543851,0.23966132,-0.008592739,0.5830423,0.43347782,0.2925217,0.45888042,0.12541845,0.105748184,0.29284352,-0.028852507,-0.10470693,0.31308785,0.13984197,-0.2302155,0.19678009,-0.41188198,-0.1548246,0.13597873,-0.5530163,0.026309932,-0.09104279,0.1934068,-0.3791499,-0.28246993,0.03161679,-0.41284668,-0.2697763,0.1381252,0.05398134,-0.068286255,-0.27362907,0.17711318,-0.38073862,0.24100892,0.033712078,0.18893605,-0.020881755,0.12596864,0.0726763,-0.069356,0.22433059,0.2813213,0.14833511,0.3116678,-0.4356347,-0.13148092,-0.33845338,0.27328023,0.7857398,0.8101061,0.23535578,-0.318667,0.037530694,0.021125369,0.06637199,0.0011242392,-0.3215788,0.60546094,0.10451775,0.097151406,-0.2064189,-0.1472292,0.0053714407,0.4510483,0.3585645,-0.07956854,-0.39082932,0.30407724,-0.29883194,0.21342595,-0.7598421,-0.0952998,-0.7543238,0.27963555,0.38560468,0.5027763,0.6539632,-0.04632585,0.03137201,0.17476793,0.4078078,-0.20635477,0.20954877,0.0029648384,-0.3196248,-0.04597005,-0.5260141,0.2769297,0.26051277,0.5059938,-0.3229657,0.21105373
is,0.16411194,0.14104627,-0.2844454,0.3076598,0.16494146,0.17425026,0.15555198,0.32573843,0.3728083,-0.0054319035,0.2164722,-0.503565,0.36705002,0.046099886,-0.05029111,0.15957288,-0.10298967,0.35655016,-0.37927595,-0.56555593,-0.27230763,-0.6434348,-0.2744758,0.15627062,-0.20018803,-0.41950175,0.47515646,-0.47145903,-0.5970289,-0.1250227,-0.040109966,-0.32139817,0.6077797,0.024567792,-0.2682201,0.061233614,0.76543134,0.4704484,-0.26971084,0.07195311,-0.20172392,-0.27220643,-0.012221248,0.24948196,0.76506025,0.12422424,-0.1368365,0.041592326,0.5850287,0.74806654,-0.075561635,0.20964685,-0.6844899,-0.05753844,-0.12620248,-0.3116125,-0.03195109,-0.67115134,-0.44961262,-0.53076965,-0.3332352,0.27634618,-0.33469945,-0.01865564,-0.34575954,0.30461538,-0.194321,0.39991426,0.048144706,-0.09687729,0.5495716,0.35797945,0.34498313,0.3409261,0.6103512,0.06657406,0.61232907,-0.0699842,0.0007561436,-0.04356765,-0.35507265,-0.52817434,-0.049224883,-0.3787334,0.16857685,-0.09732372,-0.114547305,0.29516813,0.04941814,-0.056538235,-0.40102023,0.74220806,0.41449016,0.8382067,0.6863056,0.033865806,0.34111223,0.15928964,-0.43362427,-0.21304044,0.12752853,0.40517172,0.49680465,0.29202247,-0.26158407,0.20246594,0.5755842,0.37526006,-0.19759531,0.12701394,-0.13284831,-0.6350908,0.5486968,-0.31460145,-0.24372895,-0.27945796,0.34357384,-0.37931478,-0.13186786,-0.15823647,-0.52243024,0.16888304,0.067855686,-0.22754519,-0.080487795,0.33520308,-0.15745217,-0.00577629,-0.2829652,-0.04897422,0.24507493,-0.28872532,0.6000754,-0.609592,-0.27278298,-0.38790607,-0.043645564,-0.5241641,-0.09745144,-0.10581908,-0.20304549,0.2889981,0.03675242,-0.099038765,-0.041915324,-0.014126164,0.11051672,-0.2797091,-0.264044,-0.053558957,-0.100464925,-0.14820778,0.09067347,-0.13548411,-0.19511983,-0.42048052,-0.90571314,-0.04381569,0.074110255,-0.11134163,0.03827351,0.2650049,-0.24285227,0.27951327,-0.1696282,-0.17045878,-0.5941423,0.16874613,-0.5011521,0.09161462,-0.35523918,0.4106402,0.22865635,-0.110362545,0.22443466,-0.19313337,-0.27521557,0.4106961,-0.1715405,0.33875966,0.17975359,-0.07187423,-0.44127116,-0.040329665,-0.1597472,-0.12437264,0.02814881,-0.2941894,-0.48982435,-0.24430166,-0.014585422,-0.2291275,0.23510846,0.0069313487,-0.08878121,-0.4941949,-0.38802984,0.18960696,-0.20086186,-0.13322413
not,-0.5585863,-0.34506664,-0.12942378,-0.24861832,0.3457275,-0.02572445,-0.010059843,0.20886134,0.15002714,0.26493406,-0.38913658,-0.18531175,-0.31812274,0.09878138,0.01607876,-0.27526823,-0.6039543,0.27040228,0.31956318,-0.16733262,0.5165339,-0.38311502,-0.23816255,-0.05094988,-0.35362944,0.052480485,0.1934591,-0.48985806,0.2178065,-0.12772444,0.94447213,0.2221364,0.4182626,0.060277227,0.34738392,0.20777269,-0.052112095,0.012866536,0.2570778,-0.3460866,0.15214925,-0.14297847,-0.13617675,0.07679092,0.10932186,0.19313963,0.6688431,-0.2865216,0.102828294,-0.21381274,0.14549777,0.019642599,0.5734242,-0.11351613,0.4076694,0.33596656,-0.5479673,-0.10216608,-0.5230526,0.122865476,-0.19291794,0.043152615,0.21032506,-0.29886556,-0.6515806,-0.18653552,-0.11273697,0.89500535,-0.33753684,1.239193,-0.01799689,0.13186055,0.24779081,0.32168302,-0.18311942,0.16545758,0.17809623,-0.21903561,-0.19090988,-0.10902353,-0.25733092,-0.11698446,-0.49899435,0.04942714,0.045073822,0.036180403,0.50443995,-0.010349954,0.48501822,0.27769455,0.06948377,-0.2634504,0.24764863,0.3511298,-0.14698595,0.30446035,-0.29114854,-0.1045092,0.34378272,-0.1621619,-0.37328717,0.43786362,-0.21272516,-0.8314135,-0.1945772,-0.14848936,-0.509187,-0.29223073,-0.23802008,0.13676369,-0.11130959,-0.39285988,-0.45549813,-0.047362275,0.16748732,-0.21925038,0.52646005,-0.883674,0.33791837,-0.16553962,0.4917263,0.38525736,-0.031297106,-0.1654416,-0.34870884,0.1564643,-0.042354733,-0.37515083,0.46837068,-0.52927583,-0.29531398,-0.0058346097,-0.13069843,0.25460604,0.048806522,0.3270391,0.094948694,0.22449341,-0.119830795,-0.58297366,0.29712662,-0.26480567,0.42934898,-0.1790243,0.03104688,-0.11203754,-0.22240792,0.42202303,0.01113835,0.0083728,0.02467722,0.6801584,0.4096988,0.6692858,0.053886108,-0.41286793,-0.20081684,-0.20119078,-0.5116808,-0.20362636,0.12313651,0.013393392,0.043683417,-0.06351559,0.253751,-0.05081948,0.034953736,-0.04996118,0.033554416,-0.42856878,0.12102767,-0.041391417,0.014859524,-0.08382998,-0.15669473,0.541966,0.047806755,0.37317118,-0.18855311,0.109979205,0.15982348,0.046530936,0.28452247,0.053742982,0.18666972,0.15567142,0.10871416,0.29657945,-0.032819852,0.25386795,-0.27883083,-0.035545744,-0.20155078,-0.33604828,0.104486085,0.23908849,-0.4754042,0.014146469,0.11297396,0.091907814
had,0.05937029,-0.33872473,-0.22731543,-0.55646116,0.2469173,-0.5676549,-0.23464587,-0.06181804,0.5457017,0.08471948,-0.3560166,0.33765772,-0.20728494,-0.34936997,-0.0055528055,-0.64192474,0.19607463,-0.25424436,0.85834014,0.2846815,0.23434384,0.049449533,0.07449656,0.16721015,0.25351888,0.35234317,-0.107420854,0.47120956,-0.81408167,-0.1860295,0.40419394,-0.5045282,-0.33364624,-0.6584767,-0.03388632,-0.092973836,-0.1439536,0.15008195,-0.32324812,0.3249435,-0.57896906,0.012256085,-0.6130865,-0.13610564,-0.029081482,-0.15631446,-0.81956965,-0.09661981,0.080934,0.6645313,0.006388006,-0.09259061,-0.3610462,-0.12144387,0.68170595,0.28386584,-0.08146411,-0.6332743,-0.6952329,-0.5708816,-0.7772196,0.045704402,-0.32794717,-0.19282012,-0.45940065,0.22190419,-0.23654391,0.30979282,0.291114,-0.3489971,0.38929877,1.001725,0.43445137,-0.12923858,0.41572022,-0.24271919,-0.17815877,0.28929785,-0.14218351,0.24024439,-0.9196957,0.56090975,0.078571625,0.09002658,-0.0064995377,-0.09113032,0.02054136,0.66782886,-0.38556868,-0.47694722,0.14188531,0.31187743,0.16826788,-0.26009995,0.09379041,0.37605792,-0.15270123,-0.24059774,-0.6022938,0.08093443,-0.19290356,0.37920395,0.46897417,-0.22734106,-0.05830991,-0.46735942,0.3774543,0.35243216,-0.42407137,-0.20062275,0.22358748,-0.6060367,0.26809818,0.320868,0.08542422,0.03368126,0.038249824,0.38278702,-0.21927623,-0.2297318,-0.112180464,-0.39249828,-0.2932514,-0.33484262,0.4608252,-0.08971226,0.7403054,0.54250664,0.28428274,-0.3728942,-0.2936811,0.26155323,0.029173926,-0.44772375,-0.041142233,-0.15436348,0.15017968,-0.23506904,0.072068654,-0.5696961,0.016534084,0.024367215,0.23775853,0.07536703,0.18775979,-0.32559454,-0.24914573,-0.37880066,0.19062182,0.18100855,0.5631795,0.36267796,-0.04928055,0.115776576,-0.63911664,-0.116108604,0.49101272,0.2303718,0.10214808,-0.09730454,0.38590586,0.38970792,-0.32194346,0.14680001,-0.5452845,-0.34332442,-0.04835956,-0.0628613,-0.22251306,0.26500666,-0.07951598,-0.15467767,0.121478796,0.06375657,0.43514308,0.097407155,0.20824453,-0.1752035,-0.6491442,0.3069587,0.28038353,0.6721464,-0.59408367,-0.055493776,0.26995525,-0.068736,-0.3399486,0.2380429,-0.5075598,0.42958555,0.7572248,0.15887019,0.2873676,-0.011095213,-0.57584083,-0.02872192,-0.16400021,-0.414541,0.93302935,-0.12928922
but,-0.027550055,-0.27408522,-0.054353684,-0.064465486,0.25666592,0.041466407,0.052268226,0.21572693,0.10968927,0.076278485,-0.16986898,-0.12966207,-0.13399762,-0.09804109,0.047794648,-0.11856534,-0.182834,0.1482628,-0.0076694265,-0.11984286,0.11865904,-0.24725638,-0.12016537,0.012521248,-0.061615437,-0.13144575,0.113868594,-0.2824215,-0.11382236,0.04005233,0.23249532,-0.060488034,0.28675595,-0.17896256,-0.022692079,0.030570492,0.09931429,0.10063123,0.06719901,-0.07315752,0.014401488,-0.06929408,-0.053023722,0.17711413,0.10960937,0.0035456691,0.05344117,-0.10257453,0.06446771,0.13149084,0.005020004,-0.09297274,-0.112165846,-0.03527835,0.20990936,0.012949233,-0.08321609,-0.34893113,-0.2627692,-0.10705329,-0.3001985,0.04274998,0.07555846,-0.18561123,-0.2370354,-0.030446755,0.032046944,0.38871258,-0.21037635,0.35676497,-0.0210034,0.32524005,0.23127401,0.12818745,0.2526888,-0.072698936,0.32667202,-0.13029695,-0.26161176,-0.10385606,-0.21589893,-0.10153388,-0.22529365,-0.06681899,0.00089022506,-0.0655291,0.09271457,0.04393891,0.08663634,0.11110369,-0.08663843,0.10250103,0.29196098,0.18722974,0.08337212,-0.04054209,0.011226145,0.09631042,0.100473955,-0.15737134,-0.25814506,0.2540672,0.09292054,-0.22189796,-0.1735398,-0.36543557,-0.040271185,0.073492974,-0.08149054,-0.103213504,-0.025302282,-0.28878215,-0.17890333,-0.031105697,-0.024036318,-0.0020726325,0.23325995,-0.26158893,0.1543063,-0.26688308,0.0208819,-0.017459905,-0.03235944,-0.058371376,-0.022030102,0.11608225,-0.020582052,0.056219947,0.09421322,-0.154042,0.028185941,-0.1563802,0.056416687,-0.053715516,-0.09152118,0.06842286,-0.010590432,-0.09522508,-0.05704092,-0.2986946,0.046022173,-0.12409484,0.14124,-0.1890019,0.1539563,-0.18951514,-0.12464365,-0.018523838,0.088596255,0.08100769,0.08246451,0.19158435,0.11934532,0.12133422,-0.14051948,-0.12874207,-0.08925482,0.10958528,0.006271877,-0.016312523,0.08122739,0.095767304,0.056330122,0.02202201,0.033180553,-0.030128788,-0.1659408,0.07679458,0.121300586,-0.10238891,0.012871524,0.19570497,0.16013497,0.011612423,-0.0035828862,0.16766097,-0.13584146,0.24751484,0.023487668,0.12336441,-0.07146418,0.106083445,0.0442858,0.11916743,0.12977616,-0.004695154,0.096517645,-0.026717938,0.02880666,0.13117164,-0.13653412,-0.07347726,-0.03698001,-0.14948098,-0.036434773,-0.027787685,-0.13698666,-0.038562898,0.025650678,0.0868242
me,-0.3269688,-0.0994427,0.12610559,-0.12588462,0.104182474,-0.26209047,0.07132217,0.23714334,-0.20534232,0.036773145,-0.11262864,-0.22723335,0.022981388,0.24331842,-0.060880113,-0.051345035,-0.054949433,0.030640809,0.12711392,-0.14098813,0.019152768,-0.08455618,-0.0960766,-0.018133515,0.01847209,-0.4005936,-0.22779885,-0.0063434537,-0.29341614,-0.36101955,0.58031267,0.18911114,-0.08969886,0.30573317,0.12157576,0.020964077,0.082462,-0.042667758,0.3220233,-0.4508209,0.030389747,-0.10418581,-0.3737027,-0.019388773,0.1528489,-0.22155257,0.5944102,-0.23597129,0.15547211,0.23248094,0.16237946,-0.050400257,0.28022912,-0.19840121,0.29077905,0.36649555,0.00014149243,0.13584156,-0.16371852,-0.13640541,0.06078917,-0.098387316,0.01887962,-0.17989825,-0.6233927,0.39660063,-0.030736368,0.78186196,-0.36519834,0.8009881,0.51895297,-0.16973533,0.39025274,0.21094704,0.076359525,0.29268,-0.012740075,-0.2276424,-0.40139738,0.19801763,-0.031414513,-0.14734691,-0.13163249,0.5772955,-0.017390227,0.016142026,-0.05961498,0.25656748,0.0022584354,0.17915124,0.397884,0.004294194,0.18279503,0.15779266,0.0426793,0.07346176,-0.1463583,0.03711453,0.20934896,-0.3608489,-0.13179767,0.42622015,-0.23440637,-0.49339157,-0.08768367,0.026819296,-0.2587246,0.03538189,0.2698989,0.23761065,-0.009078473,0.20812817,0.18651251,-0.3129228,-0.018631991,-0.16749223,0.36395055,-0.56435144,0.013199072,-0.08898205,0.22393402,0.21442446,0.12905093,-0.12827037,-0.037195068,-0.20335296,-0.49518573,-0.28050917,-0.0792127,-0.11984749,-0.0756259,0.0704279,-0.012627956,-0.018758874,-0.02783798,0.27828333,-0.26200408,-0.099764265,-0.26444614,-0.00853179,-0.0008829213,-0.12785605,0.06286392,0.05225669,-0.42136347,0.011686923,-0.09214487,0.17420727,-0.12489259,0.29588398,0.035024863,-0.14733244,-0.45854703,0.17683515,0.03832965,0.1909331,0.0066167414,0.008643667,-0.3152726,-0.0762185,0.15946384,0.013692793,0.10346706,-0.15925223,0.037188567,0.1562819,0.41693917,-0.28351936,-0.16524638,0.03310115,0.07225483,0.22996522,-0.010691875,-0.16536438,-0.088977806,-0.19747256,-0.045213606,-0.03883425,-0.13057576,0.253883,-0.11711672,0.08926844,0.002106164,0.11832695,0.11301493,0.054050516,-0.048202235,0.3132519,-0.09660679,-0.29988456,-0.03847349,-0.07946381,-0.070893906,-0.35691896,-0.2011694,0.1970483,0.03695475,0.16342586,-0.16335876,-0.1824351
him,-0.21233608,-0.13872167,0.031481598,-0.17080583,0.05762359,-0.3867687,0.10530048,0.18402638,-0.16084725,-0.043769598,-0.066963464,0.03110275,0.026983261,0.14280029,-0.018890863,-0.31720272,0.073570095,-0.19033155,0.2498431,0.12985255,0.04749281,0.027091945,0.060053766,-0.013789005,0.23805173,-0.16838631,-0.29511923,0.12319313,-0.23653774,-0.3439952,0.5053415,0.012334749,-0.33489415,0.10165047,0.07613115,-0.09215028,-0.14301051,0.09952107,0.27194476,-0.24290538,-0.20601591,0.051902108,-0.4912198,-0.13793126,-0.1906389,-0.37354186,0.23982365,-0.1170658,0.0069855014,0.15575354,0.21559384,-0.2471738,0.20134446,-0.18800701,0.4500329,0.43225005,0.059650846,0.17457333,-0.13780199,-0.16786677,-0.078100696,-0.09218462,-0.057778236,-0.12802498,-0.48490542,0.42718858,-0.069915526,0.6472851,-0.25019747,0.51059633,0.4635336,0.029443204,0.45054945,0.1020342,0.08814311,0.2101635,-0.053115014,-0.0935388,-0.3774595,0.18209353,-0.086232424,0.12417949,-0.09370251,0.36524183,-0.0071025616,-0.084042326,-0.042541444,0.27641854,-0.12938713,0.04676975,0.34249014,-0.043896183,0.110935144,-0.054448582,-0.08155857,0.10313399,-0.25517187,0.031554203,0.15061994,-0.26484582,-0.03275906,0.2671495,-0.20582323,-0.37691462,0.03557695,-0.007919291,-0.24172458,-0.05432313,0.16590375,0.10721512,0.16500463,0.2663098,0.2042095,-0.17525922,0.059351265,-0.0048449044,0.17234951,-0.23623699,-0.0870724,-0.033331733,0.2534027,-0.06424181,0.1703378,-0.2148281,0.030062938,-0.023475781,-0.38709864,-0.15996182,-0.0055233757,-0.09194482,-0.30623135,0.20565392,-0.043002557,-0.07194162,-0.11200691,0.30274066,-0.20896801,-0.14768524,-0.29988006,-0.007107129,0.05894523,-0.10314262,0.05741142,0.07751727,-0.22848666,-0.17511667,-0.03849148,0.0025191708,0.008473866,0.31670982,0.17798816,-0.0534442,-0.45480317,0.22150853,-0.20688604,0.15291397,0.3818515,0.26660195,-0.18041565,-0.17265575,0.36930332,0.14069615,0.024049086,-0.1369875,-0.08830855,0.2690896,0.58198017,-0.2440103,-0.14596398,0.13870394,0.06374813,0.20241076,0.008786496,-0.1836676,0.00842022,0.098317266,-0.034923267,-0.042265523,-0.29922166,0.1800853,-0.23195714,0.26832774,0.027906377,0.21505961,0.23717672,0.19195856,0.005169266,0.47401434,0.14968778,-0.20088358,0.14963058,0.03696391,-0.25658157,-0.18143632,-0.40126723,0.2956616,0.15308222,0.115142904,-0.010891478,-0.026301345
be,0.37009946,0.027900083,0.1445526,0.041154243,0.55375355,-0.24177544,-0.059843898,0.03146322,-0.06995349,-0.20189326,-0.35378253,-0.516986,-0.03067273,-0.18190137,0.3592054,0.22557728,-0.3898476,0.20561658,-0.05854062,-0.63353574,0.35064536,-0.44657853,-0.15208945,-0.054370265,-0.5006731,-0.13905041,-0.026267696,-0.2093853,-0.6641929,-0.4944252,0.5889434,-0.035857964,0.4909409,0.32761708,0.16222899,0.07261343,0.33588287,0.36901882,-0.2564101,0.019304471,0.19721012,0.42783517,-0.30453962,-0.38588765,0.040962312,-0.038614612,0.20339254,-0.2546726,-0.156368,0.6400175,0.12696025,-0.29872596,-0.0022583755,-0.36914766,0.8936784,0.05466269,-0.14275452,-0.22450559,-0.3976438,-0.34493977,-0.5003665,0.1615429,0.30160913,-0.4100554,-0.2676637,-0.33350372,-0.25380442,0.49709973,-0.50806844,0.53537023,-0.19081376,-0.12788413,-0.16277622,0.43433538,0.39974564,0.15829784,0.34340382,-0.35456803,-0.6050161,0.05553892,-0.07483468,-0.23027213,-0.3303484,0.37177533,-0.43332243,0.36774227,0.15809496,0.06056475,0.05611822,0.10766786,0.2541903,0.062264092,0.15753238,0.42178506,0.010266556,0.5259281,-0.628758,0.22295043,-0.12296499,-0.6559485,-0.30426317,0.32673535,0.13903,-0.42950222,-0.33330882,-0.32811874,-0.28813174,0.4207375,0.02479985,0.01732879,-0.11589745,-0.5174418,-0.20588803,0.106041245,-0.060234,-0.50446177,0.28129888,-0.65655506,0.12188969,-0.052909095,0.17179725,0.024019169,0.119377404,-0.46055883,0.48628646,0.27473244,-0.6027981,0.15331428,0.26091716,-0.49863106,-0.26114908,0.1650065,0.029094,0.066863954,0.2610046,-0.13729782,-0.12234892,-0.59634495,-0.61649567,-0.42012045,-0.18184423,-0.20192347,0.31608027,-0.027752941,0.21914457,-0.13771711,-0.27632862,-0.15656082,-0.28649947,0.71780705,0.24572685,0.3341576,-0.2334808,0.3495422,-0.17254646,-0.17711355,-0.11032953,-0.06470034,0.11414519,-0.17555474,0.035393436,0.13403782,0.045934536,-0.088475764,0.25228477,0.22031319,-0.082293324,0.23402558,0.20470709,-0.10855828,0.06954652,0.13125113,0.0980044,-0.31874147,0.15999606,0.23443033,-0.07517441,-0.026071517,-0.0079070395,0.5210828,0.19053431,0.53898096,-0.21891424,-0.22875696,0.539721,-0.074480884,0.2838072,-0.013831842,-0.54010314,0.2503571,-0.23033103,-0.45983058,-0.19635853,-0.36780638,0.20545462,0.26340204,-0.45919216,0.27458626,-0.2585532,-0.06614458
she,-0.1457902,-0.39359555,0.13244332,-0.27158812,0.30215892,-0.26838356,0.019831,0.1922199,0.19766405,0.16691941,0.15490724,-0.08325848,-0.27907547,-0.061875485,-0.081679255,-0.47790673,-0.10762499,-0.23706686,0.15110219,0.23716046,0.3298925,0.13325457,-0.05411601,0.547727,0.4429008,-0.01345375,-0.03652038,-0.0064107296,-0.038011685,-0.1207068,0.28176752,0.03936083,0.28259856,-0.43408167,-0.06848135,-0.18526302,-0.2811618,0.22037627,0.12563775,-0.31591308,-0.037367813,0.06958482,-0.2676949,-0.03804305,-0.56436,-0.6310245,0.12637341,-0.25767314,-0.02517895,0.374466,-0.038457237,-0.48534724,-0.1438765,-0.2622005,0.7309941,0.21073295,0.0033115363,-0.097190805,-0.03213342,-0.07027683,-0.6521437,-0.7148753,0.2761115,-0.22234088,-0.6078029,0.17969637,-0.052031957,0.450642,-0.39400944,0.3649121,-0.050224517,0.45517948,0.44384307,0.28716385,0.087322235,-0.13331538,0.06465867,-0.33002073,-0.3444894,0.26982602,-0.23786516,0.32034776,-0.2776144,-0.026468942,-0.22192831,-0.30993912,0.33238316,0.12559088,-0.09905673,0.24658975,-0.181158,-0.2853272,0.10639436,-0.17082055,0.0445924,-0.04074778,0.19533901,0.53209615,0.151282,-0.07262788,-0.38374582,-0.00049105985,-0.07268084,-0.30768287,-0.18016541,-0.6107425,-0.52847815,0.29815733,-0.24858029,-0.32208216,0.34201908,0.47187412,-0.4227383,0.2784797,0.24068657,0.54812825,0.3808472,-0.067118004,0.048979852,-0.26072037,0.32025483,-0.5069312,0.35499215,-0.30782554,0.6477713,0.097771555,-0.30726877,0.08729682,0.19618584,0.067863666,-0.3189042,-0.062268086,0.08826632,-0.11946884,0.089842506,0.10309569,-0.14614864,0.2381342,0.08472927,-0.27679682,-0.11582639,0.13525377,0.102384485,-0.12716419,0.17473833,-0.80095893,-0.16243875,-0.20698147,0.45728585,0.20091358,0.3589162,0.66358155,-0.51292944,0.58646774,-0.31542018,0.13196486,0.64382917,0.3937305,0.32710174,-0.30893055,0.59403396,0.50806224,-0.028511427,0.27363586,-0.25984883,0.23359092,0.35265014,-0.29871297,0.6286641,0.09580255,0.145632,-0.048356984,-0.20689903,0.03861249,0.10572087,0.21169615,-0.24887453,0.39677024,-0.17481612,0.32543918,-0.1738263,0.18751861,-0.0039316597,0.3331142,0.03128456,0.35543734,0.14341983,0.44019237,0.38644415,0.20095557,0.014435957,-0.11586991,0.19618572,-0.3674965,-0.21298055,-0.010145441,0.03956072,-0.11441716,0.21024077,0.19170828
on,0.2996539,0.082580775,-0.17282099,0.17361608,-0.00971808,0.19108877,0.25740978,0.16443829,0.04323459,0.22559817,0.012885093,-0.04623528,-0.13059062,0.11634996,-0.20120847,-0.014406074,0.4458637,0.23822236,0.025586322,-0.25081572,0.15516655,0.15501812,0.37848163,0.39892974,0.27742034,0.2626859,-0.0321552,-0.05406617,-0.04946335,-0.032803837,-0.10232206,-0.050162345,0.18687713,-0.46583322,-0.11181204,-0.01344953,-0.1354491,-0.0729392,-0.048572637,-0.0801263,-0.21250829,-0.22384214,0.11786568,0.18800543,-0.06925508,-0.064622015,-0.47732565,-0.2581993,-0.13276277,-0.24256465,-0.06718814,-0.022494206,-0.3616945,-0.049222816,-0.20866194,-0.263519,0.011749552,-0.45638147,0.20156974,-0.15856989,-0.1610383,0.008228469,0.1636023,0.105601415,0.054417398,0.17183053,0.07721917,-0.25102735,0.08621198,-0.18738493,-0.20368354,0.30082238,0.20093831,0.013799711,0.13979472,-0.15122882,0.22444887,0.13015084,0.03573133,-0.3519843,-0.3033194,-0.09384321,-0.13803758,-0.13311586,-0.24753039,-0.1585706,0.34235594,-0.19266856,-0.17643538,0.103650376,-0.24404629,-0.13258068,0.20640986,-0.035600126,0.28387153,-0.06554971,0.35106945,0.1395104,-0.05810829,0.08906276,-0.058718704,-0.15798168,0.18488307,0.37075388,-0.11218815,-0.45038426,0.2195947,0.10329371,-0.40901905,-0.5164619,0.08239521,-0.0665702,-0.02991753,0.14720106,0.18060103,0.04469005,-0.073258065,0.09716926,-0.08244734,-0.06886293,-0.3019615,-0.0532629,0.18474253,-0.13823853,-0.20459782,0.3842801,0.18085507,0.09955873,-0.121481255,0.32107702,-0.20782815,-0.11292189,0.059999302,-0.08614222,-0.23438804,0.59689087,0.32377765,-0.12748538,-0.02220518,-0.017121162,0.4566033,-0.17394163,0.038226865,-0.014601161,0.6673248,0.25268152,-0.2310867,-0.15933967,0.1715317,-0.3389794,-0.036532857,0.35066804,0.20724049,0.10268228,-0.6132423,0.22038771,0.40553567,0.4067085,0.36915377,0.07079982,0.7018157,0.09561107,-0.13328062,0.15499905,0.100489095,0.35615608,-0.08525018,0.25069195,-0.15925215,-0.02976623,-0.089959994,0.11544065,0.21314031,0.24335323,0.089774296,0.71610206,-0.25625688,0.0049277293,-0.026386943,-0.21367337,-0.17074975,-0.16822147,-0.058588985,0.21129797,-0.119521454,-0.12996578,0.2657105,-0.010027003,0.3729676,0.15354373,0.24587442,0.13829097,-0.24144332,0.13808838,-0.05133222,0.1497716,0.08682214,-0.00966567,0.21591873,0.06657719
at,-0.16597116,-0.16275792,0.17213804,-0.032306295,-0.018243814,0.18383849,0.33309573,-0.15608518,0.29026046,0.14372966,-0.028313627,0.11680175,-0.27697656,-0.44632208,0.0044440078,0.12163123,0.05379396,-0.053832665,-0.086968586,0.072312385,0.15008649,0.39528805,0.6148018,0.27708057,0.19358444,0.14434679,0.30703643,-0.16227126,-0.10759322,-0.06523683,-0.33990157,-0.12868416,0.4650631,-0.62544274,0.1127012,-0.0044125696,-0.2900296,-0.1089053,-0.09156566,0.25013426,-0.11998529,0.18505388,-0.022863274,0.154835,0.18362112,-0.123277634,-0.3368518,-0.16316503,-0.03781589,-0.25868115,0.17738134,-0.2613846,-0.54984045,0.19000632,-0.29913506,-0.022688836,-0.055106472,-0.65221614,0.05437217,-0.22232617,-0.5633454,0.27164584,0.06028194,0.04652065,-0.06565378,0.26665798,-0.29661256,0.11979717,-0.11670623,-0.23322657,-0.33504412,0.63702226,0.35869336,0.14586687,0.49936005,-0.4199251,0.40112364,-0.18436205,-0.18885349,-0.15299715,-0.35444674,-0.09167917,0.06375943,-0.18125193,-0.4000215,-0.23824427,0.1841018,-0.011274396,-0.16268517,-0.016599087,-0.13340166,-0.08553139,0.24192066,-0.13622418,0.24831083,0.000618656,0.34452876,0.357188,-0.36841613,0.3163817,-0.27913123,-0.054385573,0.1610206,0.41976455,-0.28428876,-1.0006564,0.19692087,0.314461,-0.48782095,-0.6221164,0.116367094,-0.24221995,-0.05420539,0.3782285,0.2897567,-0.18815453,-0.18124418,0.22307494,0.22761017,-0.2087607,-0.120927416,-0.361312,0.17820613,-0.42166382,-0.08220987,0.5611702,0.18514164,-0.050202936,0.055477697,0.24536122,-0.18216124,0.0052468823,0.0476658,0.05222132,-0.20422065,0.16608097,0.30114657,0.20481965,-0.022625338,-0.28518677,0.689865,-0.018651262,0.043670468,0.15699998,0.3960732,-0.13901477,-0.077629894,-0.295981,0.37775156,-0.4714917,-0.11194429,0.2809835,0.36084446,0.0061145816,-0.39880687,-0.2843712,0.4062371,0.118315026,0.31172845,0.3943406,0.8008019,0.3867278,0.266608,0.28499588,0.16810305,0.2929513,-0.21553676,-0.0034002864,-0.20839962,0.040045477,-0.21768202,0.1327874,0.09170092,-0.041293193,0.3997335,0.58415717,-0.4049262,-0.037309784,0.02822437,-0.3795607,0.053948265,0.03194802,-0.32849252,-0.19417891,-0.11629078,-0.36990583,0.12491225,0.19188274,0.7294052,0.25249162,0.30838516,0.28049505,-0.24765363,-0.2816852,0.00378234,-0.19733241,-0.025564076,0.026955122,0.5397626,-0.059077583
have,0.3635613,-0.2751987,0.027555598,-0.61310136,0.44924295,-0.7188458,-0.30488312,-0.16692092,0.2396187,-0.00035172168,-0.76711917,0.047846194,-0.5974124,-0.4782982,0.3723893,-0.20488974,-0.1931612,-0.22450213,0.6570767,-0.13800418,0.5518502,-0.24770333,-0.13809761,-0.048505776,-0.4022194,0.3738814,-0.28405008,0.24392824,-0.82026696,-0.16865043,0.93862206,-0.18986367,-0.060904924,-0.20324096,0.22953844,0.05188594,0.03907679,-0.018635808,-0.56714803,0.22958958,-0.15369338,0.40136126,-0.5247462,-0.12307099,0.156,0.21531041,-0.22328146,-0.43740988,-0.04567429,0.53159577,0.071255215,0.0131009305,0.17277294,-0.2117912,1.0815915,0.03610682,-0.05532777,-0.40474,-0.7668002,-0.20203601,-0.5718136,0.14551301,-0.0032806036,-0.47595355,-0.55707407,-0.3794393,-0.16671783,0.33529082,-0.24591394,0.22493225,-0.15645929,0.32985294,0.18593621,-0.046743672,0.36929452,-0.107764274,-0.0046500503,0.13755873,-0.7112319,0.23217463,-0.7630853,0.39226198,-0.026711417,0.67092395,-0.5242314,0.3898167,0.22183195,0.5832573,-0.37529317,-0.3862674,0.5983046,0.06737415,0.14706475,-0.1504092,-0.08636761,0.5517113,-0.7373024,-0.28430673,-0.47978738,-0.1033867,-0.6589729,0.50611806,0.354321,-0.955079,-0.37441006,-0.80021954,0.007709986,0.40107366,0.002008946,-0.15622741,-0.08285129,-1.029068,-0.28588858,0.1307343,0.13333693,-0.43317953,0.207819,-0.09525492,0.11708656,-0.17327087,0.064128056,-0.093062304,-0.36643922,-0.14514232,0.56075925,-0.18438548,0.37824115,0.565154,0.50418407,-0.6738828,-0.29220486,0.2739531,-0.3577972,0.1392503,0.35407096,-0.05167424,0.07653477,-0.435283,-0.20658194,-0.8548029,-0.14377227,-0.42399985,0.43357155,0.08270478,0.052777916,-0.28255564,-0.47533417,-0.12614562,-0.05292421,0.48338112,0.31577748,0.12837301,0.16607735,0.11893178,-0.114595585,0.076962955,0.369027,-0.24475546,-0.06359641,-0.027342826,-0.05628668,0.023765393,-0.030865619,-0.044030774,-0.090368144,-0.21083438,-0.3024311,0.18393768,0.20001845,0.044545252,0.06563676,-0.26331908,0.09960482,-0.17047645,0.16132899,0.090047844,0.39389354,-0.4718004,-0.13031039,0.44791278,0.57338864,0.66116685,-0.47202146,-0.17985208,0.66330534,-0.13476467,-0.3547325,0.07722572,-0.7471849,0.71114314,0.18843685,-0.16873117,-0.02176651,-0.3759374,0.20493619,0.3339247,-0.13491721,-0.34500095,0.52949667,-0.28591686
said,-0.24510512,-0.07214317,-0.47411817,0.09611575,0.5680599,0.3159141,-0.14501385,0.4762615,0.15569523,-0.16587436,-0.03063433,-0.02344186,0.27938548,-0.06664063,0.0555922,-0.38167414,0.04145405,0.28392842,-0.034063533,0.097324535,-0.09164958,-0.4600973,-0.04311053,-0.12198168,-0.051059578,-0.57771194,0.03131872,-0.37442806,-0.027171282,0.41511834,0.0888126,-0.28789282,0.022601988,-0.21363491,-0.18931021,-0.4642224,0.037225213,0.017069392,0.3702806,-0.11043093,0.05035677,-0.23549983,0.35200414,0.3988895,0.4205428,0.105235286,0.02913417,0.17018375,0.3818316,0.2983824,0.19417435,0.061032042,-0.061335698,-0.13626486,-0.29904294,0.1329159,-0.23185755,-0.36057422,-0.60094357,-0.37556624,0.041433714,0.37629357,-0.14869377,0.15866503,-0.40615675,0.2467341,-0.05970387,0.709925,-0.08282358,0.084740885,0.42188624,-0.023167549,0.91219884,-0.24977523,0.13554542,-0.17592964,0.015068723,0.4642959,-0.32513487,0.04244012,-0.37122124,-0.46837047,-0.45716208,0.3094402,0.25492692,-0.19023982,0.16827463,0.13885082,0.31297365,0.15439188,0.3557073,0.26068828,0.330434,0.2737856,0.19121172,-0.20288049,0.29743403,-0.026172021,0.1669462,-0.23380855,-0.107664876,0.4569207,0.45513824,-0.30239853,-0.6867767,-0.010457892,0.6627152,-0.23447677,-0.055331185,-0.15985891,-0.38415545,-0.5500984,0.100460894,-0.5444022,0.013645998,-0.1321297,0.52726716,-0.74071145,-0.11370596,-0.6548469,-0.314794,0.51449,-0.19190435,0.3230041,-0.3432061,-0.20357263,-0.1819707,-0.3607835,-0.26521242,-0.10721147,0.024216047,-0.17022036,-0.050621238,-0.4890035,-0.46224937,0.100492135,-0.28381044,-0.11804596,0.013785419,-0.54947805,-0.10848177,-0.08048597,0.1481454,-0.016268522,-0.15285747,0.05197702,-0.43162015,0.019600336,-0.26961067,0.32779598,-0.48035634,-0.094291046,0.044497278,-0.37888113,0.27148208,1.2064635e-05,-0.44997972,-0.14492609,-0.5490468,0.20708393,-0.24488291,-0.03165875,0.08316815,-0.028300192,-0.12653096,-0.6038752,-0.35582015,0.019397862,-0.4894757,-0.1344175,-0.014124267,0.52734655,0.1464582,-0.21099414,-0.16992761,-0.44200954,-0.119837664,0.35375333,0.2511622,-0.037224676,0.05496559,0.17462744,-0.016623143,0.4252468,-0.44950724,-0.008630022,-0.24667574,0.31870693,0.10951016,0.012741024,0.24397634,-0.09010263,0.037148934,-0.106098965,-0.22614294,-0.07893771,0.030210556,-0.2039885,-0.00319551,-0.40464458
this,-0.02718684,-0.16093892,0.10094021,0.008137809,-0.05675848,-0.16885263,0.033203,0.119950995,-0.10438006,-0.32558417,0.015152536,-0.1485703,0.014852949,-0.058764875,0.10895065,0.36953908,-0.32227442,0.08104945,0.060526475,-0.36316866,0.24428397,0.027732661,0.013615881,-0.037671313,-0.23828474,0.051039834,0.066674195,-0.05143584,0.007263281,0.14002448,-0.11151915,-0.020450812,0.26305,-0.05180094,0.13093837,0.10647875,-0.075743645,0.13316296,-0.07498555,0.03462647,0.2262989,-0.046576798,-0.29269254,0.29533178,-0.23097478,0.063041784,0.047533765,0.06333672,0.08056439,0.14674442,-0.03450465,0.04932778,-0.16865179,-0.19648081,0.21102375,0.14704566,-0.14929079,-0.2059925,0.002639419,0.2160195,-0.16738868,-0.10538601,-0.07289961,-0.24303328,-0.15615492,0.15507832,-0.17350215,0.45292783,-0.19798963,0.40112564,0.07780988,0.3858025,0.10539762,0.039088983,0.39425427,0.13533327,0.3362509,-0.2375261,-0.18071733,-0.08678386,-0.07481208,0.12862656,-0.009247337,0.11405423,-0.09261165,0.1913346,0.14984015,0.22511019,-0.09604846,-0.11165679,0.1706264,0.08771948,-0.025284193,0.20187216,0.013849985,0.17514782,-0.08321889,0.042010766,0.19384827,0.2928093,-0.04329096,0.24525753,0.17412162,-0.11840966,-0.16940404,-0.2500411,0.16806127,0.2962971,0.054596473,0.06445152,-0.024522973,-0.30936584,-0.14036676,0.004576454,-0.13701504,-0.01557255,0.24122466,-0.39538777,-0.05037449,-0.34264547,0.14648463,0.11426,0.017634971,-0.3345339,0.075574495,0.1604287,-0.31976104,-0.09928047,0.0020267933,0.19924372,0.28345165,-0.10436515,-0.11283067,-0.30591026,0.12617153,0.1537537,0.13570876,0.34027845,-0.028403817,-0.12814845,0.17159103,-0.2793426,-0.0659064,0.11338971,-0.20772688,-0.04545457,0.08998605,0.22555718,-0.011118613,0.33831173,0.17906101,-0.08484998,0.23747501,0.09293872,-0.1164343,0.16082802,0.1565949,0.20879906,0.16025922,0.028992096,-0.319944,0.1178017,0.1705582,0.0817735,0.029463751,-0.04970174,0.15899071,0.08505757,0.119858064,0.09379647,-0.027171602,0.34014213,0.18478309,0.1371554,-0.041617442,0.11796874,-0.258096,0.4164829,-0.27086467,0.08769159,-0.42390174,0.31322196,0.3078398,-0.1735358,0.27500638,-0.09556699,-0.17983739,0.031754833,0.15342732,-0.06517698,0.21865584,0.08868558,0.053176183,-0.38089,-0.16529697,0.0064154784,0.01109501,-0.033908892,-0.16489545,0.076146826
all,-0.05183106,-0.004598532,0.08967829,-0.024786351,-0.013925367,-0.30178586,0.19928022,0.19561376,-0.049258463,0.097562686,-0.21152742,-0.26465303,-0.1990975,0.19237849,-0.06836759,0.2715916,-0.12520023,0.17328428,-0.15796494,-0.4142317,0.15766458,0.07164021,-0.03002935,0.055872545,-0.16271096,0.20985423,-0.08906153,0.029304227,-0.037006844,0.04931093,0.250462,0.16764462,0.25474373,0.02594294,-0.1425123,0.19948417,0.08158194,-0.20231931,-0.10201181,-0.19828542,0.02397611,-0.22267294,-0.17161408,0.060235206,0.2597293,0.14464624,0.16923898,-0.29263467,0.04284991,0.037808426,0.030457472,0.15512922,0.13705292,-0.0455731,-0.09804677,-0.054462925,-0.129152,-0.15245871,0.060105547,0.19775085,-0.07280094,0.015397091,-0.009775077,-0.17452519,-0.014786247,0.023164136,0.043935772,-0.023520192,-0.027074125,0.35856783,-0.18267767,-0.003688389,-0.20259733,-0.015302255,-0.15055975,0.101461604,0.08370446,-0.2277636,0.07776917,-0.3283527,-0.08197784,-0.14556621,-0.085734025,0.25418398,-0.06620564,0.23436657,0.24175684,0.026052859,0.038895205,0.10925882,0.11612432,-0.121514834,0.06238051,0.18428938,0.2533678,0.20787638,0.04234753,-0.12667471,0.07621221,0.1641493,-0.1262912,0.1436509,0.004808682,-0.1768304,-0.08501497,-0.22952525,0.102005236,0.21252935,-0.0036131523,-0.042065147,-0.040392544,-0.12103237,-0.096817106,-0.09013994,-0.041269585,-0.1902383,0.097929165,-0.4394604,-0.03315868,-0.35113963,0.124978825,0.05737366,-0.03488457,-0.2904671,-0.12402142,0.1380702,0.13647385,-0.115480155,-0.057564214,-0.04688725,-0.07276228,0.096858196,-0.035889782,0.039958373,0.031413756,0.26255035,0.08137024,-0.006546759,0.07900217,-0.024392584,0.43551493,-0.31886527,0.06497524,-0.1650392,0.19087896,0.11627017,-0.049730223,0.10166677,0.025885988,0.0463404,-0.103365056,0.04899649,0.18038003,0.32412112,-0.348063,0.30720425,0.016538713,0.24181911,-0.03811082,0.14411803,0.3406731,0.09252419,-0.075291924,0.012131623,0.25515497,0.2735179,0.36940533,-0.060352083,0.034379885,0.045399427,-0.11099763,0.04070292,0.084493674,0.11728748,0.023714064,0.38956416,-0.15317865,0.019533498,-0.008893109,0.12650177,-0.09461332,0.031361226,0.14937101,-0.13741013,0.016303426,-0.17716722,0.22341959,0.045485046,0.19874537,-0.09516935,0.17398652,0.1125786,-0.1903185,-0.32594892,-0.034461003,0.302647,0.10082571,-0.11616433,-0.18094555,0.15172914
we,-0.5726502,-0.07244708,0.2343865,-0.05018651,0.2969189,-0.4927047,0.3319121,0.2038233,-0.3800025,0.07121557,-0.22892748,-0.51845384,-0.48282266,-0.1563018,-0.33261353,0.15199892,-0.23123847,0.09139162,-0.48670644,-0.003410934,0.19299084,0.12441715,-0.017611274,0.079243094,0.12306958,0.08862938,-0.16905066,-0.1279637,-0.42428702,-0.10496903,0.42647102,0.41879502,0.49890742,0.33153117,-0.1379548,-0.14730547,-0.26851925,0.119359314,-0.07771104,-0.3069132,-0.28725716,0.14055961,-0.08544103,-0.33782738,0.006275445,-0.38523024,0.59877926,-0.55468935,-0.24885772,0.1568716,0.15776436,0.11971727,0.21469618,-0.2934615,0.0073945904,0.11405974,0.14517568,0.25009826,0.37831935,0.07885969,-0.23235194,-0.3889608,0.065096356,-0.56464505,-0.1946168,-0.1024267,-0.0713325,0.23925653,-0.060733072,0.7067179,-0.60339195,-0.41783893,-0.0064482684,0.29679757,-0.11525361,-0.3427637,-0.23432687,-0.35328707,-0.13024783,-0.5401528,0.008241388,-0.393166,-0.30148417,0.48508,-0.50062966,-0.029499572,0.28461072,-0.19022125,-0.2305507,0.40150025,0.119500354,-0.7547785,0.16275996,-0.06934483,0.44610208,0.44824907,0.64336264,0.24443075,0.12806746,-0.35087895,-0.76515347,0.02804414,-0.08341362,-0.18893386,-0.39883536,-0.963811,-0.16506301,0.7354278,-0.00067845715,-0.46869424,0.018676942,-0.06976028,-0.11052568,0.1302239,-0.25801542,-0.039787997,0.24148345,-0.84745306,0.08131572,-0.6714882,0.1171699,-0.13753328,-0.011416796,-0.38312173,0.54421663,0.2592977,-0.60195905,-0.08522844,0.012959822,-0.35602826,-0.56425613,0.025795233,-0.25020996,0.5513074,0.03674534,0.79530036,0.102975756,-0.12188753,0.30238378,-0.43977934,0.11886779,-0.15485087,-0.051810183,-0.52447027,0.056181252,-0.41831937,-0.37624395,0.021300733,0.08518243,0.4023364,-0.07236387,0.47806758,-0.46252662,0.55885434,-0.16721188,-0.062134035,0.35438135,0.2523305,-0.061034385,-0.059185475,1.1349745,0.5060094,0.40913,-0.08678744,-0.057092603,0.33819312,0.5045207,-0.54983634,0.31510186,0.041259225,0.029269798,-0.2344106,-0.0285684,-0.21885423,0.32390258,0.64834833,-0.4683513,-0.08240642,0.114964716,0.3485865,0.23689422,0.04685891,-0.1080971,-0.0938336,-0.14012787,-0.24697013,0.101196826,0.45378032,0.22730272,-0.19603945,-0.2004621,0.21579957,0.49207926,-0.22513938,-0.054532386,0.17544325,-0.25967708,0.34038204,-0.07714731,0.06536918
so,-0.18948823,-0.20088108,-0.06199006,-0.23060034,0.40341923,-0.13954188,-0.2145161,0.04690578,0.14388593,-0.041019794,0.10815869,-0.12984909,-0.13322446,-0.13805845,0.09730574,-0.09158523,-0.12842482,-0.23815002,0.33220902,-0.23833643,0.04291155,-0.059074536,-0.23645362,0.095973946,-0.21250992,0.035062257,-0.005623501,-0.079436846,-0.021573862,0.08277505,0.4136021,-0.043721527,0.3316387,-0.22937618,0.08142935,-0.096773684,-0.06739753,-0.20483103,-0.09436137,-0.24652117,0.06371339,-0.1748458,-0.029262757,0.0029101418,0.33358434,0.011751127,0.22497608,-0.274023,-0.072385766,0.3593093,-0.14377187,-0.13445978,-0.011733295,0.027588831,0.35994712,-0.00824024,-0.30915368,-0.27459317,-0.4501285,-0.0071027977,-0.42901456,-0.09523915,0.25148287,-0.06383081,-0.69798493,0.17813002,-0.10275344,0.5832549,-0.06022669,0.5769302,-0.032032486,0.3108393,0.27070355,0.019111915,0.019977028,-0.012922892,0.05917599,-0.066894494,-0.12124076,-0.054448504,-0.15044165,0.113454826,-0.36321956,0.26673022,-0.08275305,0.032575443,0.30909693,0.2913933,0.18173382,0.2948634,-0.12412598,-0.1052479,0.202316,0.1752761,0.105138786,0.15820184,0.19322626,0.08377662,0.19959398,-0.07816542,-0.24646847,-0.024835788,-0.081834294,-0.28009608,-0.33007425,-0.29607257,-0.059868157,0.18622449,-0.26263866,0.019503474,-0.045292098,0.020990584,-0.2475398,0.065732576,0.030825408,0.17823894,0.22437485,-0.4225442,0.052617818,-0.39803746,-0.05980069,0.02567872,-0.18633084,-0.087276064,0.30851486,0.015737647,0.18022507,-0.099117264,0.12822664,-0.05174006,-0.08596822,0.00632493,-0.026997983,0.016700115,0.17601469,0.11179315,-0.10635388,0.060727037,0.16048592,-0.56071365,0.12258096,-0.13102168,-0.052191984,0.09466689,0.15554085,-0.29763082,-0.41905776,0.1270274,0.06921065,-0.052301295,0.03679402,0.39479354,-0.02129791,0.20639639,-0.084205605,0.07363659,0.05633865,0.020119872,-0.16775975,0.029878782,-0.04111247,0.19264127,-0.0565109,0.29833663,0.03869767,-0.051312994,-0.004420306,0.013854203,0.2515294,-0.05455124,0.1925598,-0.21742503,-0.36056507,0.11012796,0.04440281,-0.2675769,0.014096652,0.19269527,0.054789614,0.18313214,0.36450583,-0.02281862,0.083869085,-0.10489945,-0.10022057,0.2263852,0.02167297,0.12103379,0.16775991,0.23630789,0.08253923,-0.06418803,0.08315729,-0.2606088,-0.05509352,-0.091145545,-0.14454988,-0.35509178,0.28285858,6.260837e-05
which,0.33737388,-0.16363713,-0.04598047,-0.20315772,0.38222343,-0.044109482,-0.004617304,0.16087164,0.054430798,-0.05287406,-0.26387373,-0.04551354,0.006789744,0.21066034,0.009264047,0.07913496,0.1004142,0.3421196,0.5045493,-0.38706166,0.39290428,0.11108794,0.035238974,0.049857702,-0.20767708,0.15388583,0.007345333,0.1608305,-0.049893007,-0.17518984,0.31299636,-0.016898446,0.06362673,-0.1747922,0.060604494,0.20041832,-0.14332081,-0.075822644,0.02413649,-0.063016824,0.19203714,-0.0043846965,-0.18583877,0.04573682,-0.29829213,0.29151493,-0.25269634,-0.03503016,-0.23935454,0.18177257,-0.004308688,-0.17481194,0.085059464,-0.21174991,0.23680201,0.16632797,-0.3760855,-0.34750924,-0.22555079,-0.06630269,-0.23651282,0.11017267,0.19730945,0.009586222,-0.020705793,-0.13231778,-0.19030926,0.038566727,-0.09578647,0.15814508,0.042346414,0.3078799,-0.3374969,-0.025752507,0.15061383,0.10623861,0.12808636,0.051454164,0.03952191,0.075854786,-0.22808577,0.30660617,-0.2604006,0.031759683,-0.09147174,0.17356372,0.34433925,-0.06081034,0.27602896,0.039292414,0.12204981,-0.018026168,-0.0074924636,0.0044683907,-0.2079078,0.34774384,-0.33082256,-0.2553593,0.12579654,-0.024903622,0.11470156,0.027725548,0.11643974,-0.09142465,-0.03322834,0.0381024,-0.033740655,-0.04929776,-0.20814326,0.027056646,-0.1343615,-0.22051397,-0.25200108,0.22797748,0.009025649,-0.02917464,0.14212495,-0.16897155,-0.14069787,-0.08618927,0.2697407,0.04597308,0.0033940666,-0.41894776,-0.07901228,0.24000786,0.072665006,0.010807631,0.14725475,0.031026926,-0.15881187,0.13430774,-0.12024314,-0.1496652,0.085595995,0.014686371,0.057869557,0.12581496,-0.18504542,-0.17306212,0.34983775,-0.28458777,0.21561341,0.32455188,0.5720439,0.20838238,-0.2885983,-0.025113776,-0.006621995,0.32397556,0.13098554,0.42663407,0.28650558,0.1086506,-0.5593464,0.3831642,0.45173576,0.42576906,0.053941026,0.11372666,-0.118611544,-0.0677305,-0.08162955,0.004121209,0.19172591,0.042609178,0.23861608,0.39213726,0.11096903,-0.12754895,-0.009807377,0.1752617,0.18611273,0.24995314,0.021245189,0.54020005,-0.009045855,0.2239829,-0.30029717,-0.051543493,-0.4027344,0.5418005,0.44860893,-0.20921814,0.20815471,0.06051414,0.3314231,0.19116381,0.33603022,0.12767811,0.54470944,0.010445235,-0.4335992,-0.1546548,-0.25016305,0.4383306,-0.02545458,-0.10488226,0.050874256,0.13657954
by,0.2497439,-0.04945074,-0.17187221,-0.0113005955,0.052979626,-0.028172903,0.13285606,0.029805088,0.058477283,0.0843829,-0.09955618,0.04506738,-0.1660711,0.12371231,-0.055715017,-0.061386086,0.21862902,0.12617657,0.4794763,-0.24978404,0.2492814,-0.016345985,0.15915164,0.2031931,0.0342032,0.3549498,0.049320523,-0.019342804,-0.108140826,-0.12627682,0.16639504,0.011743677,0.04599401,-0.3152594,0.10520598,0.17791998,-0.06908637,-0.0468364,-0.19667521,0.06814252,-0.06537894,-0.18108511,-0.030715346,0.17197384,-0.057366632,0.198854,-0.3730124,-0.14795654,-0.02504261,-0.14907114,-0.16281068,0.112191886,-0.177698,0.040727362,0.1736486,-0.16154937,-0.09128429,-0.34164357,-0.101372056,-0.1611295,-0.26252428,0.001100723,0.0033858418,0.03301025,-0.018115547,0.0037513268,-0.12940039,-0.10406448,0.044242762,-0.042285703,-0.11316724,0.5113061,0.11490577,0.09930359,0.30908063,-0.07376188,0.117676795,0.15048407,0.12348608,-0.17013445,-0.3610201,0.09626761,-0.07092366,-0.13868842,-0.121875,-0.11616206,0.37816876,0.17788132,-0.13574217,-0.098145425,-0.18015513,0.04801396,0.0049324287,0.023529349,0.11262536,0.19256735,0.041695703,0.0045875013,-0.1472368,0.18455368,0.037990242,0.07857242,0.17476965,0.11926321,-0.09308785,-0.28429857,0.1565769,0.08854612,-0.25381422,-0.24735737,0.0407564,-0.34477162,0.034581833,0.20617156,0.12474047,-0.07140337,0.04278781,-0.016493738,-0.08009255,-0.07899527,-0.07287678,0.1318419,0.014283349,-0.26177892,-0.18426645,0.37641817,0.22965817,0.10475274,0.15270422,0.21617286,-0.1529038,-0.057155613,-0.13089906,-0.14632353,-0.17875424,0.32665828,0.37513256,-0.05614427,0.0015443038,-0.20664598,0.28666618,-0.052919608,0.1301709,0.14177504,0.4495496,0.15251964,-0.16661124,-0.14560659,0.24413763,-0.24896716,0.14366737,0.28393877,0.48836154,0.09374862,-0.49379143,0.19601502,0.35171595,0.3138316,0.20411628,-0.028275799,0.4489131,0.041906938,-0.027091824,0.09874311,-0.037711713,0.07722677,-0.33241713,0.33733198,-0.093632035,-0.10351994,-0.021772133,-0.00085536385,0.12377585,0.1951295,0.019700257,0.5900317,-0.013305851,0.047723964,-0.3575526,-0.13306797,-0.09514177,0.00019826142,0.029064592,0.049389854,0.122991174,-0.014604948,0.024088165,0.09005832,0.1536693,0.22423519,0.33990335,0.104883365,-0.1308074,0.12864994,-0.005595219,0.095337905,-0.036317,0.072135784,0.36256754,0.02009684
from,0.13862121,0.0466252,-0.18760979,0.020806516,0.069746494,0.14866832,0.12690204,0.13937497,0.14721556,0.19981916,-0.07334464,0.012911434,-0.13008499,0.10386976,-0.13616712,-0.06424999,0.2949472,0.19068867,0.14439237,-0.21747391,0.22369228,-0.053225167,0.16057919,0.23468962,0.13614053,0.16638495,0.03466894,-0.13757141,-0.12232585,-0.06351961,0.096629985,0.0007397093,0.1652229,-0.30985352,0.0116208,0.010295521,-0.07037643,-0.026131783,-0.059676632,-0.051161222,-0.11227894,-0.14559813,0.08132701,0.15319477,0.013602236,0.07659499,-0.30348763,-0.15214615,-0.047944155,-0.111917675,-0.10897274,0.040590353,-0.23133066,0.012952295,-0.10514353,-0.19736496,-0.060005184,-0.3715225,0.0378236,-0.12098832,-0.07741147,0.049995095,0.12689875,0.08441723,-0.058343656,0.07642921,0.06216261,-0.12289905,0.03458063,-0.0676,-0.091214314,0.27967876,0.22692816,0.00026293957,0.20041569,-0.16828625,0.14234717,0.15268193,-0.045797165,-0.22230504,-0.35110494,-0.057296563,-0.17249076,-0.062450547,-0.18934508,-0.11765241,0.36001548,-0.13406754,-0.053378016,0.031821948,-0.15514338,-0.0012679268,0.17321537,0.020280756,0.20896016,0.048998725,0.16326465,0.036302213,-0.06958343,0.11834585,-0.09349965,-0.015201953,0.15984131,0.1625378,-0.18200487,-0.38257435,0.1768933,0.058103163,-0.34672496,-0.34300554,-0.0013038202,-0.24051537,-0.041629057,0.08215881,0.10942391,-0.015473732,0.034396086,0.02070247,0.01313979,-0.035147112,-0.12629052,0.07337617,0.1445833,-0.039796114,-0.20052277,0.34089378,0.15012595,-0.015621259,0.0017807054,0.21119042,-0.13741153,-0.08933478,-0.004882185,-0.064226665,-0.10356305,0.40366316,0.20868295,-0.018080674,-0.018773813,-0.14701179,0.32487974,-0.120177515,0.06801068,0.010499986,0.45088705,0.19378491,-0.24790898,-0.06631861,0.10836921,-0.2585311,-0.006095849,0.2720128,0.24967824,0.047584128,-0.37751132,0.10859661,0.2693999,0.21403739,0.19491528,0.047571667,0.44807956,0.02833593,-0.06893483,0.099793665,0.023053514,0.13579106,-0.18274352,0.19175828,-0.1043279,-0.13158135,-0.11953507,0.07587834,0.15012613,0.10734951,0.046585627,0.5391704,-0.15667,0.056683097,-0.06550257,-0.1592724,-0.017056292,-0.12199623,-0.062399045,0.13282916,-0.004585293,-0.06572419,0.09551428,0.026112925,0.2548945,0.25551206,0.1972952,0.081246585,-0.15447891,0.104579784,0.10396737,0.06834429,-0.024858544,-0.030595059,0.22741361,-0.031047693
they,-0.20156547,-0.2499112,0.30313364,-0.16369078,0.2548313,-0.51754326,0.26164904,0.17559457,-0.39893192,0.13845102,-0.22724353,-0.33355942,-0.6149977,0.037894245,-0.4277815,-0.0008779352,-0.049997695,0.05832577,-0.123716675,-0.027491381,0.20938955,0.22306323,0.09043874,0.3256822,0.26484975,0.20593965,-0.25342926,0.1606935,-0.14642793,-0.094880536,0.22174966,0.40289173,0.4399247,0.038127027,-0.07699217,-0.1426652,-0.26261467,-0.11709129,-0.01876367,-0.24559656,-0.18808903,-0.03273345,-0.12192405,-0.3639634,-0.09379361,-0.48255357,0.3518162,-0.57910323,-0.20605461,0.08928345,-0.06178615,-0.024448559,0.190392,-0.14217864,0.2874946,0.05709974,0.12604694,0.04457963,0.25891617,0.14928056,-0.5010241,-0.5531752,0.14383285,-0.47437108,-0.16734962,-0.035788316,0.036742233,0.13888231,0.040355895,0.73096395,-0.5686426,-0.25667384,-0.24917138,0.2911367,-0.12565695,-0.21245685,-0.11772953,-0.27872792,-0.032848917,-0.44738412,0.06533453,-0.15361096,-0.27170214,0.4141613,-0.44822297,-0.053056553,0.2932881,-0.13442355,-0.15107681,0.5303978,-0.023478677,-0.82144463,0.085408404,-0.23569523,0.221567,0.23843624,0.3931366,0.25747064,0.15734696,-0.2734312,-0.5114365,0.031023027,-0.15486892,-0.1571884,-0.22013615,-0.8440893,-0.15394056,0.6757952,-0.10407872,-0.46317524,0.09968295,0.25929865,-0.10055333,0.30337098,-0.1717058,0.052370016,0.11251308,-0.5583388,0.06373114,-0.5459757,0.20861988,-0.35887864,-0.011047967,-0.50748307,0.58879215,0.28130454,-0.2829754,0.08252129,0.04032639,-0.19033338,-0.630207,-0.021530263,-0.27084538,0.4961877,0.06491417,0.6675683,0.042843185,-0.17171808,0.36307582,-0.31644854,0.12626922,-0.23858611,-0.04227923,-0.43386915,0.39794365,-0.34087554,-0.3486554,-0.23119205,0.18920825,0.23081405,-0.066553146,0.63778394,-0.39099625,0.7194083,-0.3859327,0.24599911,0.5875459,0.6491904,0.16924088,-0.13772918,1.1304207,0.36906552,0.16165084,-0.060936354,0.036316685,0.5357547,0.443968,-0.38830033,0.49387267,0.040914234,0.26815405,-0.40257147,-0.029659072,0.17431203,0.14154053,0.6618914,-0.2951164,-0.13473552,0.13060874,0.24175593,0.08231986,-0.06998468,0.0292044,-0.11380672,-0.089427635,0.07130548,0.43106717,0.24508724,0.29285547,-0.26160008,-0.033970363,0.10530711,0.25539142,-0.17142078,-0.21316344,0.16873239,0.055768527,0.16984022,-0.023212157,0.19886655
when,-0.20718685,-0.15353921,0.015239186,-0.23869437,0.2427051,0.037892744,-0.059785828,0.20595033,0.20386748,0.20380163,-0.13696061,0.13375954,-0.17248343,0.00039102414,-0.018958125,-0.049968462,-0.16586593,0.13250755,0.09935039,-0.04050945,0.24586381,0.16513123,0.01401637,0.071856715,-0.056675483,0.0677731,-0.096470125,-0.025887797,0.20141225,0.26051193,0.14161414,-0.14267875,0.17412683,-0.46135378,-0.0793092,-0.08134052,-0.26051104,-0.08457023,0.14554867,-0.22725743,-0.04446608,-0.06935746,0.043955207,0.17801835,0.024334585,0.06477971,-0.18075977,-0.13946365,0.02999825,-0.040943258,-0.04373169,-0.14123034,0.15460084,-0.06489094,-0.12580566,0.20079185,-0.31361625,-0.3817959,-0.07686886,0.060439255,-0.1937681,0.10378364,0.15392116,-0.026740117,-0.19748333,0.15602408,0.08268134,0.23605993,0.09309426,0.38443905,0.02260624,0.27747035,0.20545961,-0.193845,-0.20542039,-0.21096088,0.13552654,-0.08320337,-0.17571712,-0.15250155,-0.21955948,0.13987543,-0.26406282,0.06518852,0.017370183,0.015451825,0.20350282,-0.18537088,0.22740005,0.19385624,0.17963827,-0.17962085,0.18718213,-0.18016392,-0.029485537,-0.09369362,0.094713636,-0.17372556,0.22315225,0.14737226,-0.2115744,-0.037491545,0.053568676,-0.284372,-0.085803136,-0.31267697,0.1762903,-0.08027905,-0.25625408,-0.16767094,-0.030797208,-0.021103874,-0.35380098,0.025034204,0.12601459,0.07305168,0.050197765,-0.27967373,-0.04510073,-0.46429867,0.11362361,-0.10690739,-0.13035011,0.039076388,-0.06111661,-0.009532216,0.38316202,-0.21467534,-0.1330263,0.0062825116,-0.116948016,0.02636813,-0.06414153,0.056408435,-0.043018162,0.24326545,-0.114099115,0.14594106,0.11698097,-0.3178209,0.4109898,-0.3638533,0.09425672,-0.10820368,0.36178735,0.040656153,-0.30582547,0.14082643,0.12682728,-0.000121824756,-0.16532455,0.34284234,0.09602655,0.17703038,-0.21049406,0.15628599,0.17766288,0.2337471,-0.19365323,0.08788654,0.07654858,-0.06485055,-0.072244145,-0.009126111,0.20295951,-0.017124582,0.28016594,-0.06931862,0.11737913,-0.11188207,-0.043636177,0.20349702,0.101712905,0.12456038,-0.08898768,0.38573018,-0.11627496,0.17708948,0.14105818,-0.039826535,-0.08159842,0.17715445,0.25759622,0.04746359,-0.049469415,-0.027189167,0.21941863,0.13861728,0.58410364,0.22909348,0.42114577,0.1967173,-0.27779934,-0.3181734,-0.14377041,0.32558414,0.25756362,-0.4167156,0.111352354,0.08442194
will,-0.29767096,0.15608057,-0.0871625,0.104448125,-0.18123811,-0.22362739,0.36275467,0.18756354,-0.028081276,0.2699718,-0.12080324,-0.31921667,0.052510094,0.50655484,-0.08517149,0.12916023,-0.05603166,0.012828463,-0.0584505,-0.2938024,-0.21019189,-0.4665323,-0.23726958,-0.22662957,-0.27972606,0.007463038,-0.12916346,-0.36320698,-0.45387703,0.08945443,0.5748291,-0.15882051,0.15920043,0.04411411,-0.0031628532,0.31079936,0.6058507,-0.124239944,0.11176569,-0.20251112,-0.1799692,-0.60642713,-0.36696362,0.33525547,1.0647751,0.045059737,0.46242085,-0.35257217,0.41192567,-0.20667851,0.14403354,0.22563006,0.051787555,0.3153225,-0.256427,-0.12504897,-0.05201629,-0.23924458,-0.34630555,-0.1261671,0.20808719,0.34106225,-0.26418045,-0.047514692,-0.45166487,0.47988045,0.47815475,0.54860115,0.1626774,0.7466355,0.33575624,0.105662316,0.64673877,-0.06953803,0.2671154,0.27842414,0.14250764,-0.1342899,-0.17127211,-0.49673343,-0.3056534,-0.45331547,-0.31568176,0.48311788,-0.06910296,0.02947904,-0.08068628,0.47681874,-0.1882196,0.09562699,0.23312981,0.36574063,0.47063816,0.4675578,0.6338949,-0.30243665,0.14083587,0.008111931,0.08323315,-0.13362901,-0.18739595,0.64881366,0.07269184,-0.20665896,-0.25189885,-0.084036455,0.44314232,-0.13886444,0.057304487,-0.046549566,-0.1332045,-0.3570809,0.44979718,-0.5538234,-0.0006993797,-0.47429916,0.1118393,-0.6909495,-0.056438074,-0.291117,-0.37928766,0.5134039,-0.25278592,0.2826631,-0.9459807,-0.08823535,0.37597284,-0.21306685,-0.039296407,-0.06855226,-0.014268204,-0.031393148,-0.07062647,-0.09229652,-0.29472807,0.5721289,0.11008024,-0.32633528,0.012930248,-0.096871346,0.49030137,-0.3432132,-0.008579885,-0.42644408,-0.24859127,0.2362243,0.033606116,0.7372726,-0.1489878,-0.40640897,-0.05828015,-0.5279179,0.21876188,-0.08669276,-0.12241546,-0.16708146,-0.7367662,-0.15305907,-0.50204533,0.15583864,0.4468494,0.041744094,-0.052854713,-0.20483564,0.16588034,0.15556994,-0.1867326,0.10145537,-0.69690984,-0.17906457,0.03517633,0.24718203,0.009878068,-0.34282637,0.036899924,-0.03165802,0.20809165,-0.08081463,0.0059806607,-0.09595306,0.44791824,-0.6709327,-0.5472059,0.22510983,0.028592134,-0.3921516,-0.21195081,-0.2754947,-0.6727429,-0.26873595,-0.17672676,-0.006496386,-0.10331869,-0.084853515,0.09602514,-0.070176415,-0.07418154,0.070317574,0.16954789,0.024818627
your,-0.031314604,0.00619092,-0.0661184,0.2319225,-0.08141576,-0.18860489,0.337065,0.16261233,-0.5589042,-0.26024026,-0.04550776,-0.34091702,0.17706983,0.3699823,-0.04444362,0.47919935,-0.008997106,0.1254936,0.05914408,-0.32408085,0.17894827,-0.25263017,0.053921666,-0.3143776,-0.34736836,-0.27521583,-0.16294833,-0.04194035,-0.14384966,-0.030584157,0.29781923,0.18775854,0.0186927,0.4537511,0.16906878,0.16249247,0.09614317,0.088630036,0.18020065,-0.0050203544,0.33793017,-0.09689306,-0.30154714,0.27767593,0.022615345,0.02915497,0.6183002,-0.17663372,0.38921863,-0.04162424,-0.12527022,0.17066799,0.26099956,-0.14208928,0.06061971,0.13267556,0.14332502,0.18077147,0.35522148,0.07988842,0.5499367,0.10308211,0.05485298,-0.27471295,-0.3733922,0.32516518,0.14382473,0.3239981,-0.34419867,0.76463765,0.2953667,-0.3524018,0.437859,0.104506016,0.47287273,0.25344473,0.17880459,0.07341218,-0.5006408,-0.184009,-0.15069509,-0.16316843,-0.22697464,0.81598043,-0.11304644,0.117366746,0.19527404,0.4660791,-0.18920189,0.11351677,0.51066,-0.09902965,0.29291138,0.19579157,0.14371249,0.06172868,-0.010997049,-0.029868867,0.3617068,0.007323928,0.035870172,0.5225317,-0.07228292,-0.108910635,-0.2532155,0.006184097,0.27854958,0.0017008805,0.5909317,0.052502636,0.101368435,-0.19636804,0.35019675,-0.18566433,-0.17439331,-0.3829535,0.395763,-0.6788873,-0.11299278,-0.007677722,-0.08371913,0.55900884,-0.049463484,0.024635494,-0.5445338,0.074903324,-0.7632992,-0.33340502,-0.11859711,0.26513067,0.056761336,-0.32516682,-0.34385848,-0.16066544,-0.10665505,0.57616204,0.111927204,-0.0787955,-0.12342103,0.025421117,-0.07530191,-0.20907411,-0.18674268,0.12404504,-0.52094,0.46474645,0.102032885,0.46150646,-0.22009028,0.3073282,-0.17613941,-0.5228363,-0.026611248,-0.33945027,0.21809883,0.34146303,0.19606201,0.19689965,-0.07745507,0.11830587,-0.21530694,-0.19973084,0.41819814,-0.199148,0.0084779505,0.38851264,-0.12695795,0.15690973,-0.40561625,-0.13372193,0.057777185,0.40627503,0.30778104,-0.17611444,-0.41640532,-0.12133543,-0.23509133,0.10373475,-0.33246544,-0.18750887,-0.34501997,-0.09907923,0.325616,0.15953806,0.4755596,-0.36112377,-0.41771433,-0.033355072,-0.09824215,-0.49103045,-0.1568996,0.0063776243,-0.10967254,-0.1210981,0.07081197,0.15419415,0.17291227,0.5188511,-0.55604035,0.03404531
there,0.10555554,-0.3615326,0.37439704,-0.021003114,0.36595386,-0.20798592,-0.052066796,0.19442092,-0.23689882,-0.32645896,0.082240544,-0.16056608,-0.48491693,-0.096381836,0.18750902,0.3765402,-0.4922366,-0.29486203,0.17884912,-0.41436127,0.1330711,-0.08163667,-0.23662862,0.52344686,-0.13511178,0.4270227,0.29503977,-0.11346819,0.33023635,0.33514175,-0.25443527,0.46456647,0.24347068,-0.2835203,0.23227806,0.14618699,0.1792577,-0.34175166,-0.4864847,-0.03281635,0.29521698,-0.06130044,0.3261896,0.16462448,0.21930331,0.18224338,0.13882232,-0.05919461,0.073283486,-0.084426165,-0.001745362,-0.038342386,-0.24480549,0.15948609,0.3386499,-0.24060373,-0.26127934,-0.3519715,-0.34395832,0.24613218,-0.823717,-0.21785393,-0.18888581,-0.02408507,-0.08420667,-0.30153742,-0.44248837,0.45208895,-0.086815044,0.53200287,-0.6253137,0.518121,-0.22063266,-0.0016297277,0.30441552,0.063102536,0.35636908,-0.43256938,0.3871916,-0.10201768,0.2842033,0.05976536,-0.07054571,-0.4058488,-0.05105347,0.10063116,0.2812859,0.48724473,0.118682,0.16778728,-0.29510683,0.05523728,-0.26227593,0.40904117,0.005709895,0.24084146,0.35276252,0.16953704,0.22773509,0.1819938,-0.13471352,0.29023367,0.15638895,-0.3584496,-0.4715713,-0.6515829,-0.123155095,0.35009027,0.024105111,-0.02685321,-0.3060483,-0.09640438,-0.26456144,0.073874734,-0.07896371,-0.07776194,0.14680506,-0.58653647,-0.048257116,-0.9532986,0.34401342,0.23593982,-0.13374701,-0.6532602,0.305316,0.3300242,-0.03869915,-0.030073026,0.13997723,0.26178145,0.25064433,0.06386091,-0.37696496,-0.24539092,-0.24610984,0.3579381,0.08385162,-0.11025729,0.08004645,-0.7664055,0.4233758,-0.28796327,0.27213162,-0.004253506,0.19223914,-0.58925897,-0.1168489,-0.14755496,0.58007485,-0.18012494,0.15189469,0.21372269,0.5944056,0.43274686,-0.31214944,0.3274555,0.009980769,0.21887891,0.08461304,-0.06497363,0.3651235,0.22849593,0.12454993,0.21891925,0.29632506,0.1048431,-0.222428,0.2418093,0.677616,0.14919145,0.24660473,-0.06672967,-0.1823252,0.37594154,0.14439635,0.51001376,-0.09210273,0.48745152,-0.044180643,0.0044032685,-0.11475152,-0.023888439,0.13099118,-0.3202264,-0.20457122,0.23701696,0.27657542,0.043932434,0.2745951,0.30119815,-0.039445736,0.014456332,0.015393253,-0.65626943,-0.21253346,-0.14653577,0.15971854,0.19037232,0.026923819,0.15072335
were,0.32759815,-0.10898176,0.10589328,-0.010768676,-0.006725678,-0.70889854,0.04997191,0.0957595,-0.058318593,0.22530463,-0.18684152,-0.19939946,-0.11735886,0.43046984,-0.21210706,0.032441117,0.19000651,-0.04018483,0.064061336,-0.5785885,-0.10907202,-0.17926309,0.0060636876,-0.038168132,0.047739778,0.1544301,-0.057229996,0.44309607,-0.5383047,-0.04939631,0.17439383,-0.21846357,0.29932785,-0.08271113,-0.15593159,0.13861369,0.4888797,-0.04614892,-0.36471733,0.1869262,-0.48308617,-0.40987906,-0.28833935,-0.27712074,0.6323762,0.035960194,-0.53483766,-0.55011183,0.1517939,0.58405864,-0.36460257,-0.06259137,-0.25656247,0.28499684,0.27965647,-0.2557252,0.019047502,-0.690595,-0.27280366,-0.16332518,-0.6125736,0.0027815045,-0.1277356,-0.11262029,-0.17448683,0.38064826,0.18545665,-0.025757372,0.24611267,0.22775549,0.12658256,0.21375382,-0.20817214,0.0784026,0.21466714,-0.056684453,0.22385477,-0.15270393,-0.0096301595,-0.25140896,-0.23206481,0.0359253,0.036592502,0.19369254,0.00417085,0.27757552,-0.26389173,0.35917938,-0.01852066,0.1249637,-0.07251096,0.24122304,0.39366862,0.080187984,0.46672058,0.11659151,-0.056484886,-0.21700856,-0.35767654,0.10499521,0.093465716,0.33720973,0.18494633,0.30050114,0.15988408,-0.25617138,0.5159886,0.4361964,-0.23736943,-0.10073166,0.09396798,-0.052270148,0.57293016,0.27059442,-0.06880652,-0.31073937,-0.4393731,0.067877874,-0.22869858,-0.16683963,-0.20748597,-0.26586902,-0.44330737,-0.42652518,0.074391745,0.09756959,0.6521064,0.4073008,-0.103668384,-0.24772507,-0.16636051,0.123436615,0.25898123,0.08475926,0.03533638,-0.17431769,0.021762492,-0.5795748,0.1224677,-0.02466098,0.12413988,-0.069796845,-0.18661487,-0.27627644,0.3106232,0.013167246,-0.023773605,-0.22380318,-0.008044047,-0.14594069,0.0078085284,-0.052779846,0.030867904,0.13333358,-0.6190417,0.18368562,-0.119447134,0.671069,0.2932252,0.00740411,0.56090385,0.22470498,-0.48032552,0.004090722,-0.05611534,0.39044893,0.0489516,0.028410217,-0.07588558,0.1397704,-0.113406405,-0.25011387,0.07801115,0.026584249,0.3713907,0.1278614,0.07832854,-0.21494672,0.0604462,0.11243714,0.30550793,-0.022514308,-0.31432712,-0.20778657,0.32810116,-0.07098825,0.41701406,-0.5696717,-0.23980564,-0.30126196,0.37504536,0.07743591,-0.121928,0.32339653,-0.29226935,-0.113665104,0.027924296,-0.1888491,0.11969666,0.27132913
